0.023936
-0.005536
0.014307
0.000392
0.012734
0.009996
-0.007815
-0.016922
0.018265
0.019824
-0.013496
0.014004
0.002253
0.002575
-0.021371
-0.007824
-0.015764
-0.000888
-0.002786
-0.008105
-0.007371
-0.005685
-0.005959
0.007281
0.023762
-0.003348
-0.007559
-0.007892
-0.008836
0.001576
0.016073
-0.002890
0.011425
-0.008615
0.004231
0.005696
-0.023182
-0.005367
0.005257
-0.001022
-0.003593
0.015826
-0.005365
0.011185
0.006268
-0.001972
-0.000338
0.004984
0.037865
-0.004323
-0.004620
0.004620
-0.010819
-0.008934
0.011788
0.014320
0.000781
0.004850
0.002118
0.007314
0.001123
0.014288
0.000263
0.017042
0.008143
0.011643
0.010488
0.007674
0.019940
0.018915
-0.005285
0.011349
0.010032
-0.026336
-0.001404
0.035623
0.002105
0.005250
0.008628
-0.000282
-0.002707
0.013480
-0.005368
-0.000318
-0.016918
-0.001667
-0.009136
-0.003443
-0.011779
0.003598
-0.001358
0.021500
0.005139
-0.004378
-0.016001
-0.000471
0.006546
0.015880
0.005650
-0.003082
0.011410
0.025144
-0.016769
-0.004482
0.003882
0.006696
0.004603
-0.020118
0.017998
0.015621
-0.004181
0.005847
-0.009517
-0.024255
0.006338
0.021507
-0.000189
0.014869
0.008298
0.007637
0.001024
-0.008799
-0.001533
-0.005423
0.009530
-0.004874
0.024204
0.001106
-0.007813
0.010015
-0.000201
0.004097
0.015034
-0.007170
-0.011993
0.018920
-0.015209
0.018831
-0.005596
-0.012525
0.010882
0.005423
0.012838
0.006856
0.006653
-0.000062
-0.012798
0.025399
-0.021013
-0.005384
0.019163
0.005117
-0.001691
0.009056
0.002074
0.001663
0.005859
0.015397
-0.001561
-0.021348
0.015625
-0.006575
0.001286
-0.004566
-0.008386
0.022227
-0.008572
0.013697
-0.007092
-0.016599
0.002874
-0.006250
-0.013561
0.002310
0.012997
0.031842
-0.015124
0.019377
0.001440
0.005017
0.035894
-0.021405
0.011711
0.018419
-0.000013
-0.009065
0.000060
-0.010773
-0.001165
-0.010446
0.001013
0.001847
-0.003983
0.003599
-0.001698
-0.001110
0.023544
-0.000455
0.004689
-0.006724
0.004067
-0.010776
0.017915
0.005435
-0.008695
0.000568
0.005718
-0.014862
-0.000998
-0.014347
0.000500
0.012567
-0.019547
-0.008361
0.015277
0.006511
0.003891
0.015672
-0.010393
-0.019886
0.004886
-0.002508
-0.001151
0.027824
-0.009672
0.016566
-0.007792
0.008246
0.018293
-0.003989
-0.026709
-0.007747
-0.004477
0.002138
-0.017081
-0.006629
0.003993
-0.005307
0.011595
0.012278
0.000422
0.008543
0.009212
-0.011401
0.001186
-0.006250
0.031678
-0.000925
0.014476
-0.009658
-0.010793
-0.003144
0.005143
0.006229
-0.004745
-0.009557
0.020117
-0.007854
-0.000559
-0.017872
0.021915
-0.007952
0.000827
0.020544
0.004804
-0.004875
-0.003207
-0.004281
-0.005541
0.002885
0.015437
0.009327
0.018956
0.021890
0.005713
-0.005378
0.003973
-0.013163
0.017632
-0.001298
0.007867
-0.005721
0.002357
0.005172
-0.004680
-0.019454
-0.008809
0.001120
0.004173
-0.003527
0.010796
-0.005610
-0.003473
-0.003487
-0.005980
-0.012258
-0.012646
0.001787
-0.003939
0.021360
-0.018562
0.031284
-0.000885
-0.001323
0.010888
0.002908
-0.004485
-0.008488
0.013717
0.048550
0.010004
-0.006789
0.016017
0.008383
-0.006889
-0.015353
0.023784
-0.003646
0.005935
0.027587
-0.018636
-0.007349
-0.008345
0.007421
0.012013
0.014784
0.024889
0.007504
-0.007835
0.015460
-0.008225
0.000867
-0.005366
-0.007834
0.015874
-0.018782
-0.009059
0.006001
0.004345
0.011968
-0.006172
0.009188
0.010985
-0.010680
-0.002142
-0.005757
-0.010184
-0.020428
0.003896
0.021308
0.014516
-0.006229
-0.004391
-0.002367
-0.005206
0.009709
0.008815
0.012339
-0.005638
0.011810
-0.005245
0.005726
0.011428
0.006004
-0.009058
0.000866
0.025691
-0.003718
-0.004792
0.004487
0.001754
0.018965
-0.015900
0.016946
-0.012280
-0.014440
0.047029
0.003904
-0.010982
-0.007167
0.016327
-0.009786
-0.008395
-0.001483
-0.000205
0.008456
0.028535
-0.003627
0.021217
-0.004568
-0.001150
0.011069
-0.006504
0.010830
0.004673
-0.010819
0.002091
-0.003459
-0.011134
0.009134
-0.016729
0.027393
0.014164
-0.001500
-0.026771
-0.015858
-0.002756
0.014151
-0.000027
0.017454
-0.000700
-0.003534
0.003764
0.012845
0.006787
0.022417
-0.005525
0.000020
0.011055
-0.007450
-0.004420
0.002013
-0.000090
0.009191
-0.005085
-0.023432
-0.001280
-0.001712
-0.010816
0.005820
-0.019920
-0.012898
-0.002567
0.004575
-0.009922
-0.007952
0.031727
0.003306
0.000757
0.021236
0.004499
-0.005063
0.002387
0.003091
-0.017592
0.007138
-0.002788
0.015436
0.008678
-0.015994
-0.015473
-0.004156
-0.008250
-0.002094
-0.018292
0.000871
-0.007514
0.020331
0.015758
-0.007890
-0.022873
0.009545
0.006817
0.004604
0.022108
-0.008543
-0.005085
-0.007541
0.007648
0.018205
0.004546
-0.005121
0.008463
0.014272
-0.004098
0.000897
-0.020106
-0.013666
-0.001996
-0.019619
-0.003732
0.003329
-0.000400
-0.026581
-0.007956
-0.007188
-0.001453
-0.001036
0.035423
-0.007452
-0.001167
-0.006539
0.000758
0.016398
-0.003939
-0.001857
0.002751
-0.003434
0.013283
-0.007175
0.005524
-0.011152
0.005530
0.027083
0.015680
-0.000858
0.003648
0.003964
0.014027
-0.010176
0.008794
0.003015
-0.003676
0.010584
-0.007725
0.029552
-0.000000
-0.004842
0.001658
-0.015543
0.021983
0.003062
0.015043
0.009984
-0.001365
0.006789
0.011892
0.010786
0.021023
0.017317
0.002670
-0.001787
0.008266
0.017327
0.016130
0.004457
-0.021499
0.015354
0.014905
-0.010852
0.013872
0.019149
0.012635
-0.015129
-0.016584
-0.002408
0.009744
-0.016213
-0.009093
-0.008137
-0.004884
0.014627
-0.008883
0.003929
0.035618
0.002809
-0.005674
-0.013774
0.019055
-0.022686
0.013977
0.004289
-0.012959
0.007978
0.028769
-0.007612
-0.000752
-0.000461
-0.003281
-0.015172
-0.006044
-0.010640
-0.016684
0.003133
-0.009803
0.000829
0.020195
0.016667
-0.000123
0.002601
0.003513
0.009566
0.012448
0.020798
0.021077
-0.011524
0.011892
0.003170
-0.001130
0.004504
0.003608
0.008044
0.007744
-0.019945
0.006904
0.014303
-0.004128
0.004064
0.003339
-0.008224
0.001546
-0.001785
-0.004026
-0.002328
0.004309
-0.014693
-0.018013
-0.005187
-0.012940
-0.009749
-0.003234
-0.011712
-0.013325
0.009357
-0.006179
-0.000490
0.009203
0.017220
0.001307
0.006019
0.000587
-0.025141
-0.005490
0.016892
-0.006465
0.023774
-0.009855
0.022263
0.008173
0.006335
0.012750
-0.004695
-0.002251
-0.002907
0.003264
-0.009197
0.011312
-0.004575
0.012474
-0.015733
0.022931
-0.002883
0.009664
-0.012312
0.002784
0.010172
0.005334
0.014318
-0.016528
-0.000414
0.000880
0.004830
0.014174
-0.004367
0.010725
0.005593
-0.008230
-0.002755
-0.010872
0.014179
0.009629
-0.027160
0.005421
0.012473
-0.001265
0.015140
0.010524
0.049502
0.019036
0.000147
-0.003040
-0.001913
0.005077
-0.009517
0.022599
0.004171
0.000896
0.027224
-0.021493
0.011875
-0.006489
-0.007219
-0.010022
-0.011461
-0.000039
0.002374
0.007207
0.000171
-0.001076
-0.010824
0.024335
-0.003984
0.013519
-0.008157
-0.004757
-0.008964
0.007573
0.003956
0.007154
0.008916
0.017051
0.013043
0.003809
-0.013662
0.003935
0.012144
-0.018448
-0.008348
-0.001980
-0.016624
0.014358
0.014601
0.013755
-0.014628
-0.010581
-0.012571
0.008602
-0.006085
-0.010381
-0.006925
0.010765
-0.008077
-0.008560
-0.012676
0.009671
-0.020992
0.016166
0.009675
-0.003198
0.001474
-0.009130
-0.002662
-0.013808
-0.001990
0.015173
-0.000068
0.022582
0.003635
-0.009295
0.002109
0.022608
0.016049
-0.009878
0.016814
0.000576
-0.009622
-0.006839
-0.012543
0.000403
0.005264
-0.001098
-0.002392
0.025332
-0.006986
-0.000003
0.008040
0.018446
0.009587
0.013270
0.006501
0.012876
0.007164
0.018771
-0.003383
-0.004958
-0.004772
0.017890
0.017112
-0.013178
-0.009200
-0.010282
0.012387
0.000554
-0.005290
0.001877
-0.005562
0.004981
0.018118
0.021411
-0.006832
-0.011517
-0.003770
-0.003644
-0.024780
0.006076
-0.000654
0.024518
0.003117
0.017746
-0.015346
-0.008919
-0.023432
-0.014011
0.006891
-0.001427
0.035816
-0.014975
-0.013708
-0.020474
0.020131
0.004240
-0.002945
-0.014262
-0.013823
-0.011212
0.034449
0.001108
-0.003062
-0.002308
0.003309
-0.000937
0.004393
-0.000582
-0.001809
-0.001187
0.011176
-0.003298
0.006805
-0.008044
-0.004077
-0.014201
-0.006370
0.000746
0.002570
-0.008469
0.001007
0.002969
-0.000326
-0.014123
-0.003121
-0.005567
-0.014892
-0.008875
-0.007181
0.000546
0.016505
-0.000622
0.001488
-0.002680
0.011424
0.000329
0.017651
0.006986
0.013898
0.021795
-0.011221
-0.025302
-0.013314
-0.009147
0.012239
-0.006842
-0.013972
-0.010585
0.018802
-0.023219
0.004582
-0.016878
0.000804
0.008632
-0.005530
-0.007855
-0.002072
-0.000094
-0.001823
0.009173
-0.014493
-0.015585
0.002609
-0.019407
0.019743
-0.020168
-0.002327
-0.002003
-0.011118
-0.004001
0.008167
0.014839
-0.003031
-0.022443
-0.002377
0.002004
-0.014932
-0.006977
-0.009690
-0.011544
-0.004006
0.008410
0.003201
-0.007228
0.004368
0.004462
-0.012454
0.002465
0.006445
0.007232
-0.007488
0.003684
-0.000282
0.012411
-0.000055
-0.002880
-0.003225
-0.007532
0.018528
-0.001278
-0.002522
-0.006649
0.018671
-0.007278
0.000134
0.003178
-0.001359
-0.004898
-0.003427
-0.005321
0.014011
-0.005048
-0.006482
-0.005912
-0.002132
-0.002032
-0.007688
0.004588
0.001738
0.028975
-0.003848
-0.012674
-0.009706
0.001961
0.008566
-0.001285
0.016801
-0.024016
-0.011107
0.002909
0.003644
0.011470
0.016739
-0.017544
0.003279
-0.000675
-0.003902
0.017066
0.002303
-0.008428
-0.028520
-0.009778
0.000273
0.002150
-0.009962
-0.004737
-0.018223
-0.012571
0.012945
0.017967
0.010402
0.006229
0.014774
-0.000959
0.009941
-0.008208
0.026619
0.001276
0.005244
0.014584
-0.000927
-0.007629
0.004858
0.013197
-0.012620
0.009718
-0.007663
-0.016243
-0.023742
-0.003716
0.005341
-0.003521
-0.002761
-0.018184
-0.010580
0.005526
0.015415
0.016121
0.014366
-0.007768
-0.010772
-0.012077
0.002856
0.018565
0.005574
0.008822
-0.020929
-0.007686
0.007240
-0.004336
0.026696
-0.012856
0.001495
-0.002567
-0.010722
-0.003160
0.000147
-0.011241
0.001658
-0.008653
0.006615
0.001794
0.007959
-0.016793
0.001448
-0.020764
-0.013907
-0.004346
-0.009787
-0.022654
0.010267
-0.006478
0.005881
-0.006004
-0.002730
0.003036
0.007543
0.014512
0.012097
0.007513
0.000860
0.015493
0.001178
0.004657
0.007153
-0.002560
-0.001389
0.002084
0.005163
-0.004276
-0.004333
0.003599
0.020205
0.002321
0.000460
-0.008572
-0.013577
0.011868
-0.000301
0.012640
-0.013360
0.008127
-0.004788
0.022358
-0.002243
0.023455
-0.002764
-0.000631
-0.010515
-0.004833
0.013650
0.005770
0.013905
-0.014290
0.007583
-0.018917
0.005331
0.016800
0.007505
-0.008691
0.011306
0.004663
0.017966
-0.011437
0.009334
-0.004402
0.005630
-0.008920
-0.010038
-0.006761
-0.015966
0.003120
-0.005777
-0.004324
-0.004913
0.029482
0.004068
0.011861
-0.002947
0.022403
0.020552
-0.030874
0.016305
-0.003586
0.004382
-0.004170
-0.015030
