#include <math.h> 
 #include <string.h> 
#include "./include/k2c_include.h" 
#include "./include/k2c_tensor_include.h" 

 


void bolimodel(k2c_tensor* dense_input_input, k2c_tensor* dense_2_output) { 

float dense_output_array[64] = {0}; 
k2c_tensor dense_output = {&dense_output_array[0],1,64,{64, 1, 1, 1, 1}}; 
float dense_kernel_array[50176] = {
+8.21933988e-03f,+1.98786333e-02f,-8.81867483e-02f,-7.11426362e-02f,-2.17748359e-02f,
+5.23160174e-02f,-3.01991263e-03f,+5.65571040e-02f,+3.08390334e-02f,+7.63815418e-02f,
-7.75714219e-02f,+1.30221695e-02f,+5.03353141e-02f,+2.88832709e-02f,+2.01950036e-02f,
+1.85932443e-02f,-1.55899413e-02f,-1.36177288e-02f,-5.31159304e-02f,-9.50078014e-03f,
+6.16981983e-02f,-5.66496253e-02f,+2.60002911e-02f,+3.38470079e-02f,+2.03892570e-02f,
-4.22951020e-02f,-2.58080233e-02f,-4.38732728e-02f,-1.97119564e-02f,-3.70218977e-02f,
-6.71172440e-02f,+3.98451947e-02f,-3.98982540e-02f,-5.20351492e-02f,+2.30766088e-02f,
-3.36749218e-02f,-3.71686593e-02f,+9.17718560e-03f,+3.73341925e-02f,-8.49127844e-02f,
+6.08504340e-02f,-6.22735284e-02f,+6.34474382e-02f,-6.44081226e-03f,+5.95814101e-02f,
+1.60167292e-02f,+3.77649069e-02f,+2.63020251e-04f,-6.39767759e-03f,-5.46480305e-02f,
-2.78201569e-02f,+2.00920533e-02f,-4.85583432e-02f,-3.85692455e-02f,-2.51404941e-02f,
-7.61479661e-02f,+4.45927605e-02f,+4.14503515e-02f,+1.13346606e-01f,-8.58303830e-02f,
-3.26450840e-02f,-7.72740766e-02f,+9.48137864e-02f,+3.27920876e-02f,+1.79483090e-02f,
-5.60833216e-02f,-4.81890589e-02f,+2.18602810e-02f,+8.61138403e-02f,-1.24901310e-02f,
-6.48714826e-02f,+3.52902599e-02f,+7.52807781e-02f,+5.76421842e-02f,-7.14513883e-02f,
-8.00594985e-02f,+4.97330725e-02f,+4.15429845e-02f,-1.10864313e-02f,-7.03170300e-02f,
+3.31428424e-02f,-1.02981962e-02f,-5.21068536e-02f,+4.16184403e-02f,+1.23633370e-01f,
-9.10758004e-02f,-8.68310481e-02f,+8.20643902e-02f,-2.45246980e-02f,-7.05266297e-02f,
-3.04221059e-03f,+2.84507647e-02f,+2.42882818e-02f,-3.07714324e-02f,+2.38623098e-02f,
+2.11440027e-02f,-2.71707103e-02f,+2.24133004e-02f,-2.98973285e-02f,-4.96667400e-02f,
-4.33968715e-02f,+4.55513075e-02f,+3.06697953e-02f,-1.99371688e-02f,+5.55423237e-02f,
+3.23422663e-02f,-7.26438090e-02f,-2.98823440e-03f,+2.75889523e-02f,-4.70769629e-02f,
-8.88224468e-02f,+4.07792442e-02f,-1.47134336e-02f,-1.12045810e-01f,+3.54860350e-02f,
-2.65990160e-02f,-8.87958556e-02f,+6.86914399e-02f,-8.15204810e-03f,-7.83863738e-02f,
+4.79023047e-02f,+9.77224484e-03f,-2.03685630e-02f,-9.45967622e-03f,+5.20564392e-02f,
+2.98822131e-02f,+7.83776194e-02f,+4.41242233e-02f,+5.23795448e-02f,+1.75773054e-02f,
+5.74810663e-03f,-6.53491616e-02f,+1.06303893e-01f,-6.26412779e-03f,-1.98302437e-02f,
+5.71453571e-02f,+5.70997596e-03f,+3.20314094e-02f,-4.96714711e-02f,-6.88021630e-02f,
+4.35609818e-02f,-5.13257273e-02f,-2.25762445e-02f,-5.29669113e-02f,-1.33866407e-02f,
-5.41550256e-02f,+7.77524933e-02f,+7.57490620e-02f,+4.73026633e-02f,-4.81987894e-02f,
-5.13210241e-03f,-2.61513982e-02f,+5.55824004e-02f,-8.92952755e-02f,-2.10849214e-02f,
+2.86829844e-02f,-2.64493413e-02f,+5.65063097e-02f,-1.07086571e-02f,-9.29550007e-02f,
+4.42420319e-02f,-2.52845008e-02f,-5.63243106e-02f,-2.34702304e-02f,+4.85933498e-02f,
-3.78937274e-03f,-3.43882516e-02f,-6.05460778e-02f,+6.28877580e-02f,-1.15195289e-02f,
+8.26958790e-02f,-1.80525873e-02f,-5.86299151e-02f,+2.62567773e-02f,-1.06565386e-01f,
-5.13040973e-03f,-5.84772155e-02f,-1.07381716e-01f,-5.95362894e-02f,+5.12705520e-02f,
+2.33140192e-03f,+6.91794828e-02f,+5.27050607e-02f,-2.27170661e-02f,-5.39789572e-02f,
-2.52868310e-02f,-1.72624961e-02f,-9.43056867e-02f,-7.18529895e-02f,-3.05012465e-02f,
+7.19821379e-02f,-5.56290187e-02f,+8.56029466e-02f,+2.61398926e-02f,-8.94249380e-02f,
+1.61041375e-02f,+5.83103597e-02f,+3.22947279e-02f,-6.81490228e-02f,+1.08543299e-01f,
+3.54396179e-02f,+4.01933193e-02f,+3.32146585e-02f,-5.69281690e-02f,+6.81445375e-02f,
-3.40052582e-02f,+1.34383328e-02f,+7.68579170e-02f,+7.56856725e-02f,+1.67884876e-03f,
-1.70940105e-02f,-6.42165765e-02f,+9.79155749e-02f,-6.02449663e-03f,-1.82620145e-03f,
+8.94191489e-02f,-2.39180326e-02f,+3.45082097e-02f,-1.08404167e-01f,+4.60798368e-02f,
+4.39037308e-02f,-6.30200356e-02f,-5.57148270e-02f,-5.55462614e-02f,-5.22209294e-02f,
-6.43133149e-02f,-5.91236167e-02f,+9.79124829e-02f,-3.92385907e-02f,-7.07268789e-02f,
-4.49791960e-02f,-1.43830068e-02f,+8.61018151e-02f,+4.14599013e-03f,+2.09846739e-02f,
-1.01602403e-02f,+2.37270980e-03f,-1.63923949e-02f,-1.13087773e-01f,-1.12906825e-02f,
+2.03512404e-02f,+1.84391849e-02f,+8.11697096e-02f,+9.00192782e-02f,-4.53400165e-02f,
-6.09178022e-02f,-4.32166308e-02f,-6.78646564e-02f,+3.86207588e-02f,-4.91813011e-02f,
+3.18697952e-02f,+5.11609316e-02f,+7.91400149e-02f,+7.24548101e-02f,-1.49976893e-03f,
-3.22788991e-02f,-4.62712012e-02f,-4.47549783e-02f,-5.98638132e-02f,-8.72303694e-02f,
-8.35188385e-03f,+2.75785848e-02f,+1.82893518e-02f,-3.96792628e-02f,-7.15489015e-02f,
-4.54659201e-02f,-3.59281301e-02f,+5.39932363e-02f,-4.21347432e-02f,-2.17482410e-02f,
+2.35567223e-02f,+7.26508871e-02f,-6.42936304e-02f,-7.09017217e-02f,+3.91918570e-02f,
-7.46397162e-03f,+2.11845823e-02f,-3.30981053e-03f,+7.07884505e-02f,+9.35986266e-02f,
-8.14855844e-03f,+1.05380826e-02f,-1.82207543e-02f,-7.94931427e-02f,+1.53164715e-02f,
+4.40980680e-02f,-5.58856539e-02f,-6.66458309e-02f,+6.28705323e-03f,-8.21093023e-02f,
-7.54967555e-02f,+7.77453035e-02f,-4.36994769e-02f,-6.50294125e-02f,+2.79266816e-02f,
+8.34770352e-02f,+9.40111950e-02f,-2.09667515e-02f,-4.36223932e-02f,+4.69905064e-02f,
+4.92004268e-02f,+3.86972502e-02f,-6.89904019e-02f,-4.20213491e-02f,+2.89199017e-02f,
-4.53838482e-02f,-2.87003480e-02f,+5.00830375e-02f,+3.58354524e-02f,+1.46676600e-02f,
+9.51189622e-02f,+2.06575990e-02f,-2.32262593e-02f,-2.48682424e-02f,+1.31840646e-01f,
-1.08431382e-02f,-9.75420326e-03f,-2.34769024e-02f,+8.46319497e-02f,+7.03045726e-02f,
+7.70559087e-02f,-6.05419800e-02f,+5.68086281e-02f,-6.61485940e-02f,-1.39537109e-02f,
+7.64684156e-02f,-4.32238653e-02f,+6.69036731e-02f,+5.57119586e-02f,+7.84784928e-02f,
+2.28432380e-02f,-6.88665509e-02f,-3.83831188e-02f,+7.98981860e-02f,+3.56613100e-02f,
+7.08071962e-02f,-5.78765459e-02f,-7.24988505e-02f,+6.05502538e-02f,-5.42186983e-02f,
-2.66502183e-02f,-3.75656784e-02f,-1.22629451e-02f,+5.11253392e-03f,+9.66322422e-02f,
+7.86634255e-03f,+1.68601759e-02f,-4.62744087e-02f,-7.51953200e-02f,+3.76463272e-02f,
-4.93492112e-02f,-9.69876722e-02f,-5.01999520e-02f,-1.27125114e-01f,-6.95567802e-02f,
+7.54102319e-02f,-2.35117376e-02f,-1.37459263e-02f,-3.60649154e-02f,+4.55379821e-02f,
-7.52139743e-03f,+2.10443847e-02f,+6.46521077e-02f,-9.14004892e-02f,-6.38763085e-02f,
-3.47272716e-02f,+1.93639826e-02f,+4.43254076e-02f,-2.39454079e-02f,-1.18546933e-01f,
-4.93880361e-02f,+1.45625719e-03f,-3.60229425e-02f,-1.64226964e-02f,-8.58576037e-03f,
-3.30097377e-02f,+1.96299125e-02f,-9.75982100e-02f,+7.46586695e-02f,+4.01316360e-02f,
+1.51628554e-02f,+8.61905739e-02f,-1.62770115e-02f,+1.55503433e-02f,+1.75161436e-02f,
-7.08946735e-02f,-9.26506706e-03f,-3.35850678e-02f,-5.22411242e-02f,-5.65816648e-02f,
-1.02734737e-01f,+8.01345930e-02f,-4.42578681e-02f,-7.39634261e-02f,+6.48780391e-02f,
+9.45243239e-03f,-2.63111275e-02f,-8.95760506e-02f,-9.36294869e-02f,-5.63146174e-02f,
-1.19031547e-02f,-4.05425057e-02f,-4.06992175e-02f,+7.27863461e-02f,+4.53003682e-02f,
+3.69543284e-02f,-4.66122478e-02f,-2.60447618e-02f,+7.54272332e-03f,-3.95270959e-02f,
-6.64065555e-02f,+4.70601313e-04f,+5.77122718e-02f,-6.77509308e-02f,+4.93370928e-02f,
-6.37963489e-02f,-6.22472987e-02f,-6.82558790e-02f,+6.38174638e-02f,-1.34632392e-02f,
-7.44810849e-02f,+1.04057584e-02f,-4.95378599e-02f,-5.37066981e-02f,+3.27518769e-02f,
+6.72603026e-02f,-2.33544894e-02f,-3.80414240e-02f,+1.23975158e-03f,-2.99278144e-02f,
-6.87572211e-02f,+5.96613623e-02f,+5.34451306e-02f,-7.26080313e-02f,+1.22039011e-02f,
-6.01839833e-02f,+1.63293853e-02f,-2.74836458e-02f,+5.50315008e-02f,-2.05990542e-02f,
-5.07386215e-02f,-1.09036900e-01f,-7.78511539e-03f,+5.95961027e-02f,-6.69509992e-02f,
-6.70674369e-02f,+4.43387516e-02f,-4.49956283e-02f,+1.75000727e-02f,-3.34090404e-02f,
-3.41219380e-02f,-4.18477207e-02f,+4.77846675e-02f,-4.42320406e-02f,-7.49609573e-03f,
+4.53405119e-02f,-3.71286012e-02f,-3.15355547e-02f,+1.81478746e-02f,-5.29007353e-02f,
+7.36913159e-02f,-7.04232091e-03f,+1.10275187e-02f,+1.85213555e-02f,+5.00602601e-03f,
+4.35331129e-02f,+5.55999577e-02f,-9.29911621e-03f,+7.27614015e-02f,-7.07475170e-02f,
+3.90839856e-03f,-6.06573634e-02f,+1.17450170e-02f,+2.67799348e-02f,+2.36054696e-02f,
-5.62892333e-02f,-1.52526191e-02f,+5.23112435e-03f,+7.03077316e-02f,+3.42498869e-02f,
+1.65176541e-02f,-1.29274175e-01f,-6.10614866e-02f,-6.84752166e-02f,-6.39713556e-02f,
-2.84726080e-02f,+5.73370643e-02f,+9.11522955e-02f,+1.20899819e-01f,-1.07610030e-02f,
-1.09782033e-02f,+4.39454764e-02f,+3.98145542e-02f,+5.54495119e-02f,+3.06723733e-02f,
-4.95186187e-02f,+4.87763807e-02f,+1.46467471e-02f,+7.06767291e-02f,+8.45825449e-02f,
+5.82558885e-02f,-5.41701950e-02f,+8.81712437e-02f,+4.94163372e-02f,+2.50663180e-02f,
-3.37007269e-02f,+8.74341056e-02f,-6.61284626e-02f,+6.41185045e-02f,-3.04051042e-02f,
+7.61622563e-02f,-4.90331948e-02f,-3.20434682e-02f,-6.93355501e-02f,-4.82088029e-02f,
-1.58655364e-03f,+1.97346080e-02f,+3.62384431e-02f,-1.54809114e-02f,-2.86925808e-02f,
-2.96594370e-02f,-6.99222535e-02f,-3.46413106e-02f,+7.05390498e-02f,-3.99301685e-02f,
+3.82468244e-03f,-7.24483728e-02f,-2.91979481e-02f,+8.00095275e-02f,-3.91509682e-02f,
-6.68265298e-02f,-4.64824513e-02f,-3.26997181e-03f,+2.79350579e-02f,-5.98394088e-02f,
-2.55338494e-02f,+4.81690057e-02f,-3.74041907e-02f,-1.78112164e-02f,+3.28138433e-02f,
-8.36980417e-02f,+7.27524906e-02f,+6.83485791e-02f,+5.77226579e-02f,+3.77450138e-02f,
-1.00106001e-01f,+7.39267617e-02f,+2.24104133e-02f,-4.10745442e-02f,-7.22742230e-02f,
-6.95353597e-02f,+3.81887592e-02f,+4.31754440e-02f,-3.08095496e-02f,-1.92872286e-02f,
+6.15112148e-02f,-1.70204975e-02f,-8.53293911e-02f,-1.21242702e-01f,-3.52053787e-04f,
-3.13544497e-02f,-1.32268965e-02f,+6.19337745e-02f,-1.94780622e-02f,+1.64040141e-02f,
+6.18993863e-02f,+3.36309895e-02f,+9.51573625e-03f,+1.39464643e-02f,+2.28427090e-02f,
+3.86266336e-02f,+6.17972091e-02f,+2.74802689e-02f,-3.79325226e-02f,+1.11544225e-03f,
+8.02161843e-02f,-5.05698808e-02f,-8.79361629e-02f,+6.62441850e-02f,-1.74580961e-02f,
+1.11290447e-01f,-8.24581832e-02f,+6.15210943e-02f,-6.91556782e-02f,+6.89434856e-02f,
+2.75580119e-03f,-3.46533097e-02f,+3.37408409e-02f,+2.74385381e-02f,+4.04927358e-02f,
+3.10348328e-02f,+6.50108755e-02f,-4.39602025e-02f,-5.80518730e-02f,-5.25894314e-02f,
+6.92047775e-02f,+2.37649009e-02f,-9.79259536e-02f,+2.26447340e-02f,-8.62706006e-02f,
-1.41748087e-02f,+4.59022559e-02f,+3.23173925e-02f,+6.46360442e-02f,+7.45797679e-02f,
-4.49225195e-02f,-3.98214087e-02f,-1.78579614e-02f,-3.03238854e-02f,+1.48567846e-02f,
+5.78829721e-02f,+2.55057365e-02f,+4.81909029e-02f,+2.80831363e-02f,+3.74636836e-02f,
-3.59888375e-02f,+4.05288227e-02f,+2.31077312e-03f,+1.28806438e-02f,-1.50064928e-02f,
+7.00937351e-03f,-3.83481346e-02f,+5.14202053e-03f,+3.63669619e-02f,+3.67229208e-02f,
-1.94739345e-02f,+5.78314885e-02f,+5.22849560e-02f,-3.45796742e-03f,+2.59891823e-02f,
-4.49161679e-02f,+4.90540005e-02f,+3.93425114e-02f,+2.34085042e-02f,+1.01091050e-01f,
+5.28976843e-02f,+2.27154512e-03f,+1.75055228e-02f,+2.81411987e-02f,-8.55292287e-03f,
-7.80805275e-02f,-2.83705480e-02f,-1.53203839e-02f,+5.91566674e-02f,+2.91161295e-02f,
-2.43865848e-02f,+2.02847067e-02f,+1.81730762e-02f,+1.65466573e-02f,-6.45494014e-02f,
-4.37800437e-02f,+4.12582979e-02f,+3.37339612e-03f,+1.70546044e-02f,-5.94114773e-02f,
-6.67794570e-02f,-6.92354515e-02f,+4.09144498e-02f,+5.95797822e-02f,+1.06757477e-01f,
+4.23252843e-02f,-4.20515016e-02f,-2.08456293e-02f,-5.27979769e-02f,-3.06532849e-02f,
+7.15490570e-03f,+6.79324642e-02f,-4.83578406e-02f,-2.21737828e-02f,-6.78059608e-02f,
+9.60826315e-03f,+3.99066061e-02f,+7.44310766e-03f,+2.58035157e-02f,+5.40479645e-02f,
-6.79849833e-02f,+2.74242237e-02f,+1.52893718e-02f,+8.28550849e-03f,-4.55641607e-03f,
+1.11779191e-01f,-3.61431576e-02f,+8.91870912e-03f,-7.62415007e-02f,+7.37086535e-02f,
-3.81610245e-02f,-6.58828914e-02f,+4.78525534e-02f,-2.50029564e-02f,+7.20147938e-02f,
+7.97488838e-02f,+3.37686762e-03f,+1.12438584e-02f,-5.20000495e-02f,+8.95448476e-02f,
+1.79229043e-02f,+7.15032369e-02f,+7.02157095e-02f,-3.55134383e-02f,-6.01699762e-02f,
-2.38164440e-02f,+2.40799244e-02f,+5.73137850e-02f,+8.90774354e-02f,-9.01974551e-03f,
-6.55596331e-02f,+5.92265949e-02f,-1.40016656e-02f,+9.49277133e-02f,-6.53933436e-02f,
+7.22269565e-02f,-4.21207696e-02f,+7.68260136e-02f,-6.59282878e-02f,-5.12888879e-02f,
+6.09761588e-02f,+1.12324068e-02f,+3.46719399e-02f,-7.43386522e-02f,+5.38012832e-02f,
-2.03469060e-02f,-2.00137571e-02f,-1.01722136e-01f,+8.70763659e-02f,+3.43242940e-03f,
-3.41099165e-02f,+6.63574226e-03f,-1.27172458e-03f,+7.41719529e-02f,+4.66639176e-02f,
+6.61714971e-02f,-3.94726917e-02f,+1.89332534e-02f,-7.77906924e-02f,+4.81110848e-02f,
+3.73516828e-02f,-1.89263746e-02f,-7.30287805e-02f,-4.29452360e-02f,-2.30760649e-02f,
-3.68424095e-02f,-4.31437194e-02f,+3.34212044e-03f,+4.00275998e-02f,-4.24049087e-02f,
-8.35275277e-03f,+9.10987984e-03f,+1.80562418e-02f,+5.77364340e-02f,-2.76589319e-02f,
+4.73347772e-03f,+5.18956035e-03f,+1.67792365e-02f,+8.88360515e-02f,+8.30083191e-02f,
+2.06061192e-02f,-7.54250214e-02f,+8.02293420e-04f,+6.06825985e-02f,+5.74126057e-02f,
-6.66349987e-03f,-2.18644794e-02f,-5.34240417e-02f,-9.72507596e-02f,-4.43823859e-02f,
+9.68204960e-02f,+2.33634189e-02f,+6.04769848e-02f,+2.59890389e-02f,+1.19108893e-02f,
-7.80964270e-02f,+1.01937540e-03f,-2.91583724e-02f,-6.91409484e-02f,-3.24197523e-02f,
+3.83655056e-02f,+2.46190839e-02f,-6.62427470e-02f,-6.28705323e-02f,+3.50520085e-03f,
+7.97428265e-02f,-8.79207999e-02f,+7.10999873e-03f,+5.42859733e-02f,-1.09276203e-02f,
+1.40305776e-02f,+4.13994677e-02f,+1.15311310e-01f,-9.66532156e-02f,-2.12320108e-02f,
+1.50517579e-02f,+1.33555802e-02f,-4.78024147e-02f,-6.55529723e-02f,+2.49221064e-02f,
+2.95398608e-02f,+4.41500247e-02f,+3.65589149e-02f,+5.55693964e-03f,+3.03095323e-03f,
-3.93043458e-03f,-7.30128586e-02f,-5.96469715e-02f,-5.78938276e-02f,+2.24880166e-02f,
-2.50749495e-02f,+1.89218726e-02f,+9.77593139e-02f,-1.49186905e-02f,+1.72212608e-02f,
+2.19047200e-02f,+7.13394061e-02f,-6.38129711e-02f,+6.33586720e-02f,-1.25879645e-01f,
-6.30741939e-02f,+1.10900565e-03f,+9.78961959e-02f,-3.81106846e-02f,-1.68215595e-02f,
+3.91666181e-02f,+5.79402596e-03f,+2.16440242e-02f,+1.93758344e-03f,+4.60018357e-03f,
+7.02037737e-02f,+5.78668574e-03f,-9.66485515e-02f,-4.99603823e-02f,+8.90545473e-02f,
+3.61522064e-02f,-2.03923928e-03f,-4.53920737e-02f,-7.49568343e-02f,+9.49834764e-04f,
+6.66392175e-03f,+2.31814012e-02f,-9.80237350e-02f,-7.86357448e-02f,-1.06383458e-01f,
-6.15237914e-02f,-8.02194476e-02f,+6.98292330e-02f,-3.31907049e-02f,+3.31548490e-02f,
-7.56709427e-02f,+2.62066685e-02f,-6.17271550e-02f,+1.01396237e-02f,+7.47004002e-02f,
+6.16767518e-02f,+3.34005542e-02f,+4.16432619e-02f,+9.02476534e-03f,+5.78156374e-02f,
-8.05575848e-02f,-4.28206176e-02f,+4.46851104e-02f,-1.45722255e-02f,+6.68257847e-02f,
-1.76180955e-02f,-4.88979556e-02f,-2.59879492e-02f,+4.35035303e-02f,-4.51918542e-02f,
+3.49369384e-02f,-4.93363151e-03f,-7.94126019e-02f,+2.02842169e-02f,-4.88297679e-02f,
-9.78260394e-03f,+5.29089943e-02f,-6.88703358e-02f,-6.38348237e-02f,+2.83354893e-03f,
-2.22166702e-02f,+2.50681322e-02f,+7.15029463e-02f,-1.38739571e-01f,+2.42314115e-02f,
+3.13340239e-02f,-5.99613003e-02f,-6.95439428e-02f,+4.02833223e-02f,+8.14353675e-02f,
-7.37514794e-02f,+1.85874868e-02f,+5.19482046e-03f,+3.00044045e-02f,-5.74069396e-02f,
-3.78707163e-02f,-8.35778490e-02f,-5.22957966e-02f,+5.41837653e-03f,+5.03390376e-03f,
+3.03197978e-03f,-6.22242950e-02f,-1.72063131e-02f,+6.32306710e-02f,-8.28121006e-02f,
-5.27624525e-02f,-3.92600447e-02f,-8.57863426e-02f,-6.46129400e-02f,-6.42235624e-03f,
+7.18417317e-02f,-6.02590032e-02f,-3.67325246e-02f,+2.48497439e-04f,+4.19467362e-03f,
-3.90689261e-02f,+1.50371138e-02f,-2.30789911e-02f,+5.24917431e-02f,-2.52140709e-03f,
+5.16455770e-02f,+3.12887393e-02f,-2.51753628e-03f,+1.98631790e-02f,+3.58345322e-02f,
-7.83971176e-02f,-6.89282492e-02f,-5.20554483e-02f,+1.29578486e-02f,-6.61366880e-02f,
+1.42528946e-02f,+4.00601178e-02f,-5.81992529e-02f,-4.64830622e-02f,-2.99843419e-02f,
+4.08082232e-02f,-2.76708174e-02f,-7.63487592e-02f,+4.20976058e-02f,+5.66586591e-02f,
+3.74717489e-02f,+1.26604522e-02f,-2.15842947e-02f,+8.28330144e-02f,-4.46288139e-02f,
+5.91335036e-02f,-8.19764808e-02f,-2.05534566e-02f,-2.36738101e-02f,-6.02807179e-02f,
-3.29982154e-02f,-5.24713062e-02f,-2.52849776e-02f,+8.24894458e-02f,+3.24777663e-02f,
-9.92483739e-03f,+8.30918958e-04f,+5.81859872e-02f,+4.74720374e-02f,-3.75124067e-02f,
-3.69740231e-03f,-7.02195615e-02f,+7.74880350e-02f,+1.14232607e-01f,-2.03748122e-02f,
-4.78911772e-02f,+6.16378449e-02f,+2.05565058e-02f,+5.93848452e-02f,+2.35250667e-02f,
-2.83890981e-02f,-6.76185042e-02f,-6.09099749e-04f,-4.19037528e-02f,+5.62926829e-02f,
-3.97604108e-02f,+1.34705873e-02f,+5.81116751e-02f,-4.40072380e-02f,+2.33751554e-02f,
-8.14735964e-02f,+2.80431192e-02f,+7.78761059e-02f,+4.02203500e-02f,-1.99355204e-02f,
-4.16920260e-02f,-8.89574885e-02f,-4.84642992e-03f,-3.13951261e-02f,-6.83781579e-02f,
-1.54379765e-02f,-1.04123196e-02f,-8.37630183e-02f,-4.08975631e-02f,-2.61654872e-02f,
+7.94492736e-02f,-6.37683049e-02f,-1.06086591e-02f,+1.19537832e-02f,+6.74281642e-02f,
+1.29979225e-02f,+6.45683706e-02f,+5.50918467e-02f,-3.91756929e-03f,-4.72243987e-02f,
+4.72314246e-02f,+4.24195975e-02f,-2.29318589e-02f,+5.84237911e-02f,+4.31566238e-02f,
-8.63693804e-02f,-8.86493474e-02f,-3.28022800e-02f,+6.52805641e-02f,-4.12279814e-02f,
+7.15148449e-02f,+2.55037714e-02f,+9.55548137e-02f,-3.12363766e-02f,-4.57786061e-02f,
+4.62643318e-02f,-4.74496782e-02f,-1.95785556e-02f,-8.23228732e-02f,-1.23683140e-02f,
-1.06440596e-02f,+1.15422644e-02f,+1.70160905e-02f,-5.79789095e-02f,+2.37096474e-02f,
-3.46503477e-03f,+5.14015555e-02f,-4.05783653e-02f,-1.23317388e-03f,-2.73124874e-02f,
-5.26904725e-02f,+7.14616664e-03f,-4.49344236e-03f,+6.55011134e-03f,-9.76114273e-02f,
-5.44145592e-02f,-6.61367625e-02f,-2.01842319e-02f,+2.68817171e-02f,-4.10373043e-03f,
-6.18788302e-02f,+3.70270051e-02f,+8.62505287e-02f,+4.05004062e-02f,+1.75130628e-02f,
-3.05377468e-02f,-9.63771995e-03f,+5.35519086e-02f,+4.41642888e-02f,-8.01542476e-02f,
-6.51022717e-02f,-6.49586990e-02f,+7.02194199e-02f,+3.80719788e-02f,+7.81268626e-02f,
-5.35737313e-02f,-4.42969427e-02f,-4.41094860e-02f,+9.73999593e-03f,+6.79331198e-02f,
-2.69567333e-02f,-5.50729148e-02f,-1.22001357e-02f,-1.74650028e-02f,+9.29098278e-02f,
-2.08602399e-02f,-9.30144824e-03f,+1.39460191e-02f,-5.70724867e-02f,+2.28932798e-02f,
-6.24474175e-02f,+2.43381243e-02f,-2.71382965e-02f,-4.38745506e-02f,-4.05529067e-02f,
+2.43373942e-02f,+2.30254419e-02f,-3.85705382e-03f,+6.98108152e-02f,+7.57860541e-02f,
-2.20116805e-02f,-5.34702204e-02f,-2.36518849e-02f,-4.76086847e-02f,-5.09306043e-02f,
+4.57534865e-02f,+1.06685691e-01f,-3.98916863e-02f,-3.41033377e-02f,-3.53492200e-02f,
-2.36746129e-02f,+2.60289945e-02f,-4.39015590e-02f,-5.40573373e-02f,+1.20073706e-02f,
-4.07964997e-02f,-5.48628382e-02f,+4.17603701e-02f,+1.04820840e-02f,+8.63726996e-03f,
+4.49705683e-02f,+8.72163661e-03f,+6.74149394e-02f,+6.37249928e-03f,-1.81507114e-02f,
+1.31551707e-02f,+8.33853260e-02f,-6.75227568e-02f,-2.90972013e-02f,-4.63848673e-02f,
-6.35701865e-02f,+1.52322799e-02f,-5.10847084e-02f,-9.25582573e-02f,-7.76736289e-02f,
-6.17671572e-03f,+6.84246197e-02f,+2.95491200e-02f,-7.24003911e-02f,+7.98768888e-04f,
+2.39371061e-02f,+3.49786021e-02f,+2.81577390e-02f,-2.69841049e-02f,-1.54417343e-02f,
-1.09174130e-02f,+5.21010421e-02f,+5.12177125e-02f,+3.86250094e-02f,-3.24236266e-02f,
+6.69426471e-02f,+2.46719923e-02f,+7.92995319e-02f,-2.10135058e-02f,-4.84883375e-02f,
-1.80010889e-02f,-8.72198120e-02f,-3.87170240e-02f,+1.68892089e-02f,-4.88278493e-02f,
-6.86253011e-02f,-7.60177672e-02f,-6.28739670e-02f,+3.67327593e-02f,-5.68877384e-02f,
+3.89274284e-02f,+5.68771996e-02f,-8.12563002e-02f,+4.17595692e-02f,-4.05811630e-02f,
+8.31615627e-02f,+5.29181808e-02f,-7.15198070e-02f,-6.10092543e-02f,+3.02531980e-02f,
+2.50105634e-02f,+2.51821168e-02f,+1.29690235e-02f,-3.75144780e-02f,+2.33717263e-02f,
+2.59316787e-02f,+5.10516157e-03f,+9.45788901e-03f,+6.29482567e-02f,-3.80561091e-02f,
-7.66703933e-02f,-9.67379939e-03f,-2.56599225e-02f,-7.38550797e-02f,+6.53648376e-02f,
+7.80807436e-02f,-7.60731325e-02f,-5.50761335e-02f,-2.66852286e-02f,-7.04661012e-02f,
-7.70304948e-02f,-5.73055521e-02f,-8.32134709e-02f,+1.25595937e-02f,-6.87443912e-02f,
-8.18420053e-02f,-4.31756228e-02f,-7.34214857e-02f,-1.25668524e-02f,-3.27178463e-02f,
+4.11213264e-02f,+3.80346701e-02f,+4.16007265e-02f,-8.13217014e-02f,+5.08447140e-02f,
+3.45287882e-02f,+5.64207956e-02f,-1.77141596e-02f,+3.26684900e-02f,+4.35784385e-02f,
-5.79949804e-02f,-2.08730437e-02f,+3.54464836e-02f,-1.91498660e-02f,+2.66461819e-02f,
-8.54651108e-02f,-6.39205892e-03f,-5.26545011e-03f,-8.58753100e-02f,-2.43092999e-02f,
-4.76691201e-02f,-7.34097064e-02f,-2.20857523e-02f,+1.95148382e-02f,+6.74350467e-03f,
-3.50901373e-02f,+7.67476037e-02f,-7.51576871e-02f,-3.84171284e-03f,-6.08726740e-02f,
+1.99512634e-02f,-5.50876595e-02f,-6.52187765e-02f,-1.54815288e-02f,-1.00047877e-02f,
-2.32924288e-03f,+3.25193964e-02f,-6.52863979e-02f,-6.88979700e-02f,-4.26913835e-02f,
+1.16936173e-02f,+4.34828140e-02f,-7.09265769e-02f,+7.44731724e-02f,+3.72133777e-02f,
-4.53746282e-02f,+8.46093521e-03f,+6.54792115e-02f,-7.07692951e-02f,+6.61659092e-02f,
+3.99323180e-02f,+5.11807837e-02f,-2.15035193e-02f,-9.35484245e-02f,+4.74596471e-02f,
-1.05359331e-01f,+2.83056498e-02f,-6.42965287e-02f,-6.72515258e-02f,-1.76522490e-02f,
-7.23426044e-02f,-2.84084696e-02f,-5.34927063e-02f,-6.93875030e-02f,-1.24141518e-02f,
+7.36888275e-02f,-7.40153566e-02f,+7.46369958e-02f,+2.02829670e-02f,+4.41218913e-02f,
-5.40645607e-02f,+6.75425604e-02f,+3.82793471e-02f,+6.30112067e-02f,-3.22691202e-02f,
+6.79040924e-02f,+4.84037139e-02f,-8.96628499e-02f,-5.70491813e-02f,+2.10972503e-02f,
-1.56222808e-03f,+1.36479558e-02f,-7.40586445e-02f,-6.00961745e-02f,+5.64354584e-02f,
+6.27278164e-02f,+6.54759258e-02f,+3.81820388e-02f,+4.90235873e-02f,-1.85937732e-02f,
+7.65950158e-02f,-8.16969946e-03f,+1.94837209e-02f,+1.86713990e-02f,+3.22793759e-02f,
-3.21656801e-02f,+4.03359681e-02f,+3.87391075e-02f,+6.27622604e-02f,+3.54324356e-02f,
+2.36782860e-02f,+2.98629776e-02f,-9.24930070e-03f,-4.97507751e-02f,+7.52757117e-02f,
-6.65936172e-02f,-9.94324312e-03f,-7.69539550e-02f,-5.37117012e-02f,-2.16113441e-02f,
-6.72630891e-02f,-5.35680689e-02f,+3.70449275e-02f,+1.33602083e-01f,-6.29463121e-02f,
+2.75294986e-02f,+4.11248952e-02f,+1.81998741e-02f,-7.30061298e-03f,+1.47768930e-02f,
-8.79454389e-02f,+5.48472367e-02f,-3.22452672e-02f,+7.41381869e-02f,-2.05892362e-02f,
+2.75705871e-03f,-5.37845604e-02f,-2.33056471e-02f,+4.81629223e-02f,-4.01922800e-02f,
+5.86702637e-02f,+2.32232152e-04f,-2.40186267e-02f,-4.34584059e-02f,-1.18843447e-02f,
+8.54834542e-02f,-3.64572629e-02f,+7.27576166e-02f,+6.72648326e-02f,-2.13344488e-02f,
+1.53892394e-02f,-2.90230033e-03f,-1.39179518e-02f,+6.06644154e-02f,+9.88611113e-03f,
-7.16581270e-02f,-1.01195462e-01f,+1.46974148e-02f,-8.07542875e-02f,-1.96394348e-03f,
-5.97551614e-02f,-5.00447489e-02f,+4.47285771e-02f,+2.61338502e-02f,+6.90546120e-03f,
-4.71033268e-02f,-1.18455194e-01f,+3.63914222e-02f,+8.31825361e-02f,-5.47068641e-02f,
+3.27855498e-02f,-6.04661480e-02f,-6.59310725e-03f,-2.00171620e-02f,-6.68239743e-02f,
-4.29297611e-02f,-4.75829421e-03f,-6.06159009e-02f,-5.94411092e-03f,+2.77172346e-02f,
+5.43749779e-02f,+3.58129516e-02f,+1.83645952e-02f,+1.80145409e-02f,-6.31741583e-02f,
-1.02971643e-01f,-9.89471525e-02f,+1.05868436e-01f,-1.12617865e-01f,-6.72727227e-02f,
-3.03454865e-02f,-5.35569638e-02f,-2.94669680e-02f,-1.08593881e-01f,-3.95261012e-02f,
-1.36809386e-02f,+1.23816207e-02f,-3.44816633e-02f,+4.58814129e-02f,-1.22820772e-02f,
-6.21929066e-03f,-4.09977213e-02f,+7.28416443e-02f,-4.92645465e-02f,+5.34319878e-03f,
-5.62502556e-02f,+2.95871627e-02f,-1.53673729e-02f,-5.57571873e-02f,+5.56674227e-02f,
+2.07408294e-02f,+4.92555164e-02f,+4.46335798e-05f,+1.58370435e-02f,+1.92568451e-02f,
-5.25475740e-02f,-8.46628547e-02f,+6.32785261e-02f,-6.74454123e-02f,-1.66101139e-02f,
+2.90054083e-02f,-8.35241973e-02f,+4.76094410e-02f,-3.70195210e-02f,-1.68814342e-02f,
+7.14358240e-02f,-1.53435897e-02f,-5.16843088e-02f,+3.28910686e-02f,-1.32300444e-02f,
-1.18729427e-01f,+3.24453674e-02f,-1.02747064e-02f,+1.00738183e-01f,-2.07714178e-02f,
+4.08615172e-02f,-1.05727687e-02f,-2.30317637e-02f,+5.06495610e-02f,+2.12836638e-02f,
-1.02961183e-01f,-6.74706921e-02f,+3.28231207e-03f,-1.37988962e-02f,+4.84371781e-02f,
-8.09771568e-02f,-1.75202545e-02f,+2.99757626e-03f,-1.77663788e-02f,-6.74155429e-02f,
+3.95478308e-02f,+1.08848967e-01f,-7.22594280e-03f,-3.26084383e-02f,+6.57788292e-02f,
-1.00368239e-01f,+2.09024623e-02f,-5.90357110e-02f,-2.99208574e-02f,+6.12194138e-03f,
-2.11665928e-02f,-5.04729562e-02f,-5.94497956e-02f,+2.66921297e-02f,-4.98745814e-02f,
+1.65031850e-02f,+7.36120110e-03f,-3.88062634e-02f,-1.94300748e-02f,-4.14656289e-03f,
-6.67137057e-02f,-2.68225162e-03f,-2.63422169e-02f,+1.00718029e-01f,-1.13109350e-02f,
+1.96055304e-02f,+1.94041431e-02f,-2.73070876e-02f,+1.98329408e-02f,-2.11009607e-02f,
-3.24671008e-02f,+4.01310027e-02f,-6.87977448e-02f,+5.58357872e-02f,-3.20460722e-02f,
-1.03157051e-01f,-7.14848191e-02f,-5.54880947e-02f,+7.43514672e-02f,+2.38476023e-02f,
+1.30100017e-02f,+2.66980473e-02f,-3.87530588e-02f,+7.66036510e-02f,-7.34566674e-02f,
-7.04519898e-02f,-3.23321149e-02f,+1.26755923e-01f,+2.69764047e-02f,+6.31155446e-02f,
-1.04381768e-02f,-2.51371395e-02f,+1.07542155e-02f,+4.56232615e-02f,-5.13995737e-02f,
-8.31030961e-03f,+7.21421763e-02f,-1.08399294e-01f,+7.13021606e-02f,+1.61809959e-02f,
-5.68786338e-02f,-1.07330501e-01f,+2.05635354e-02f,-8.72173905e-02f,-5.43979220e-02f,
+1.57926101e-02f,-9.94755328e-03f,+4.32758145e-02f,-6.23724191e-03f,-1.92863718e-02f,
+2.39975471e-02f,+4.72274423e-02f,+7.35644475e-02f,-9.65129584e-02f,-3.37925777e-02f,
-4.70100576e-03f,+6.07896596e-03f,-6.46158159e-02f,+2.73656584e-02f,+3.70351113e-02f,
+1.18850712e-02f,+1.42136877e-02f,+5.68640977e-02f,+3.51835787e-02f,+4.93094251e-02f,
-6.32887334e-02f,+2.36849748e-02f,+3.07560228e-02f,-7.69236833e-02f,-3.71429399e-02f,
-4.03533950e-02f,+6.95164129e-02f,+6.46921098e-02f,-7.76154846e-02f,-5.98763935e-02f,
-1.05246790e-02f,+6.49650255e-03f,+2.07002740e-02f,-1.91418435e-02f,-7.98880905e-02f,
+7.26311188e-03f,-6.78180978e-02f,-5.01681492e-03f,+4.72375266e-02f,-1.60046667e-02f,
+9.16666761e-02f,-5.82631491e-02f,+6.35409821e-03f,-5.04848994e-02f,+1.19672930e-02f,
-6.26202747e-02f,+2.24839896e-02f,+1.20324534e-04f,+5.12381122e-02f,-6.42103329e-02f,
+8.05848986e-02f,+2.44386476e-02f,+1.48405377e-02f,-4.92383353e-02f,+6.82042912e-02f,
+6.95155635e-02f,-5.61629087e-02f,+2.16553640e-02f,-4.85652909e-02f,-1.05469357e-02f,
+5.46895415e-02f,-8.54874402e-02f,-6.60919845e-02f,-9.88153368e-02f,-2.53976826e-02f,
-5.22504002e-02f,+7.83055872e-02f,-2.75992677e-02f,+1.62266418e-02f,+8.83017574e-03f,
+7.25271832e-03f,-4.52320129e-02f,+1.33729437e-02f,+3.11961770e-03f,+6.31179474e-03f,
-6.06890172e-02f,-1.67326834e-02f,-4.99668270e-02f,-1.02470582e-03f,+5.38248941e-02f,
+7.35871121e-02f,+2.05811895e-02f,+5.08161001e-02f,+1.97179373e-02f,+1.00449715e-02f,
+4.70178127e-02f,+8.94324332e-02f,-2.44017877e-02f,-3.07052564e-02f,-1.33203091e-02f,
-4.56315391e-02f,+4.89768200e-02f,-1.24544725e-02f,-2.69610062e-02f,-4.56326567e-02f,
+5.39948493e-02f,-2.62521151e-02f,+4.17524911e-02f,+3.78990173e-03f,-3.14512774e-02f,
-6.03367835e-02f,+9.95786046e-04f,-2.29697675e-03f,+3.03218756e-02f,+1.19418338e-01f,
+7.39834458e-02f,-4.76294346e-02f,-6.97482005e-02f,-5.55199347e-02f,+1.96910501e-02f,
+1.08478159e-01f,-7.27477074e-02f,+5.92395701e-02f,-1.08262092e-01f,+3.58238369e-02f,
+9.11154076e-02f,-4.86412384e-02f,+3.64034483e-03f,-5.26867760e-03f,-7.59556442e-02f,
-2.18390264e-02f,+6.57287762e-02f,-7.73606971e-02f,+6.96515143e-02f,-2.00264640e-02f,
-5.26835844e-02f,+3.41320410e-02f,-2.93095559e-02f,-6.20846357e-03f,-1.14177138e-01f,
-5.83982468e-02f,-1.85935684e-02f,+4.06253859e-02f,-1.68213842e-06f,+5.62134758e-02f,
+8.66096746e-03f,-6.47235289e-02f,-7.09832162e-02f,+7.28547201e-02f,+7.30215833e-02f,
-4.02162895e-02f,+4.40815650e-02f,-8.66504014e-02f,-5.54938503e-02f,-9.75506473e-03f,
-2.34737583e-02f,-2.40696669e-02f,-5.64645790e-02f,+6.44485503e-02f,-5.78974485e-02f,
-1.04989968e-02f,+6.22679070e-02f,+5.35671972e-02f,+2.93949060e-02f,+7.59799108e-02f,
+2.16985941e-02f,+8.43462795e-02f,-4.52906154e-02f,+2.91931946e-02f,-9.71951485e-02f,
+9.32911858e-02f,+1.41107719e-02f,-6.95813373e-02f,+5.87273426e-02f,+8.05118978e-02f,
-2.53527928e-02f,-8.42168182e-03f,-7.24152923e-02f,+1.05249673e-01f,-7.21656829e-02f,
-8.72467528e-04f,-5.20303426e-03f,-2.94306930e-02f,-9.29732434e-03f,+4.12637256e-02f,
+2.09519044e-02f,+6.43453151e-02f,-8.36839825e-02f,-5.75686768e-02f,+5.08958101e-02f,
+3.55268493e-02f,-2.95235626e-02f,-3.90626304e-02f,-6.44229576e-02f,+4.71709482e-02f,
-7.11960569e-02f,-1.33807845e-02f,-1.92615874e-02f,-8.36083144e-02f,+3.04256100e-02f,
+6.43709525e-02f,-6.00311197e-02f,+1.00754946e-01f,-6.83337227e-02f,-6.45971671e-02f,
-8.15657079e-02f,+4.14562598e-02f,+6.56485790e-03f,+2.02705096e-02f,+4.37790453e-02f,
-4.82671745e-02f,-3.25829722e-02f,-1.22318172e-03f,-2.81700008e-02f,+2.38384567e-02f,
-6.41930029e-02f,+5.14806435e-02f,+2.19335221e-02f,+1.77984238e-02f,+4.30973247e-02f,
+6.16856739e-02f,+1.62563547e-02f,+1.31120943e-02f,-1.04527764e-01f,+9.65969935e-02f,
+4.61776778e-02f,+3.21022943e-02f,+3.50084081e-02f,+1.82732176e-02f,-8.59431252e-02f,
-7.47794611e-03f,+7.38060698e-02f,-5.92938475e-02f,-9.00128856e-02f,+1.86820403e-02f,
+7.00269789e-02f,-2.60183886e-02f,-5.25121279e-02f,+4.80877571e-02f,+2.51081232e-02f,
-2.44213827e-02f,+1.61740147e-02f,+1.18771106e-01f,+3.12461127e-02f,+5.99037893e-02f,
-6.30731061e-02f,-1.12292871e-01f,-4.82425541e-02f,+9.21247378e-02f,+3.32476869e-02f,
-5.48162945e-02f,-1.35508366e-02f,+1.52626922e-02f,+9.26962346e-02f,+1.68422610e-02f,
+4.12880778e-02f,-6.07688576e-02f,-8.20697844e-03f,-6.83398619e-02f,-2.00934634e-02f,
-3.84313986e-02f,-1.10082701e-02f,+2.39584558e-02f,-6.20698929e-02f,+1.82448849e-02f,
+4.62886207e-02f,+8.36297944e-02f,-1.99956000e-02f,+2.41480826e-04f,+7.03489350e-04f,
-1.75605547e-02f,+2.28162706e-02f,-1.22531317e-02f,+6.20493963e-02f,+3.36698741e-02f,
+7.30164275e-02f,+3.55286971e-02f,-3.26160826e-02f,+1.09423086e-01f,-1.12919278e-01f,
-7.17035234e-02f,-6.91665858e-02f,-1.55189037e-02f,-8.31009522e-02f,-5.48482686e-02f,
-1.35795102e-02f,+6.73487931e-02f,-7.26244077e-02f,+1.25841334e-01f,-7.78346509e-02f,
+8.34911782e-03f,-1.57976747e-02f,-3.41110639e-02f,-5.10434136e-02f,+8.87662470e-02f,
+4.43068966e-02f,+2.31789425e-02f,-8.12407881e-02f,+9.16556120e-02f,-2.03707200e-02f,
-1.68167390e-02f,-2.10409313e-02f,+1.63780767e-02f,+5.86429313e-02f,+7.11797401e-02f,
-3.62013653e-02f,+2.49348655e-02f,+2.15252992e-02f,-2.30410565e-02f,-7.80714527e-02f,
-9.21984240e-02f,+5.75171560e-02f,+5.23174740e-02f,+4.98783514e-02f,-8.00612569e-02f,
-6.30857721e-02f,+1.44441426e-01f,-4.14249226e-02f,+5.16127190e-03f,+3.87246907e-02f,
-2.48702690e-02f,+3.41272354e-03f,-1.06186233e-01f,-3.91889252e-02f,-1.44458923e-03f,
+7.48533234e-02f,+7.96181429e-03f,+4.08923114e-03f,+6.38596565e-02f,-4.46651578e-02f,
+3.50324018e-03f,-2.05327682e-02f,+5.92794828e-02f,+4.21167957e-03f,-5.83259687e-02f,
-7.79181197e-02f,+3.50964591e-02f,-5.74761480e-02f,-9.77400839e-02f,+7.88622424e-02f,
-8.17192569e-02f,+7.79989809e-02f,+2.35944875e-02f,+4.41750698e-02f,+3.50536429e-03f,
+5.03267199e-02f,+1.28277382e-02f,+9.12427828e-02f,+1.94914341e-02f,+7.13332966e-02f,
+2.11549234e-02f,+6.67495653e-03f,+7.84987137e-02f,-1.34966886e-02f,+5.28946109e-02f,
+1.18301657e-03f,-4.32422683e-02f,-1.31193101e-02f,-8.26737359e-02f,-3.05914432e-02f,
-9.80999768e-02f,-1.34063393e-01f,+4.21326123e-02f,-6.58655539e-02f,-7.40719736e-02f,
+4.59186360e-02f,+1.04305714e-01f,+7.09593669e-02f,-1.88213792e-02f,-5.91914505e-02f,
+3.98544893e-02f,+3.45962197e-02f,-3.88990231e-02f,+3.59088182e-02f,+5.46063446e-02f,
+8.85267630e-02f,+4.30629812e-02f,+8.13333020e-02f,-3.05539425e-02f,-6.65605068e-02f,
+1.22756548e-01f,-3.29898261e-02f,-3.03945150e-02f,+7.58789852e-02f,-5.35486378e-02f,
+3.70026380e-03f,+4.91505116e-02f,-5.59479445e-02f,+5.35389893e-02f,-8.03818107e-02f,
+9.94567946e-03f,-4.83703613e-03f,+1.66608300e-02f,+1.30371265e-02f,+4.10928996e-03f,
+9.29493308e-02f,+9.36884582e-02f,+4.68833819e-02f,+4.95430604e-02f,-1.74408983e-02f,
+1.08286344e-01f,-1.63780209e-02f,-2.59197392e-02f,+2.46032774e-02f,+5.35890833e-02f,
-4.74070944e-02f,+5.21709323e-02f,-4.29057293e-02f,-3.16953510e-02f,-1.24673083e-01f,
+3.94642614e-02f,-4.52516936e-02f,-4.87225950e-02f,-3.98824327e-02f,+4.23632525e-02f,
+5.33151068e-02f,-6.41105650e-03f,-8.13042969e-02f,-7.33853430e-02f,-9.95733365e-02f,
+2.40439791e-02f,+3.00049931e-02f,+1.44585958e-02f,+2.24716645e-02f,-2.26576310e-02f,
-5.47870398e-02f,-5.45413680e-02f,-6.52710348e-02f,+4.86736186e-02f,-5.12082465e-02f,
+2.19938383e-02f,+2.56163627e-02f,+4.04021181e-02f,+3.98269147e-02f,+5.88107742e-02f,
-6.34080321e-02f,+7.87170231e-02f,+3.95546108e-03f,+4.35203016e-02f,+7.43994787e-02f,
-3.93336751e-02f,-5.44288233e-02f,-3.67303267e-02f,-7.98521657e-03f,-9.27633978e-03f,
-5.94542064e-02f,-3.37886326e-02f,+3.99964601e-02f,-4.35010344e-03f,-2.75927037e-02f,
+2.91307289e-02f,-2.70587467e-02f,+9.24835503e-02f,-4.30404767e-02f,-1.36261424e-02f,
+4.29783016e-02f,-6.75014853e-02f,-4.45198603e-02f,-4.72735427e-02f,+3.11078727e-02f,
+7.54585713e-02f,-8.37624352e-03f,-1.18803093e-02f,-1.00815194e-02f,-4.20686640e-02f,
+1.90073065e-02f,-3.38362791e-02f,+7.25967810e-02f,-6.42696768e-02f,+1.50761921e-02f,
+4.82668839e-02f,-5.21845780e-02f,+2.11265730e-03f,-2.83662532e-03f,-9.49311163e-03f,
+1.06222384e-01f,-5.26883863e-02f,+5.29209599e-02f,-9.36292782e-02f,-1.12518277e-02f,
+1.70056075e-02f,-7.31051490e-02f,-4.02880944e-02f,-1.08326271e-01f,-6.67481571e-02f,
+1.70833766e-02f,-7.85595328e-02f,-1.03144962e-02f,+2.47211033e-03f,-1.50894582e-01f,
+4.54253554e-02f,-8.07498842e-02f,-9.85282823e-04f,+8.80226493e-04f,-4.23289351e-02f,
-8.15582201e-02f,-5.37725762e-02f,-1.04800791e-01f,-1.11733759e-02f,-2.09182464e-02f,
-5.64021245e-02f,-2.52382569e-02f,+1.14193022e-01f,-5.28204367e-02f,+7.44350925e-02f,
-4.79170159e-02f,-2.19149180e-02f,-9.58729982e-02f,+2.07243580e-02f,-7.07878023e-02f,
-8.67671967e-02f,-4.67921197e-02f,-1.73738301e-02f,-4.33688946e-02f,-1.09041318e-01f,
+4.52479422e-02f,+1.08166315e-01f,-1.59962699e-02f,-1.58745628e-02f,+7.11399838e-02f,
+5.27283177e-02f,+4.25673686e-02f,+6.49194568e-02f,+3.43653038e-02f,+2.20211763e-02f,
-7.75746480e-02f,-8.83620232e-02f,-4.12161388e-02f,+1.00482523e-01f,-9.41677659e-04f,
+3.13932262e-02f,-7.65493214e-02f,-4.33779396e-02f,-8.73031244e-02f,-9.88053740e-04f,
-1.08261213e-01f,-2.73112860e-02f,-1.89105291e-02f,-5.89352958e-02f,-5.06770872e-02f,
+4.18415889e-02f,-3.34131196e-02f,-1.95438396e-02f,-5.64640015e-02f,-4.13313657e-02f,
-6.44946322e-02f,+3.60224955e-02f,-5.09074144e-02f,-3.62217128e-02f,+5.90701625e-02f,
-1.29297346e-01f,+7.69900829e-02f,-5.09584509e-02f,-5.10790572e-02f,-4.39070612e-02f,
+5.63009679e-02f,-9.86444391e-03f,+5.17371222e-02f,+1.00593612e-01f,+1.56255588e-02f,
+5.59046157e-02f,-9.94750112e-02f,+2.54211053e-02f,+3.72068174e-02f,-1.14142671e-02f,
-6.35177717e-02f,+4.09303494e-02f,-6.08046213e-03f,+5.50637133e-02f,+1.48477927e-02f,
+1.94082279e-02f,-3.52421068e-02f,+6.07381463e-02f,+4.80144210e-02f,+7.53161833e-02f,
+3.77419330e-02f,+5.01097217e-02f,-5.19919489e-03f,-9.69722271e-02f,-8.88219476e-02f,
+5.49258664e-02f,+5.74423485e-02f,-7.05304742e-02f,-8.62899348e-02f,+4.87301638e-03f,
+3.13232578e-02f,+5.64488769e-02f,-6.32281303e-02f,+6.57130629e-02f,+5.53566590e-02f,
-7.22775459e-02f,-2.17829533e-02f,+5.02901971e-02f,+7.41404593e-02f,-2.45018620e-02f,
-2.98673753e-02f,-1.47275589e-02f,-8.34660456e-02f,+3.89792472e-02f,-9.11602974e-02f,
-1.24961399e-02f,-1.97398253e-02f,-1.10925427e-02f,+4.80749533e-02f,-2.44173072e-02f,
-7.48251304e-02f,+1.15489308e-02f,-1.90584380e-02f,+9.17748660e-02f,-6.19160868e-02f,
-2.65377089e-02f,-1.05487347e-01f,+6.82324395e-02f,-1.19385570e-02f,+1.14063043e-02f,
+4.22693305e-02f,+1.48206139e-02f,-3.30721289e-02f,+1.12954285e-02f,+5.38705215e-02f,
-3.68233658e-02f,+1.05797574e-02f,-4.51998860e-02f,-2.02602912e-02f,-5.22475056e-02f,
-5.05507365e-02f,+1.42314255e-01f,-3.36236916e-02f,+7.24064633e-02f,-1.82721410e-02f,
+5.79531118e-03f,+4.56030779e-02f,+7.64278546e-02f,+1.10840350e-02f,-7.20819980e-02f,
-1.14782713e-01f,+2.75601167e-02f,+2.14820504e-02f,-8.77611935e-02f,-6.84083402e-02f,
+5.95627688e-02f,+8.36588908e-03f,-9.38617513e-02f,-4.18807752e-02f,+1.55232777e-03f,
-8.83617625e-02f,+2.57848240e-02f,-4.94205430e-02f,-4.04728390e-02f,+5.31768426e-02f,
+4.98368107e-02f,-1.90692917e-02f,-4.87480350e-02f,+1.04926375e-03f,-1.94676057e-03f,
+2.66413856e-02f,+3.65836546e-02f,-2.32364400e-03f,-9.27616060e-02f,+2.58818194e-02f,
-4.80380803e-02f,+5.15046380e-02f,-9.36230924e-03f,-9.06364471e-02f,-3.17720175e-02f,
-9.67189968e-02f,+6.58875480e-02f,+1.84527580e-02f,-3.33990417e-02f,-2.54775863e-02f,
-6.07809722e-02f,-4.55938838e-02f,+1.37077019e-01f,-4.82743979e-02f,+3.43347192e-02f,
-2.81324647e-02f,+7.27161542e-02f,+1.60980541e-02f,-1.03738666e-01f,-6.68182820e-02f,
-3.91191244e-02f,-9.59473178e-02f,+9.46640372e-02f,-6.27352223e-02f,+6.71015829e-02f,
+4.54517975e-02f,-2.35503484e-02f,-1.02879088e-02f,+4.32180949e-02f,-3.39185111e-02f,
+1.41080379e-01f,-4.39386219e-02f,-1.95946358e-03f,-7.48914182e-02f,+1.35095537e-01f,
+8.17037001e-03f,+1.25802644e-02f,-7.20795915e-02f,+5.82187995e-02f,-8.46757293e-02f,
-5.09833451e-03f,-1.05093874e-01f,+1.29997376e-02f,-3.48571152e-03f,+4.56966422e-02f,
-1.88309401e-02f,-9.24688205e-02f,-3.71300988e-02f,+4.64126095e-02f,+6.61407486e-02f,
+1.85198747e-02f,-2.32099630e-02f,-4.06416245e-02f,-6.46644235e-02f,-2.85403319e-02f,
+9.97341126e-02f,+1.45904152e-02f,+2.43784357e-02f,-3.58907953e-02f,+1.17824944e-02f,
-7.95221925e-02f,-3.07196174e-02f,-9.32462960e-02f,-2.85491496e-02f,-3.04399896e-02f,
+2.73736729e-03f,-8.20992328e-03f,-6.63668066e-02f,+4.59544845e-02f,-1.09788075e-01f,
-4.24654707e-02f,+1.54515365e-02f,+1.81427114e-02f,+5.21407612e-02f,+2.43923888e-02f,
+6.39232323e-02f,+9.15702879e-02f,-5.59197851e-02f,+4.30095419e-02f,+3.52657214e-02f,
+6.25504106e-02f,-8.92027691e-02f,-9.01863798e-02f,+5.81262186e-02f,-1.07380010e-01f,
-7.47365579e-02f,+3.00224815e-02f,-5.33265062e-02f,+5.75877354e-02f,-2.58821733e-02f,
+8.41554478e-02f,-7.99526200e-02f,-7.82503188e-02f,+5.59606999e-02f,+4.98344637e-02f,
+6.53402805e-02f,+7.30568916e-02f,-5.83445244e-02f,+1.41363561e-01f,+1.38159068e-02f,
-8.26698542e-03f,-8.43467042e-02f,+7.10890070e-02f,-7.55988434e-02f,+7.43871555e-02f,
+1.58392545e-02f,+3.71410102e-02f,+3.14975791e-02f,+4.73398808e-03f,-8.46836790e-02f,
-1.82621479e-02f,-4.36849073e-02f,+6.58485964e-02f,+2.68272255e-02f,-2.32333057e-02f,
+1.42083783e-02f,-3.43166851e-02f,+8.12903941e-02f,-7.89004657e-03f,-4.66280710e-03f,
-5.49119338e-02f,+4.43426706e-02f,+8.97685587e-02f,+3.83709930e-02f,+2.64373459e-02f,
-4.24187854e-02f,+7.17344731e-02f,-3.05678546e-02f,-6.60501746e-03f,-4.67948429e-02f,
+1.75710935e-02f,+4.38223220e-02f,-6.19023480e-02f,-4.24129441e-02f,-6.74025854e-03f,
-4.67724316e-02f,+6.95169419e-02f,+3.13665979e-02f,+2.88775414e-02f,-4.44350615e-02f,
-1.88876018e-02f,-9.27567575e-03f,-7.15319887e-02f,-8.15196186e-02f,-3.99759971e-03f,
-4.55977656e-02f,-2.48527620e-02f,+6.86187819e-02f,-8.33638534e-02f,-2.33359933e-02f,
+4.51217294e-02f,+4.71851677e-02f,+6.01474755e-02f,-2.68420130e-02f,+3.53302844e-02f,
-6.03048056e-02f,-6.30715638e-02f,-7.42371008e-02f,-7.31224660e-03f,+5.43028638e-02f,
-3.58518176e-02f,+9.18040425e-02f,+6.12167194e-02f,+6.74006790e-02f,+3.10685672e-02f,
+1.11656757e-02f,+7.69404182e-03f,-3.55741642e-02f,-6.05907552e-02f,+4.70148548e-02f,
+7.38806948e-02f,-1.14963345e-01f,+5.96301630e-02f,+2.65366063e-02f,-2.25916747e-02f,
-6.53625429e-02f,-9.86075867e-03f,-6.37691887e-03f,+3.24983895e-02f,+1.29104173e-02f,
+6.43667579e-02f,+2.55580544e-02f,-8.66336301e-02f,+6.03585690e-02f,-6.49873167e-02f,
+4.25700732e-02f,+1.82077046e-02f,+4.68345769e-02f,+1.54928444e-02f,-4.58466262e-02f,
+5.03813215e-02f,+6.13110214e-02f,+6.36574402e-02f,-8.19779858e-02f,-2.36787945e-02f,
+9.08275135e-03f,-1.42636262e-02f,+3.00446600e-02f,-2.54424643e-02f,+3.88474688e-02f,
-8.57810453e-02f,+2.18491745e-03f,+3.67846079e-02f,-5.33739962e-02f,-1.10629713e-02f,
+3.74566391e-02f,+5.64522147e-02f,-4.29713614e-02f,+6.08353391e-02f,+6.29964992e-02f,
-9.79231000e-02f,+1.05279218e-02f,-4.46153991e-02f,+3.08228284e-02f,+2.91779800e-03f,
+2.76237540e-02f,+1.03886081e-02f,+4.38447297e-03f,+8.71966481e-02f,-8.72209221e-02f,
+5.09072579e-02f,-1.03169121e-02f,+2.57441662e-02f,-3.27260308e-02f,+1.32618099e-02f,
+8.28577429e-02f,+1.34359479e-01f,-4.29663062e-02f,+1.22717535e-02f,-7.44871423e-02f,
-4.62046526e-02f,+6.24944642e-02f,-5.12008965e-02f,-6.29159808e-02f,-7.39882328e-03f,
-5.82218990e-02f,-4.80425097e-02f,+3.47069465e-03f,+3.04712122e-03f,-6.38924316e-02f,
-1.74950436e-02f,+7.61610344e-02f,+8.41445625e-02f,-2.38642264e-02f,+7.11867586e-02f,
-2.90953275e-02f,-4.58311588e-02f,-3.65109891e-02f,+3.50405015e-02f,-1.04443714e-01f,
+7.76802143e-03f,+7.46783391e-02f,+6.48984089e-02f,-6.07948611e-03f,+5.02510779e-02f,
+1.73533522e-02f,+3.54720652e-02f,+4.66070287e-02f,+2.77296510e-02f,+2.99151987e-02f,
-8.43840018e-02f,+5.01690656e-02f,-3.70108243e-03f,-2.61408696e-03f,-5.30613996e-02f,
-2.22263541e-02f,-8.87769088e-02f,+4.98379320e-02f,-2.82367673e-02f,+9.48053566e-05f,
-5.28411418e-02f,-6.71578571e-02f,+4.59862314e-02f,-6.97417855e-02f,-4.84461524e-02f,
-8.14365875e-03f,-8.21951106e-02f,-2.53578518e-02f,+2.71629933e-02f,+1.95649285e-02f,
+1.25958370e-02f,+2.41008401e-03f,+1.95699837e-02f,+1.34734195e-02f,-7.71864364e-03f,
+1.92508548e-02f,+1.01096956e-02f,+2.04079617e-02f,-7.75949657e-02f,+6.51663989e-02f,
+2.29331199e-02f,+5.93787506e-02f,+1.96625218e-02f,+7.28328303e-02f,-7.14446604e-02f,
+3.43802124e-02f,+4.33372259e-02f,+3.37868147e-02f,-5.07202782e-02f,-1.00113623e-01f,
-7.40923570e-04f,-1.69077404e-02f,+5.00192679e-02f,-5.72045427e-03f,+1.53367566e-02f,
+7.58684948e-02f,-4.38130088e-02f,+9.81199741e-03f,-6.19850531e-02f,+1.07294939e-01f,
-3.31638977e-02f,-3.13225426e-02f,+6.10981286e-02f,+5.02006710e-02f,-5.79925999e-03f,
+3.65112573e-02f,+6.56420588e-02f,-7.13545596e-03f,-3.53250131e-02f,-5.90574108e-02f,
+5.64297140e-02f,+5.65576665e-02f,+9.49821994e-02f,-6.80002049e-02f,-4.61978577e-02f,
-7.58081377e-02f,-3.90015431e-02f,-7.27104917e-02f,-2.74408683e-02f,-8.69296640e-02f,
-1.79753378e-02f,+1.31858967e-03f,+6.44599274e-02f,-2.16860268e-02f,-2.66000424e-02f,
+4.45160344e-02f,-5.05893752e-02f,+4.75586690e-02f,-1.51514281e-02f,-7.63236126e-03f,
-6.26381785e-02f,+6.74259709e-03f,+1.07611222e-02f,-4.58010770e-02f,-4.02175412e-02f,
+2.14865878e-02f,+5.15729412e-02f,+1.87629629e-02f,-1.09279901e-02f,-7.72796851e-03f,
-6.03455082e-02f,-9.83197615e-02f,-4.45480570e-02f,-8.98677669e-03f,-1.96193494e-02f,
-4.07889262e-02f,-6.89440295e-02f,-1.15620838e-02f,-6.60648104e-04f,-1.56096229e-02f,
-4.59749848e-02f,-4.65418249e-02f,-4.02194187e-02f,-3.68253775e-02f,-6.63146563e-03f,
+9.54777934e-03f,-5.16257584e-02f,-7.49111325e-02f,+5.95674030e-02f,-2.57034879e-02f,
-5.22442795e-02f,+2.79792165e-03f,-4.57306094e-02f,+1.08318940e-01f,+8.43323022e-02f,
+1.07974209e-01f,-3.97318080e-02f,-2.56280210e-02f,+7.89465569e-03f,+7.71817863e-02f,
+2.61746850e-02f,-8.45240727e-02f,-7.57995695e-02f,+3.28788608e-02f,-3.98123562e-02f,
+1.68935675e-02f,+6.39123544e-02f,+5.65410331e-02f,-2.26604845e-02f,+2.54307482e-02f,
-6.33606240e-02f,+3.84401307e-02f,-8.26349929e-02f,+4.60660011e-02f,-2.33132727e-02f,
+8.12684670e-02f,-1.20153138e-02f,+6.12600744e-02f,-6.18745387e-02f,+3.87433469e-02f,
-7.30098262e-02f,-2.26691887e-02f,-8.91419351e-02f,+3.05381715e-02f,+2.09830366e-02f,
-2.13456377e-02f,+1.85920727e-02f,-2.21329201e-02f,+1.29075879e-02f,-8.34139660e-02f,
-4.75538000e-02f,-6.76829964e-02f,+1.83084626e-02f,+7.64880553e-02f,+5.33975139e-02f,
-8.10562298e-02f,+2.11075954e-02f,+9.25216302e-02f,+1.20250769e-01f,+7.53212869e-02f,
-5.58253154e-02f,-6.72442690e-02f,+5.17416857e-02f,+4.66246270e-02f,-2.13845633e-02f,
-5.18754683e-02f,+1.05596920e-02f,-8.37441236e-02f,-7.19782934e-02f,-4.11955938e-02f,
-1.15604056e-02f,-6.36350065e-02f,-5.77177182e-02f,+5.09524271e-02f,-4.91634421e-02f,
+3.65546793e-02f,+7.69969672e-02f,+1.01114333e-01f,-3.44916582e-02f,+8.33660364e-02f,
-8.77660289e-02f,-8.01986456e-02f,-2.64896732e-02f,+7.29004368e-02f,-1.52625386e-02f,
+2.14664284e-02f,-3.15261148e-02f,-8.62245262e-03f,+7.01158568e-02f,+4.72600125e-02f,
+7.22224265e-02f,+4.88783941e-02f,+7.55738616e-02f,+2.72231270e-03f,-1.30535569e-03f,
+4.10347106e-03f,+6.49571270e-02f,+4.48001176e-03f,-5.47504425e-02f,+4.43179719e-02f,
-6.49341056e-03f,+2.24422547e-03f,-4.13967744e-02f,+7.27977008e-02f,-4.32604551e-02f,
-8.78135189e-02f,-6.25079721e-02f,-3.38630192e-02f,-7.89867789e-02f,+4.85269353e-02f,
+5.96917830e-02f,-7.14980289e-02f,+7.12937191e-02f,-5.46656884e-02f,-2.60208100e-02f,
-8.58039930e-02f,-8.14636126e-02f,-1.98251028e-02f,-1.04046799e-02f,+4.47748601e-02f,
-7.66911432e-02f,+2.97144745e-02f,-3.29980329e-02f,-5.83213679e-02f,+5.63218743e-02f,
+5.99465929e-02f,-6.29151687e-02f,+2.90308986e-02f,+3.70048694e-02f,-1.02608509e-01f,
+5.23732565e-02f,-1.07981130e-01f,-8.43955502e-02f,+1.70736238e-02f,-4.00303751e-02f,
+2.67886445e-02f,-1.92227792e-02f,+4.94623557e-02f,+5.61120324e-02f,-8.50792043e-03f,
-5.78596368e-02f,+9.93203074e-02f,-2.88451761e-02f,-2.05406882e-02f,+3.82277481e-02f,
-4.39203754e-02f,+2.73660701e-02f,-5.99202737e-02f,-1.00263394e-01f,-4.63555977e-02f,
+1.22052114e-02f,-7.16257691e-02f,+5.43654561e-02f,-3.34117040e-02f,+1.39171956e-03f,
-6.86534345e-02f,-3.03427633e-02f,-1.33994661e-04f,+1.18638976e-02f,+2.57169958e-02f,
-2.87483670e-02f,+6.78861439e-02f,-5.55464774e-02f,+5.78255765e-02f,-5.54108585e-04f,
-1.82970110e-02f,-1.95606146e-02f,+8.01944584e-02f,-2.17668936e-02f,-5.62358908e-02f,
-1.85436942e-02f,-5.82244918e-02f,+1.87989473e-02f,+6.30732104e-02f,-8.29518437e-02f,
-8.53613392e-02f,-3.20441015e-02f,+1.83431059e-03f,+5.40336259e-02f,+1.38011463e-02f,
-7.77408704e-02f,-6.81542372e-03f,+5.83685003e-02f,-8.70628506e-02f,-1.53870871e-02f,
-7.52525479e-02f,-3.12728621e-02f,+8.84776656e-03f,+2.09003538e-02f,-3.46430205e-02f,
-3.82797383e-02f,-1.30246452e-03f,+1.54914679e-02f,-2.66676825e-02f,-7.48557299e-02f,
-7.51723573e-02f,+6.41374011e-03f,+4.46570963e-02f,-4.18001600e-02f,+6.25022426e-02f,
+2.31691711e-02f,-2.21008416e-02f,-5.86339422e-02f,-7.61401877e-02f,+8.15074146e-02f,
+1.42329400e-02f,+3.34482454e-02f,+4.47018594e-02f,-4.59337533e-02f,+5.57034917e-04f,
+8.04903135e-02f,+1.93287116e-02f,-2.33987197e-02f,-6.37261346e-02f,-5.65470681e-02f,
+1.37888417e-02f,-3.83314528e-02f,+6.12591542e-02f,+5.27139679e-02f,-4.53517884e-02f,
+2.32859049e-02f,-7.47939348e-02f,+1.84960905e-02f,-8.42137635e-02f,-4.92728837e-02f,
+1.88747179e-02f,-8.37559626e-02f,-3.72122861e-02f,+4.05635871e-02f,-6.81052729e-02f,
+2.12673191e-02f,+5.15525714e-02f,+2.39393171e-02f,+3.39761637e-02f,-5.28000034e-02f,
+4.64194380e-02f,-5.68517558e-02f,+8.98920447e-02f,+5.83666041e-02f,-8.92457366e-02f,
-6.75451010e-02f,+5.16076759e-02f,-3.94360628e-03f,+6.51665181e-02f,+4.30732705e-02f,
-8.81531648e-03f,-2.40419712e-02f,-7.73851946e-02f,+3.98935378e-02f,-7.72789940e-02f,
+2.99041755e-02f,-5.06049953e-02f,-2.26042923e-02f,+7.15241507e-02f,+4.10456471e-02f,
+2.99108382e-02f,-9.70771834e-02f,-3.86847109e-02f,+1.71250813e-02f,-7.46136159e-02f,
-2.92017870e-02f,+4.25704569e-02f,-8.75206515e-02f,-3.50893922e-02f,+5.38697094e-02f,
-7.64997452e-02f,+4.91765365e-02f,-6.81766942e-02f,+9.59520321e-03f,-1.55463088e-02f,
-6.39079809e-02f,+2.71172170e-02f,-7.76961148e-02f,-9.72295776e-02f,-4.49384470e-03f,
+6.40822053e-02f,+3.34962085e-02f,-1.38167329e-02f,-5.89019395e-02f,-5.07705957e-02f,
+1.14160711e-02f,+5.10731116e-02f,+6.29066676e-03f,-6.24108315e-02f,+2.68909186e-02f,
+8.89699087e-02f,+3.31298518e-03f,-4.34675477e-02f,-6.04800545e-02f,-5.33439070e-02f,
-6.83188215e-02f,+2.78584920e-02f,+6.53542504e-02f,+5.73130623e-02f,+8.08962807e-02f,
+1.23929530e-02f,-3.44290547e-02f,-8.04981403e-03f,-5.20925932e-02f,-8.88453126e-02f,
+3.16004232e-02f,-2.62619480e-02f,+1.71273705e-02f,-1.46650570e-02f,-5.50988764e-02f,
-1.23681873e-03f,+6.01518303e-02f,+3.50084784e-03f,+7.72817582e-02f,+5.92406979e-03f,
+4.82858419e-02f,+1.71422516e-03f,-7.08819181e-02f,+1.32220087e-03f,+4.65334915e-02f,
-1.35582136e-02f,+3.39364335e-02f,-1.98849570e-02f,-3.76622714e-02f,+2.53286250e-02f,
-4.43175808e-03f,-1.18499193e-02f,+4.49506901e-02f,-1.02013513e-01f,-3.04572713e-02f,
+2.78200693e-02f,+4.59858030e-02f,-6.48897514e-02f,-3.88372317e-02f,-4.31362391e-02f,
-2.52181068e-02f,-2.02907864e-02f,-4.67516435e-03f,-6.16302155e-03f,+9.58806276e-02f,
+2.94228569e-02f,-1.04886167e-01f,-1.00680664e-01f,+8.16407502e-02f,-8.46463889e-02f,
+2.61735730e-03f,-6.43753186e-02f,-5.73808700e-03f,-5.12592457e-02f,-6.18976541e-03f,
+3.68042774e-02f,+4.18735407e-02f,+5.33566512e-02f,-2.26891413e-02f,-3.00184563e-02f,
-2.26430036e-02f,+4.89726616e-03f,-2.03354470e-02f,+2.63723694e-02f,+6.09650277e-02f,
+7.63530135e-02f,-7.03261867e-02f,+4.11209650e-02f,+7.24471882e-02f,+3.37409265e-02f,
+6.19814806e-02f,-2.48586014e-02f,+2.25583035e-02f,-6.27444163e-02f,-1.81569241e-03f,
+7.24541619e-02f,-6.12225048e-02f,-4.07636948e-02f,+3.29833440e-02f,+3.76088396e-02f,
+5.25288917e-02f,-6.38574511e-02f,-7.91482925e-02f,+1.30859753e-02f,+7.19531113e-03f,
-7.18357563e-02f,-3.48354913e-02f,-6.68945387e-02f,-4.54490967e-02f,+1.28678326e-02f,
-8.53775814e-02f,-4.35199030e-02f,+3.12128314e-03f,+1.85696241e-02f,-1.28028737e-02f,
-8.59751999e-02f,+6.21394031e-02f,-8.19887500e-03f,+5.50594628e-02f,-4.62009832e-02f,
+5.67703880e-02f,+2.08627358e-02f,+6.61151931e-02f,+1.18639572e-02f,+3.90954502e-02f,
-1.19028706e-02f,-7.48889074e-02f,+4.03388515e-02f,+3.44940238e-02f,+8.70400965e-02f,
-4.79925759e-02f,-1.08990803e-01f,-4.75914776e-03f,+4.07515466e-03f,+1.98191628e-02f,
+1.78951919e-02f,-2.90190615e-02f,-5.83253503e-02f,-6.49731681e-02f,+5.46859838e-02f,
-3.22684348e-02f,-3.68996710e-02f,+2.31228247e-02f,-5.04723229e-02f,+7.35994130e-02f,
+2.73588412e-02f,-1.94515996e-02f,-8.18152800e-02f,+7.35857710e-02f,-7.82205164e-02f,
-2.45662164e-02f,-7.15552345e-02f,+9.72830728e-02f,+3.83360386e-02f,+8.92456062e-03f,
-4.78091352e-02f,-1.13241769e-01f,+5.23534790e-02f,-4.30519097e-02f,+3.14091817e-02f,
+4.97288890e-02f,-3.39128077e-02f,+8.08825046e-02f,+6.35372326e-02f,+5.67988679e-02f,
-9.12545342e-03f,+2.55573634e-02f,+1.71287768e-02f,-4.18763794e-02f,-5.67309111e-02f,
-6.28029276e-03f,+9.42579936e-03f,+8.83836392e-03f,+5.29428720e-02f,-5.29680736e-02f,
+6.68758973e-02f,-6.47752136e-02f,+4.50764969e-02f,-4.67757462e-03f,+5.84945716e-02f,
+2.60544871e-03f,-3.48238423e-02f,-2.16701292e-02f,-7.84389079e-02f,+4.43425402e-02f,
+8.17281846e-03f,+5.90100922e-02f,-4.32587117e-02f,-9.96077619e-03f,-6.23549614e-03f,
-5.25606573e-02f,-3.57001349e-02f,+4.10029031e-02f,+8.22188857e-04f,-1.42342290e-02f,
+1.88515207e-03f,+8.10715780e-02f,+5.97054437e-02f,-6.42186180e-02f,-3.45331579e-02f,
+9.03444365e-03f,+7.35565973e-03f,+7.51487389e-02f,+5.45695722e-02f,-1.96944214e-02f,
+1.64006632e-02f,+9.44519788e-03f,+3.21408994e-02f,+5.24880253e-02f,-2.02479418e-02f,
+5.42973131e-02f,-2.36089248e-02f,+6.79950938e-02f,-3.74623798e-02f,-2.49462221e-02f,
-8.36842041e-03f,+6.48114383e-02f,+1.78485215e-02f,+6.89684153e-02f,-8.71426314e-02f,
-1.13331437e-01f,-7.67200440e-02f,+3.49255130e-02f,-4.84925993e-02f,+1.39964670e-02f,
+2.39059236e-02f,+4.77977619e-02f,-4.77997363e-02f,-1.10290824e-02f,+3.24419402e-02f,
-3.23990099e-02f,+5.38265854e-02f,+4.39566188e-02f,+3.57356071e-02f,+2.97539700e-02f,
+4.33350727e-02f,+8.82549584e-02f,+3.40588950e-02f,+4.34961356e-02f,+2.96634808e-02f,
-1.11522824e-02f,-2.43894625e-02f,-7.42768869e-02f,+4.91208397e-02f,+6.36331365e-02f,
-3.95243503e-02f,-3.18407863e-02f,-5.94112976e-03f,-4.80026659e-03f,-3.91340554e-02f,
+5.24891587e-03f,-4.03332040e-02f,+3.43404040e-02f,-4.21494357e-02f,+2.12018285e-02f,
+1.68193970e-02f,+2.75609680e-02f,-6.84114695e-02f,+4.46855240e-02f,-9.84677076e-02f,
-5.74801788e-02f,+5.36519522e-03f,-1.44817801e-02f,+2.77729556e-02f,-2.92013325e-02f,
+7.40213171e-02f,-1.38007393e-02f,-6.04530014e-02f,+2.39867754e-02f,+2.98446044e-02f,
+4.71994765e-02f,+4.83759977e-02f,+4.18912508e-02f,-1.18689649e-02f,-2.41652094e-02f,
-1.71162561e-02f,-1.92169957e-02f,-3.86899002e-02f,-1.76473241e-02f,-3.62305194e-02f,
+9.66474116e-02f,-2.12159567e-03f,+5.31072682e-03f,-5.96446022e-02f,+1.45420153e-02f,
-6.94091246e-02f,+6.49438947e-02f,-9.01410636e-03f,+6.48963004e-02f,-1.51384436e-02f,
-3.48278088e-03f,-3.27571891e-02f,+3.68906297e-02f,-1.01150917e-02f,-6.91171736e-02f,
-8.03767890e-02f,-1.75212398e-02f,-2.72084028e-02f,+4.60506640e-02f,-1.10635422e-02f,
+3.41408066e-02f,-1.24920877e-02f,+8.36020410e-02f,+4.69699278e-02f,-4.06659208e-02f,
-5.74278533e-02f,-5.19361869e-02f,+5.46650635e-03f,-5.03054000e-02f,-2.12498810e-02f,
-4.88920808e-02f,+4.51216139e-02f,+4.36872384e-03f,-2.08491571e-02f,-6.95912465e-02f,
-1.10326381e-02f,+6.67437315e-02f,+2.80520935e-02f,-6.35215640e-02f,+4.62696180e-02f,
+1.19839035e-01f,+7.35149533e-03f,-7.11491797e-03f,-4.48043719e-02f,+8.15004576e-03f,
+3.28317471e-02f,-1.26873618e-02f,+7.42959827e-02f,+4.91539538e-02f,+4.08432772e-03f,
-1.98204722e-02f,-2.88195573e-02f,-5.33643328e-02f,-5.56177385e-02f,-4.33504693e-02f,
+7.83857480e-02f,+7.36324936e-02f,+4.26610038e-02f,+2.62487140e-02f,+5.22568822e-02f,
-3.27838678e-03f,+1.23231728e-02f,-2.81732120e-02f,+7.81107172e-02f,+9.38314870e-02f,
+2.66846698e-02f,+9.04525295e-02f,-4.49065082e-02f,+9.26634017e-03f,-7.38429502e-02f,
+4.75867577e-02f,+8.88467068e-04f,-9.04958695e-02f,-2.54654419e-02f,-8.59924331e-02f,
-7.12028146e-02f,+3.60398716e-03f,-7.31446370e-02f,-6.60613924e-02f,-2.59823147e-02f,
-6.56487793e-02f,-2.93927882e-02f,+3.33463550e-02f,-3.45307142e-02f,-7.11102337e-02f,
+1.92210544e-02f,+5.90333864e-02f,-3.44931111e-02f,-3.64094488e-02f,-7.99611285e-02f,
+7.94591568e-03f,+7.36890137e-02f,-6.30516410e-02f,-1.22585468e-01f,-3.28843184e-02f,
+2.14965399e-02f,-1.15220994e-01f,+1.20115308e-02f,-2.41719224e-02f,-3.21679153e-02f,
-1.04350587e-02f,+5.33485711e-02f,+3.46045569e-02f,-3.30542512e-02f,+5.18071242e-02f,
+1.51826134e-02f,-6.05556648e-03f,-4.59305793e-02f,+4.39165682e-02f,-6.28470629e-02f,
+6.26487611e-03f,+5.38167097e-02f,+7.90451374e-03f,+5.10488525e-02f,-4.17379960e-02f,
+4.45626490e-02f,-2.18886118e-02f,-2.72415150e-02f,-2.07618997e-02f,+4.19065207e-02f,
+6.70681745e-02f,+2.34613698e-02f,-4.18501832e-02f,+1.45642774e-03f,-2.59061083e-02f,
-6.76476657e-02f,+1.20672174e-01f,+9.31046903e-03f,+9.64786336e-02f,+2.74863932e-02f,
+1.73458476e-02f,+4.67361547e-02f,-4.82394127e-03f,-6.11113608e-02f,-3.60817686e-02f,
-1.94429758e-03f,+1.18024386e-02f,+6.23457320e-02f,+5.26481047e-02f,-6.42215312e-02f,
-3.89475971e-02f,-8.57611895e-02f,-5.90305701e-02f,-6.87601715e-02f,+2.77767307e-03f,
-2.54928321e-02f,+7.68456459e-02f,-9.40577686e-02f,+2.17631441e-02f,+2.54896022e-02f,
-1.38505232e-02f,-2.15687063e-02f,-3.76786068e-02f,-5.85426688e-02f,+2.62663059e-04f,
-7.36224502e-02f,+3.88088375e-02f,-3.10398941e-03f,-5.06674312e-02f,-8.60434547e-02f,
-7.10597932e-02f,-8.33839029e-02f,-3.08847874e-02f,+3.03377565e-02f,-4.62449268e-02f,
-7.56193548e-02f,+3.42483707e-02f,-1.18701835e-03f,-2.61222702e-02f,-1.02544852e-01f,
-6.28007054e-02f,-5.67227229e-02f,+2.17730575e-03f,-6.51973188e-02f,+2.67849695e-02f,
-4.16428596e-02f,+1.95309042e-03f,+5.26130423e-02f,+3.55903665e-03f,+6.48061335e-02f,
+7.19884858e-02f,+2.70807929e-03f,+3.95538546e-02f,-4.44957148e-03f,+4.38671261e-02f,
+6.36769757e-02f,-5.65296747e-02f,+3.84555780e-04f,-8.07661191e-02f,+5.64815802e-03f,
+6.04854524e-03f,-8.03856403e-02f,+5.45054153e-02f,+6.68440536e-02f,+8.51341486e-02f,
+1.38137490e-02f,-6.89645112e-02f,-3.46962400e-02f,-4.27684858e-02f,-2.06521247e-02f,
+3.14745773e-03f,+3.09418272e-02f,-7.50626326e-02f,+1.75772328e-02f,+2.23437510e-02f,
+7.32564777e-02f,-5.49985468e-02f,-8.75371248e-02f,-4.61352989e-02f,-1.84087164e-03f,
-2.85188053e-02f,+3.63745615e-02f,-5.73867112e-02f,-4.34168838e-02f,-3.92117761e-02f,
+3.51778157e-02f,-7.96289146e-02f,-1.39944963e-02f,+1.35960178e-02f,+6.80517182e-02f,
+5.67482337e-02f,-1.02815010e-01f,-7.15728551e-02f,-8.51379558e-02f,+9.84703097e-03f,
+3.08869481e-02f,-5.67130484e-02f,-1.75817218e-02f,+3.05080973e-02f,+3.82577851e-02f,
-7.90527612e-02f,-6.17818907e-02f,+5.99410310e-02f,+2.44817492e-02f,-5.27011044e-02f,
-5.12082204e-02f,+1.27556743e-02f,-7.45296255e-02f,+3.39084305e-02f,-8.43293741e-02f,
-9.90915298e-02f,-6.95302710e-02f,+3.04573067e-02f,+6.12637475e-02f,-2.46160422e-02f,
-9.40877199e-03f,-1.10720017e-03f,-3.75816971e-02f,+6.89601852e-03f,+7.00144470e-02f,
+3.37521546e-02f,-7.22368574e-03f,+5.23284823e-02f,-3.50349732e-02f,-2.18560696e-02f,
+8.33662227e-02f,+8.23868662e-02f,+6.45069825e-03f,+7.52342865e-02f,-8.69023204e-02f,
-4.15771715e-02f,-4.11490723e-02f,+6.56284019e-02f,-7.72709548e-02f,+4.83293831e-02f,
+5.15326522e-02f,+4.55154143e-02f,-4.47834730e-02f,-9.14906710e-02f,-7.67191648e-02f,
+1.41114062e-02f,-7.15231076e-02f,+1.02934010e-01f,-2.66738050e-02f,-8.78684747e-04f,
-5.98792452e-03f,-1.04495741e-01f,-2.07389873e-02f,-1.39249219e-02f,+2.76067425e-02f,
+5.75667992e-02f,-3.68485451e-02f,-4.62742001e-02f,+2.19671670e-02f,+1.50990346e-02f,
-6.11238368e-02f,-6.69384599e-02f,+3.44326906e-02f,+4.56536748e-02f,-5.17558828e-02f,
-5.79407178e-02f,-8.72550439e-03f,-3.81867141e-02f,+1.83707122e-02f,-4.87167668e-03f,
-7.22761312e-03f,-4.81758043e-02f,+1.45935069e-03f,+3.29328366e-02f,-6.28437921e-02f,
-5.76403923e-03f,+4.41655293e-02f,+2.25338470e-02f,+2.89447531e-02f,-5.23695126e-02f,
-7.27574602e-02f,+4.01959196e-02f,+2.02618986e-02f,-1.69927534e-02f,-9.22721811e-04f,
-7.81224072e-02f,+5.67224324e-02f,-7.21700862e-02f,+7.42619485e-02f,+5.89963645e-02f,
+1.99214816e-02f,+6.10777363e-02f,-7.76783749e-02f,+5.27704041e-03f,+3.63552570e-02f,
-8.54306221e-02f,-7.20559582e-02f,-3.60387303e-02f,+4.89962623e-02f,-4.94299494e-02f,
+4.10726070e-02f,-2.53448989e-02f,+2.64724009e-02f,-8.14006478e-03f,-8.23463202e-02f,
+6.31291643e-02f,+3.67004648e-02f,-4.55297641e-02f,+1.72441937e-02f,-5.28762378e-02f,
+3.58300507e-02f,+1.45167802e-02f,+5.70485853e-02f,-3.70157734e-02f,-9.30358097e-02f,
+4.23080567e-03f,+3.55953444e-03f,-1.70032140e-02f,+4.84317318e-02f,-5.11024185e-02f,
+5.91774704e-03f,-3.03004961e-02f,+5.84205277e-02f,+6.63447604e-02f,+1.96264237e-02f,
+8.23875293e-02f,-2.04441100e-02f,+2.88380161e-02f,-1.01803252e-02f,+6.24591000e-02f,
+1.29557941e-02f,+2.02986989e-02f,-5.91971278e-02f,+6.30827174e-02f,-6.45973608e-02f,
+7.50425756e-02f,-1.79684982e-02f,+3.36119495e-02f,-1.65027417e-02f,-8.02106485e-02f,
-3.42632830e-02f,+1.82566904e-02f,+2.24906933e-02f,-3.92622836e-02f,-3.28698382e-02f,
+1.43617615e-02f,+6.19808510e-02f,+3.09635047e-03f,-3.35955098e-02f,+1.43957492e-02f,
-7.46424571e-02f,+6.90957606e-02f,+6.36409447e-02f,+7.76616707e-02f,+3.88223794e-03f,
+5.10442303e-03f,-6.05191067e-02f,+5.89945838e-02f,+2.48438343e-02f,-1.16779963e-02f,
+7.81287090e-04f,-2.38953643e-02f,-7.73185790e-02f,+7.04714507e-02f,-7.30726495e-03f,
+8.02759752e-02f,-8.08667764e-02f,-4.18211892e-02f,+4.26048115e-02f,+5.18753100e-03f,
-2.17937008e-02f,+4.09535132e-02f,-2.39312518e-02f,-4.08859253e-02f,-7.23632574e-02f,
+8.60961154e-02f,-2.10818630e-02f,-7.31538460e-02f,+4.15155478e-02f,+6.56044558e-02f,
+4.31770198e-02f,+7.00072618e-03f,+6.09848872e-02f,+6.75128847e-02f,-3.19347600e-03f,
-7.99382629e-04f,-1.05313724e-02f,+7.53046274e-02f,-2.65821591e-02f,-5.72379753e-02f,
-2.01755352e-02f,-6.04179241e-02f,-2.00043898e-02f,+7.87696764e-02f,-3.26043479e-02f,
-1.11928724e-01f,-8.53767917e-02f,-1.20123327e-02f,-2.49501746e-02f,-5.50879464e-02f,
-3.53406183e-02f,+2.43969318e-02f,+5.36713190e-02f,-5.87912798e-02f,+3.34517881e-02f,
-5.22908084e-02f,+6.01594942e-03f,+2.36259345e-02f,-1.03091970e-02f,-8.19824636e-02f,
-3.91127877e-02f,+8.20229873e-02f,-3.37916650e-02f,-7.48385191e-02f,-5.88448048e-02f,
+1.10698724e-02f,+8.71345699e-02f,-4.67824005e-02f,-6.31279647e-02f,+6.06194474e-02f,
+1.71346087e-02f,-1.31128188e-02f,-6.49389103e-02f,+5.33219762e-02f,-1.54575706e-02f,
+5.40845469e-02f,-6.17176853e-02f,+6.84322193e-02f,+6.73586922e-03f,-1.26372394e-03f,
-7.89466314e-03f,+5.71584627e-02f,-5.79569153e-02f,-6.06266446e-02f,-7.04137236e-03f,
+5.90598844e-02f,+1.95935015e-02f,-4.91611771e-02f,-5.62360063e-02f,+1.08977228e-01f,
+1.32382270e-02f,-5.64077534e-02f,-9.16015804e-02f,-6.25966340e-02f,-3.64245176e-02f,
+4.82008979e-02f,+1.73798501e-02f,+8.61655772e-02f,-2.89235320e-02f,+1.09142056e-02f,
+5.41697629e-02f,+4.54454012e-02f,-1.09280609e-01f,+7.96587542e-02f,-3.50712650e-02f,
-8.05171505e-02f,+4.99544330e-02f,-5.43656833e-02f,-5.01579046e-02f,-3.05820722e-02f,
+3.81276496e-02f,+3.73296104e-02f,+7.07957521e-02f,+4.60246764e-03f,-2.80775037e-02f,
-2.03638058e-02f,+4.40952554e-02f,-6.77692443e-02f,+3.49040702e-02f,-4.54513952e-02f,
-6.42047375e-02f,-9.20085683e-02f,+5.66545650e-02f,-4.50443961e-02f,-6.45519048e-03f,
+1.20499440e-01f,-9.44501981e-02f,+6.52111843e-02f,+3.54163349e-02f,+2.25639399e-02f,
+6.73316345e-02f,+3.39997262e-02f,-8.08686018e-02f,-4.79939282e-02f,-3.69425267e-02f,
+3.86487111e-03f,+7.78595731e-02f,+7.73543864e-03f,+6.23742566e-02f,-2.01217141e-02f,
+7.58258998e-02f,+6.41945451e-02f,-5.15564978e-02f,-6.86523989e-02f,+3.34501565e-02f,
+8.03728551e-02f,-4.25513349e-02f,-4.87020947e-02f,+6.35475293e-02f,-2.98845656e-02f,
-4.51935343e-02f,+8.34514722e-02f,-2.61612106e-02f,+1.18919306e-01f,-3.90461944e-02f,
-2.95835491e-02f,-2.73694396e-02f,-8.34122673e-02f,-1.85625348e-02f,-3.58102620e-02f,
-6.79718927e-02f,+6.39728308e-02f,+2.98614539e-02f,-1.74756013e-02f,+4.15068939e-02f,
-3.68824378e-02f,-4.41238359e-02f,+1.10256746e-02f,+7.88302347e-02f,+1.71257220e-02f,
+5.72964512e-02f,+1.78111922e-02f,-1.19882599e-02f,-7.50854537e-02f,+6.16601408e-02f,
+1.34096090e-02f,+3.71174403e-02f,-9.89706665e-02f,+2.40181871e-02f,+6.59640506e-02f,
-4.52516787e-02f,+1.39694568e-02f,+1.49045000e-02f,-3.39602679e-02f,-2.47661397e-02f,
-1.30957328e-02f,-1.14306062e-03f,+2.13815421e-02f,-3.90432067e-02f,+1.84417274e-02f,
-3.22391652e-02f,+4.48352173e-02f,-8.09651315e-02f,+8.18691477e-02f,+2.63875555e-02f,
-5.64964265e-02f,+5.59607670e-02f,-4.20202538e-02f,+1.86664779e-02f,-3.09287645e-02f,
+3.47378440e-02f,-5.99087216e-02f,-5.72713576e-02f,+1.10186738e-05f,+1.58362165e-02f,
+6.51110709e-03f,+6.69373758e-03f,-1.51368836e-02f,-9.99506712e-02f,+1.21710738e-02f,
-2.79245945e-03f,+2.56476924e-03f,+1.19579583e-02f,+1.02472857e-01f,+8.06054547e-02f,
+2.48949416e-02f,-5.93040660e-02f,+6.54589385e-02f,-1.54572828e-02f,+5.84159382e-02f,
+9.65290889e-02f,+3.72181907e-02f,+8.00496712e-02f,+6.79168180e-02f,+6.60686195e-03f,
-5.24701588e-02f,-3.40713821e-02f,+6.38499185e-02f,-7.41177052e-02f,-8.59602019e-02f,
+2.31062323e-02f,-4.44866717e-03f,-6.79482594e-02f,-5.91511279e-02f,+1.75926625e-03f,
-6.10629879e-02f,+4.95669432e-02f,-3.31046386e-03f,-6.25064746e-02f,+5.90164661e-02f,
+1.44737577e-02f,-3.78619283e-02f,+3.57785299e-02f,+4.77234460e-02f,-7.82621056e-02f,
+2.70768143e-02f,+6.03682362e-04f,-3.27921659e-02f,-5.65973967e-02f,+4.30418085e-03f,
+4.43579331e-02f,-1.20166410e-02f,-8.47628266e-02f,-5.04429117e-02f,+8.68163910e-03f,
-6.16004765e-02f,-1.32277394e-02f,+2.31522042e-02f,+4.25426513e-02f,-6.16889931e-02f,
-4.45876569e-02f,-7.46171689e-03f,-8.66033062e-02f,-2.51830705e-02f,-1.32539757e-02f,
-1.17367819e-01f,+4.73844782e-02f,-7.79910237e-02f,-2.82116774e-02f,-4.73611243e-02f,
-3.16524319e-02f,-1.02387168e-01f,-9.83185023e-02f,+3.26473080e-02f,+3.00859232e-02f,
-4.58041951e-02f,+1.89524442e-02f,+6.01809584e-02f,-8.17914084e-02f,-8.53711516e-02f,
+2.00382154e-02f,+7.55123934e-03f,+6.13566004e-02f,-5.80346286e-02f,+5.67589141e-02f,
+4.80377227e-02f,+6.82326034e-02f,+4.46655378e-02f,+1.45980120e-02f,-5.20944633e-02f,
-4.19518314e-02f,+1.19735427e-01f,-1.71867684e-02f,-1.71659291e-02f,+9.92111787e-02f,
-4.19888459e-02f,-6.97730854e-02f,-3.70089263e-02f,-8.00445229e-02f,-4.67594787e-02f,
-4.51130494e-02f,-1.09557688e-01f,+1.17807509e-02f,-3.79059501e-02f,+7.62295350e-02f,
+6.14333106e-03f,+1.96813643e-02f,+8.66884887e-02f,-4.02870625e-02f,-2.34999415e-02f,
+4.26334888e-02f,+7.30455369e-02f,-3.46525237e-02f,-7.47610480e-02f,+6.69123307e-02f,
-8.87324065e-02f,-1.78393945e-02f,+5.53717241e-02f,-9.95898098e-02f,-8.61758292e-02f,
-3.50373834e-02f,-2.30157711e-02f,+1.21768497e-01f,-2.34633517e-02f,+5.80984578e-02f,
-6.10946771e-03f,-2.87953019e-02f,+5.91445826e-02f,-6.50331825e-02f,-1.73460506e-03f,
-5.19191055e-03f,+3.87651585e-02f,-6.56820536e-02f,-6.18245453e-02f,-6.43152446e-02f,
-5.36201112e-02f,+1.62070263e-02f,+4.14052531e-02f,+6.28683344e-02f,-6.87642694e-02f,
-3.52472700e-02f,-2.01036129e-03f,-3.85735519e-02f,+6.16884455e-02f,-1.38368793e-02f,
+3.99828143e-02f,-9.08712447e-02f,+9.40476358e-03f,+1.07349679e-02f,+1.29608199e-01f,
+2.74144448e-02f,-5.26315719e-02f,+5.31633422e-02f,+2.91920844e-02f,+3.51899564e-02f,
+5.16014267e-03f,-3.72849330e-02f,-6.87591136e-02f,-5.56254759e-02f,-1.32717937e-02f,
-3.74713093e-02f,-7.76133984e-02f,-9.00118649e-02f,-5.36691397e-02f,-7.67828971e-02f,
-2.18412234e-03f,-5.43647036e-02f,-7.13750487e-03f,+1.00318097e-01f,-8.73175114e-02f,
+4.88904193e-02f,+1.25042675e-02f,+2.85691880e-02f,-5.55209862e-03f,+5.34094870e-02f,
+4.67866883e-02f,-6.29956368e-04f,+4.52167764e-02f,-1.74135417e-02f,-1.62873510e-02f,
+1.91154517e-02f,-4.22906391e-02f,+5.42090228e-03f,+1.89528354e-02f,-2.01766882e-02f,
-4.36521135e-03f,-7.71818031e-03f,-4.39302325e-02f,-3.00070420e-02f,+4.65344153e-02f,
-9.99072269e-02f,-3.87205705e-02f,-5.10092191e-02f,-7.45141655e-02f,-9.34167802e-02f,
+3.88666950e-02f,-3.53645086e-02f,-8.09066072e-02f,+1.87185034e-02f,-3.69360633e-02f,
-6.45457432e-02f,+9.73965153e-02f,-7.46124685e-02f,+6.13182969e-03f,-3.07799876e-02f,
-1.26670236e-02f,-2.42964029e-02f,+4.80128750e-02f,-1.00851737e-01f,+5.50326146e-02f,
-6.88032731e-02f,-4.44064029e-02f,+7.20984936e-02f,+3.69490646e-02f,+6.92579225e-02f,
+1.36077218e-03f,-7.93373138e-02f,-3.24616046e-03f,-2.50326972e-02f,-4.88314554e-02f,
+4.31941077e-02f,+2.30080858e-02f,-2.04381831e-02f,-6.05522878e-02f,-4.60829139e-02f,
-4.72743101e-02f,-3.36300842e-02f,+2.27974430e-02f,+1.79053470e-03f,-1.12529337e-01f,
-6.09556250e-02f,+8.07658061e-02f,+5.88153936e-02f,-1.48579143e-02f,-4.16452810e-02f,
+5.21697551e-02f,-6.94544688e-02f,+7.60744885e-02f,-4.27755862e-02f,-7.06458166e-02f,
+2.70828921e-02f,+3.02743632e-02f,-1.36476976e-03f,-2.17529479e-03f,-7.87914672e-04f,
-2.75127310e-03f,-4.84308191e-02f,+1.99130364e-02f,-3.33175845e-02f,-3.23211737e-02f,
-9.44730453e-03f,-6.63543027e-03f,-1.71489976e-02f,-7.31995627e-02f,-3.18412445e-02f,
+1.02414101e-01f,-2.13971492e-02f,-6.24874085e-02f,+8.89102463e-03f,-7.64493942e-02f,
-1.87148210e-02f,+2.01934706e-02f,+7.20050633e-02f,-7.15238303e-02f,-6.06630230e-03f,
-2.89584473e-02f,-4.12561046e-03f,+8.41189325e-02f,+6.85406849e-02f,+1.04603298e-01f,
-4.20658290e-02f,+6.20924942e-02f,-8.66581947e-02f,+5.28735034e-02f,-9.87392291e-02f,
-4.24646772e-02f,+2.53929347e-02f,+5.71010523e-02f,-5.66772632e-02f,+7.32542351e-02f,
+5.94956614e-02f,+8.03201646e-02f,+8.04104749e-03f,+9.66341719e-02f,-5.61874993e-02f,
+6.56139329e-02f,-2.74612214e-02f,-8.77687261e-02f,+9.57675371e-03f,-2.59664208e-02f,
-7.77245536e-02f,+9.07233953e-02f,-5.04407622e-02f,+4.76096198e-02f,-1.42277544e-02f,
+2.34936643e-02f,+5.28401099e-02f,-3.06884814e-02f,-4.31097746e-02f,-1.59203932e-02f,
-4.78752479e-02f,+2.19691964e-03f,-8.75837654e-02f,-1.69367474e-02f,-9.35208111e-04f,
+4.90231067e-02f,-6.94298968e-02f,+3.14576477e-02f,-6.82902038e-02f,+1.40972463e-02f,
-1.36385988e-02f,-1.77687183e-02f,-2.51104329e-02f,+7.01114461e-02f,+4.25202809e-02f,
-4.90109669e-03f,+7.29703084e-02f,+6.42014071e-02f,+7.10831955e-02f,+4.95875105e-02f,
+3.03725572e-03f,-7.36076012e-02f,+4.40643914e-02f,-1.15358606e-02f,-6.87878355e-02f,
-1.34834899e-02f,-2.94177756e-02f,-7.86790252e-02f,+9.60155297e-03f,-5.48899584e-02f,
+5.02483658e-02f,-8.52506980e-03f,-1.91737115e-02f,+1.20645016e-02f,+6.95594400e-02f,
+3.17403115e-02f,-1.95075702e-02f,-1.50627401e-02f,-7.51271052e-03f,-6.52943403e-02f,
+1.52110290e-02f,+8.06996375e-02f,+5.51795214e-02f,-1.06478203e-02f,+7.11438805e-03f,
+8.56682286e-02f,-7.09760040e-02f,+1.12499334e-02f,-7.41731673e-02f,-4.48092334e-02f,
-1.84540208e-02f,-5.81639120e-03f,+3.39741111e-02f,+3.24201025e-02f,+3.22823748e-02f,
-3.89451534e-02f,-6.72517195e-02f,-5.60405888e-02f,+5.30952625e-02f,+1.00499384e-01f,
+7.79919885e-03f,-9.50126946e-02f,-2.58406885e-02f,-7.91456550e-02f,-3.00083887e-02f,
+3.19310687e-02f,-4.60877009e-02f,+4.21674624e-02f,-7.06150830e-02f,-3.12810950e-02f,
+3.47163565e-02f,+2.91031357e-02f,+6.70961291e-02f,-4.59433272e-02f,+7.14549646e-02f,
+6.39626235e-02f,-4.86736149e-02f,+5.26483543e-02f,+2.51384135e-02f,-5.27596148e-03f,
-3.10847182e-02f,-8.66333544e-02f,+1.99878365e-02f,+9.38341320e-02f,-4.69310842e-02f,
-6.86613843e-04f,+6.06962070e-02f,+2.61314604e-02f,+2.15683319e-02f,+4.64738533e-03f,
-1.84861608e-02f,-7.18440562e-02f,+2.96559669e-02f,+3.17443274e-02f,+2.15797648e-02f,
-5.64638078e-02f,-2.50378475e-02f,-4.27230597e-02f,+4.62731645e-02f,+1.24413725e-02f,
+6.61285520e-02f,+1.17929526e-01f,-5.27102239e-02f,-3.02621014e-02f,+7.96635821e-02f,
+6.71166256e-02f,+3.77989635e-02f,+2.33133547e-02f,-4.64429660e-03f,+1.19314604e-02f,
+7.64196590e-02f,+7.26589933e-02f,+4.24756631e-02f,-5.33367731e-02f,-4.21340279e-02f,
-8.74321256e-03f,-5.31989224e-02f,+4.54981104e-02f,+3.91442887e-02f,+2.98429430e-02f,
-3.24626118e-02f,-6.54908866e-02f,-7.20430464e-02f,+4.68885526e-02f,+4.23133969e-02f,
-7.94270188e-02f,+1.55175133e-02f,+2.08037570e-02f,-7.95581266e-02f,+7.92931393e-02f,
+1.01869572e-02f,-8.41495916e-02f,-2.25013960e-02f,-3.69896442e-02f,+6.83101267e-02f,
-5.20972610e-02f,+3.32271378e-03f,-1.53176032e-03f,+8.11441522e-03f,+8.32442008e-03f,
+3.10781747e-02f,+7.51965344e-02f,+6.41802400e-02f,-5.56791648e-02f,+5.05641215e-02f,
-8.57313946e-02f,+8.01384300e-02f,+1.37238400e-02f,+7.64702708e-02f,+7.52407638e-03f,
+1.34994499e-02f,+8.97611380e-02f,-2.18287464e-02f,-7.59953037e-02f,-2.22017691e-02f,
+4.64802906e-02f,-6.35322258e-02f,-3.28546315e-02f,-3.17150424e-03f,-4.71175313e-02f,
-2.75149532e-02f,-3.87372971e-02f,+3.79960984e-03f,-1.70797314e-02f,+6.52365610e-02f,
+2.28971988e-02f,+3.77154425e-02f,-1.18047430e-03f,+8.97099450e-02f,-1.78187881e-02f,
+2.88369739e-03f,-1.37765557e-02f,-3.10161766e-02f,+1.24945762e-02f,+2.90197209e-02f,
-5.27039208e-02f,+1.75901782e-02f,+2.70513166e-02f,+2.66454201e-02f,-8.80250931e-02f,
-4.58678603e-02f,+2.62852348e-02f,-1.55182468e-04f,+2.26441547e-02f,+4.35976014e-02f,
-6.98917583e-02f,-2.67888848e-02f,+9.85831469e-02f,+2.88487785e-02f,-1.78219751e-02f,
+6.88763931e-02f,-8.26346129e-02f,-4.87485826e-02f,-2.44350024e-02f,-7.13577087e-04f,
-9.81473271e-03f,+2.20161937e-02f,-4.12169248e-02f,-7.38648549e-02f,-5.51724471e-02f,
+4.70703356e-02f,-3.91329937e-02f,+4.98602614e-02f,+4.66953442e-02f,-7.47766048e-02f,
-9.76037513e-03f,+7.33958408e-02f,+7.27874190e-02f,-1.61980223e-02f,+1.92727949e-02f,
-4.83216271e-02f,-2.34100036e-02f,-7.64446482e-02f,+2.84758937e-02f,+3.96363065e-02f,
+7.41820782e-02f,-5.62579781e-02f,-5.86489402e-02f,-1.99038479e-02f,+4.20988984e-02f,
-4.12794948e-02f,-1.21006556e-03f,-7.45546147e-02f,-4.94513381e-03f,-4.46412079e-02f,
+2.90794354e-02f,-4.83748131e-02f,+6.72204792e-02f,+7.58788139e-02f,+4.92162742e-02f,
+4.60798442e-02f,+5.55366576e-02f,+6.60840645e-02f,+1.09788112e-01f,+5.27669713e-02f,
-2.08678632e-03f,-7.41554052e-02f,-1.97282992e-02f,+8.31164885e-03f,-4.56312113e-02f,
-8.38644356e-02f,-4.63856533e-02f,+2.29230318e-02f,-7.85557702e-02f,-1.73350063e-03f,
-1.47959115e-02f,+3.93004566e-02f,+6.78490475e-02f,-1.00006713e-02f,+7.92495534e-03f,
+5.85026890e-02f,-4.34976108e-02f,+1.57525577e-02f,-1.77902281e-02f,+1.06235430e-01f,
-4.40930296e-03f,-8.42121392e-02f,+6.83209822e-02f,+6.67773783e-02f,+5.31409085e-02f,
+3.03707067e-02f,-8.77087732e-05f,+2.45934837e-02f,+5.93496487e-02f,-6.36705905e-02f,
-2.96589243e-03f,-6.85686842e-02f,-8.74502659e-02f,-3.69371586e-02f,+6.53569251e-02f,
-4.32657115e-02f,-5.94666786e-02f,-7.27465525e-02f,-3.59993726e-02f,+9.68722776e-02f,
+3.20535526e-02f,+3.75342704e-02f,+6.11177720e-02f,-1.18010892e-02f,-6.51941821e-02f,
-8.57735723e-02f,-1.47513598e-02f,+4.60800268e-02f,+3.92798781e-02f,+1.39723690e-02f,
+5.82709871e-02f,+6.16900548e-02f,-1.16807278e-02f,-5.64046204e-02f,-5.58865219e-02f,
+3.97584774e-02f,+1.17195612e-02f,+5.07397987e-02f,-2.36960258e-02f,-4.56251092e-02f,
+6.39377488e-03f,+8.24169144e-02f,+8.71334821e-02f,-3.96462856e-03f,-5.47634363e-02f,
+3.69290821e-02f,-8.32346976e-02f,+6.89883018e-03f,+1.87575370e-02f,-5.29207550e-02f,
+2.11509764e-02f,-4.91272546e-02f,-4.94866930e-02f,-9.17675495e-02f,+6.39016107e-02f,
+3.32885236e-02f,+1.83815043e-02f,-8.59827474e-02f,+9.53226313e-02f,-1.75751429e-02f,
+5.31633459e-02f,+2.79079247e-02f,+1.46278068e-02f,+4.61253002e-02f,-5.96050806e-02f,
-9.01708286e-03f,+1.72468498e-02f,-6.98939711e-02f,-5.06260321e-02f,+5.71513474e-02f,
+7.42848292e-02f,+6.87580407e-02f,-5.45284152e-02f,-4.19254377e-02f,+6.48071617e-02f,
-7.37612098e-02f,-2.75503807e-02f,+2.75774132e-02f,+7.04312325e-02f,+7.99500942e-02f,
-5.56331314e-02f,+2.95760091e-02f,+1.33728599e-02f,+5.59129454e-02f,+7.77675286e-02f,
-1.16799036e-02f,-2.85499021e-02f,+5.66950114e-03f,+3.77777661e-03f,-2.91682035e-02f,
-6.22865148e-02f,-3.23273800e-02f,+2.07138509e-02f,-8.48246068e-02f,+1.55334058e-03f,
-7.58889019e-02f,-4.50086817e-02f,+2.78241560e-02f,-6.66959137e-02f,+4.56140228e-02f,
-8.77340212e-02f,+3.59997526e-02f,-5.65299240e-04f,+4.85641174e-02f,-4.40208428e-02f,
+3.51975784e-02f,+7.34634027e-02f,+5.16850129e-03f,-1.75791476e-02f,-8.79162475e-02f,
-7.25178644e-02f,+1.39219100e-02f,+7.35292630e-03f,-7.14789480e-02f,-7.99097940e-02f,
+5.05580120e-02f,+7.13330507e-02f,-3.21520269e-02f,+4.05691788e-02f,+3.81158441e-02f,
-3.86394672e-02f,+5.23446836e-02f,+4.50566001e-02f,+1.11967754e-02f,-3.55291069e-02f,
+9.04713273e-02f,-7.72202853e-03f,+4.80305664e-02f,-1.50451390e-02f,+2.84235403e-02f,
+8.09283108e-02f,+3.16887721e-02f,+4.25542034e-02f,-9.33234245e-02f,+8.84992853e-02f,
+3.53997275e-02f,+2.18511522e-02f,-2.92821527e-02f,+8.18490684e-02f,+1.57610308e-02f,
-3.65368202e-02f,+4.70333807e-02f,-3.31850238e-02f,-6.41176999e-02f,-8.98644105e-02f,
-2.54707336e-02f,-4.38925847e-02f,-6.77804053e-02f,+1.09391287e-02f,+4.38570864e-02f,
+2.51783021e-02f,-5.23319319e-02f,-3.99128050e-02f,+2.40793116e-02f,-1.10186718e-01f,
-1.65898874e-02f,-5.45895100e-02f,-7.84411356e-02f,+8.99778400e-03f,+3.48094255e-02f,
-3.34341750e-02f,+5.11633083e-02f,-9.26907733e-02f,-1.62509233e-02f,+1.23094376e-02f,
-8.30303356e-02f,-8.12411606e-02f,+2.92486567e-02f,+1.35813216e-02f,+1.36457179e-02f,
+2.54217051e-02f,+5.81790172e-02f,-3.28083076e-02f,-7.43883252e-02f,-7.37240762e-02f,
+1.25659173e-02f,-4.65503708e-02f,-6.11663051e-02f,+5.61583973e-02f,+1.26982406e-02f,
-6.38444796e-02f,+6.08991273e-02f,-2.26386096e-02f,-4.77580205e-02f,-4.18114327e-02f,
+1.94062721e-02f,+3.39105353e-02f,-5.08700274e-02f,+4.05770428e-02f,+6.67812079e-02f,
-2.05584504e-02f,+4.23816144e-02f,+3.70704453e-03f,+2.36171558e-02f,-3.50427143e-02f,
-1.10613676e-02f,-4.83855680e-02f,-2.68799486e-03f,-3.45796384e-02f,+7.47457519e-02f,
-6.80096895e-02f,+2.89802849e-02f,-5.11799529e-02f,-9.84364301e-02f,-4.38596830e-02f,
-4.52152528e-02f,+7.42968917e-02f,+8.28834996e-02f,+3.53474170e-02f,-4.79028299e-02f,
-6.49978369e-02f,-1.98050328e-02f,+6.35159165e-02f,+3.13032530e-02f,+4.02809680e-02f,
-3.42176259e-02f,-3.26052937e-03f,-6.19544312e-02f,+8.54192022e-03f,-6.08519837e-02f,
-6.79565072e-02f,-7.72667006e-02f,-3.95440087e-02f,-7.67250359e-02f,-4.97264899e-02f,
-2.60957554e-02f,+5.25040254e-02f,-7.77108967e-02f,+6.48445487e-02f,-1.01320222e-02f,
+7.11911842e-02f,-9.16940272e-02f,+6.51078299e-02f,+1.57914571e-02f,+8.67720544e-02f,
-2.92590633e-02f,-6.18225429e-03f,+1.44716017e-02f,+5.82019240e-02f,-2.14668829e-02f,
+1.64769944e-02f,-1.30334636e-02f,-3.22581157e-02f,-7.03684911e-02f,+2.79847123e-02f,
-7.41916001e-02f,+3.08293365e-02f,-7.97075927e-02f,-4.12876494e-02f,+8.22922122e-03f,
-4.21202779e-02f,+2.09786389e-02f,-6.30199537e-03f,+9.22951698e-02f,-1.35529488e-02f,
+9.94437281e-03f,-8.70032609e-02f,+1.66598393e-03f,+4.06562015e-02f,+1.25050650e-03f,
-8.08446407e-02f,-2.97856033e-02f,-1.11323018e-02f,+5.50756231e-02f,-3.76129746e-02f,
-5.95192350e-02f,+1.24007184e-02f,+2.67801248e-02f,+7.76834488e-02f,-4.14743274e-02f,
+5.10561094e-02f,-4.19784263e-02f,-5.59620075e-02f,-8.04991424e-02f,-5.39260916e-03f,
-1.30447103e-02f,+5.66130914e-02f,+2.32413076e-02f,-3.04189157e-02f,-7.42237940e-02f,
-3.52660641e-02f,-7.87093118e-02f,+2.29866663e-03f,-3.04451995e-02f,-2.77238619e-02f,
-7.83946291e-02f,-1.96149182e-02f,-1.25742145e-02f,-6.24919729e-03f,-2.77469046e-02f,
+8.32131505e-03f,-4.86075459e-03f,-1.74749698e-02f,-4.43438999e-02f,+5.96610643e-02f,
-3.81557867e-02f,-4.42713052e-02f,+6.03808537e-02f,-6.19636104e-03f,-2.25471798e-02f,
-1.05934963e-02f,+6.66944832e-02f,+5.53125329e-03f,-8.35238993e-02f,-9.54378620e-02f,
-7.99925253e-02f,-2.42471285e-02f,-1.06147662e-01f,+1.20911943e-02f,+6.35785684e-02f,
+8.21837923e-04f,+2.66554300e-02f,+2.90699806e-02f,-7.18184561e-02f,+2.30099447e-02f,
+5.90404533e-02f,+6.24157526e-02f,+2.55026314e-02f,+5.49553223e-02f,+8.43360126e-02f,
-4.65753525e-02f,-8.20430145e-02f,-2.98102610e-02f,+5.79757206e-02f,-4.35787179e-02f,
-4.90268320e-02f,+6.59851506e-02f,+3.30071375e-02f,+2.85533406e-02f,-5.32298423e-02f,
+1.00088596e-01f,-4.60591614e-02f,-4.22256365e-02f,+3.21672135e-03f,+2.63336184e-03f,
+6.48582727e-02f,+6.42588222e-03f,+7.36820996e-02f,-8.69422555e-02f,+5.12893647e-02f,
-3.18598375e-02f,-4.07833681e-02f,-5.92815913e-02f,-6.42935485e-02f,-3.35268714e-02f,
-6.08833246e-02f,-8.30896944e-02f,-4.54187691e-02f,-1.57412589e-02f,+1.21378829e-03f,
+5.32313585e-02f,+3.58635634e-02f,+7.09505305e-02f,+7.27555230e-02f,-8.50559175e-02f,
+6.74452186e-02f,-7.70211816e-02f,-3.71299423e-02f,-7.78412744e-02f,+3.93986553e-02f,
-3.87905538e-02f,+8.23007897e-02f,+3.06375977e-02f,-7.54688010e-02f,+9.41014290e-02f,
+1.18112378e-02f,+2.67170817e-02f,-3.70045821e-03f,+3.87423076e-02f,-8.23524147e-02f,
+2.84824092e-02f,-8.70015398e-02f,+7.13915154e-02f,+5.59031852e-02f,-7.40769878e-02f,
+2.46623661e-02f,-6.92217872e-02f,-1.70081295e-02f,+3.11511941e-02f,-4.24837209e-02f,
-1.10300141e-03f,+6.12691082e-02f,+8.65833536e-02f,+1.56643789e-03f,-8.07457343e-02f,
+3.12078912e-02f,+1.84691465e-03f,-3.47759835e-02f,-1.18465582e-03f,+5.53478152e-02f,
-8.59590024e-02f,+1.17386859e-02f,+1.54503249e-03f,-1.04346676e-02f,-5.77647761e-02f,
-5.81136309e-02f,-2.29402147e-02f,-4.45840694e-02f,+2.29140371e-02f,+3.64198089e-02f,
-1.88973788e-02f,+4.69223708e-02f,-2.35733949e-02f,-7.58295208e-02f,+4.30461802e-02f,
+2.75040343e-02f,+1.03105782e-02f,+1.17160734e-02f,-1.21170813e-02f,-6.62215725e-02f,
+1.07497731e-02f,-2.21523438e-02f,-2.28724834e-02f,+7.18913078e-02f,+5.78857623e-02f,
+5.98893613e-02f,+3.44666210e-03f,+5.12569323e-02f,+5.89682534e-02f,-2.63328142e-02f,
-2.07440238e-02f,+1.43430503e-02f,+1.78352220e-03f,+1.75041985e-02f,+5.51350240e-04f,
+7.79131129e-02f,-5.21985777e-02f,+2.84057781e-02f,+8.52749273e-02f,-7.62318373e-02f,
+6.29063845e-02f,-7.21966326e-02f,+5.96029460e-02f,-7.41141737e-02f,-5.73817864e-02f,
-7.67498016e-02f,-3.20038237e-02f,-3.92545052e-02f,+6.18898198e-02f,+4.56977785e-02f,
+2.83008292e-02f,-3.58979143e-02f,-4.46071289e-02f,-1.01151003e-03f,-3.23615968e-02f,
-6.16304576e-02f,-1.79713834e-02f,+4.35434431e-02f,-2.11738721e-02f,-5.55160418e-02f,
+8.54641199e-02f,+3.79456542e-02f,-6.55719638e-02f,+5.54447286e-02f,+3.85786593e-02f,
+2.41651144e-02f,-1.87104475e-02f,-4.53351252e-02f,+8.13655406e-02f,+6.14633560e-02f,
-9.72817186e-03f,+2.42373403e-02f,-3.22127230e-02f,+5.88482730e-02f,-7.33232498e-02f,
+6.56980323e-03f,+1.14632202e-02f,-4.59546372e-02f,-2.60816161e-02f,-5.36955111e-02f,
+4.47221249e-02f,-8.96408036e-02f,-7.39791840e-02f,+3.69155519e-02f,-4.87521626e-02f,
+3.75849046e-02f,-4.80783358e-02f,+4.93215173e-02f,+7.87700638e-02f,+5.04445508e-02f,
+2.08755098e-02f,-7.17150122e-02f,+3.07231117e-02f,-1.17348339e-02f,-8.06095451e-02f,
+1.17055392e-02f,+9.18311402e-02f,-6.64199740e-02f,-3.49385403e-02f,+9.41489008e-04f,
-1.54704247e-02f,+7.52226636e-02f,+2.79772282e-02f,+6.35165423e-02f,+4.17206883e-02f,
+3.30826342e-02f,-5.61700873e-02f,+1.21786473e-02f,-5.74952923e-02f,-1.44681213e-02f,
-2.72969715e-02f,+3.00310645e-02f,-8.72321501e-02f,-6.46255463e-02f,+1.67280175e-02f,
-6.14141077e-02f,+6.27444163e-02f,-1.52783934e-02f,-6.61977604e-02f,-6.19868049e-03f,
-3.54756527e-02f,-3.75288799e-02f,+1.56949181e-02f,-6.39677569e-02f,+6.76711574e-02f,
-5.46741486e-02f,-4.91368510e-02f,+1.89128648e-02f,+3.75442058e-02f,+1.90660357e-03f,
+5.71867004e-02f,-5.52138053e-02f,-5.76110408e-02f,+2.99068242e-02f,+4.72181924e-02f,
-4.23755543e-03f,+5.80412485e-02f,-4.89419501e-04f,+6.53613955e-02f,-2.93884054e-02f,
+3.01635340e-02f,+3.43925133e-02f,+6.83455616e-02f,-1.04363239e-03f,-2.43596043e-02f,
-4.23859656e-02f,-6.96331635e-02f,-6.28974754e-04f,+2.29399055e-02f,+4.42438461e-02f,
-4.25393395e-02f,+4.95632403e-02f,-2.35390402e-02f,+7.16385394e-02f,-2.00825334e-02f,
+2.85956636e-02f,-1.89325295e-03f,+4.72616330e-02f,+6.14859946e-02f,+3.87832783e-02f,
+6.33384287e-02f,+7.75366649e-02f,+8.01232830e-02f,-6.83130920e-02f,+4.87525063e-03f,
+7.46015459e-02f,+7.90374577e-02f,-1.23581784e-02f,-9.52996314e-02f,-2.38348581e-02f,
-2.28567105e-02f,-6.05332702e-02f,+5.38405813e-02f,-6.51007146e-02f,+6.91813529e-02f,
-4.83376347e-02f,-6.92393817e-03f,-7.35523850e-02f,+4.04344611e-02f,+1.60602313e-02f,
-2.40474045e-02f,-8.47446620e-02f,-5.33817634e-02f,+4.39370275e-02f,+6.04334772e-02f,
+2.61193067e-02f,+4.18733396e-02f,-3.46342027e-02f,+6.19501695e-02f,+5.29721659e-03f,
-8.63413676e-04f,+7.90166855e-03f,-2.39538271e-02f,+4.11621369e-02f,-3.97361889e-02f,
-1.99742168e-02f,+7.34706968e-02f,-6.05267957e-02f,+4.22002710e-02f,-5.63541427e-02f,
+6.00056648e-02f,-1.80673841e-02f,+5.52662015e-02f,-8.95924941e-02f,+7.90613424e-03f,
-3.27694602e-02f,+6.12040050e-02f,-2.71806233e-02f,+3.50596979e-02f,+6.48500631e-03f,
-2.29964759e-02f,-3.84526029e-02f,+3.09830680e-02f,+7.66190514e-03f,-4.73180711e-02f,
-3.66439968e-02f,+8.21361244e-02f,-7.19390959e-02f,-1.07393693e-02f,-5.42660579e-02f,
+4.25219573e-02f,-4.44239080e-02f,-1.41069153e-02f,-8.46753046e-02f,+7.66036659e-02f,
-5.74856773e-02f,-8.68781134e-02f,+2.08194274e-02f,+9.47134495e-02f,-3.06919198e-02f,
-4.29665036e-02f,-3.73791419e-02f,-9.18842852e-02f,+5.57379648e-02f,-4.66522537e-02f,
-5.61419278e-02f,+6.47055432e-02f,-8.87522325e-02f,-5.91018870e-02f,-6.41248822e-02f,
-3.04205492e-02f,-2.92343087e-02f,+7.09783286e-02f,+1.08854380e-02f,-6.47426322e-02f,
-6.57234900e-03f,-7.00602680e-02f,+6.92847744e-02f,+1.03492752e-01f,+7.36174062e-02f,
-7.94773474e-02f,-3.68784964e-02f,+5.56994556e-03f,+2.21207570e-02f,-1.00976087e-01f,
-8.54149461e-02f,-6.96721002e-02f,+3.04212933e-03f,+6.21896535e-02f,+4.98024561e-02f,
-6.45897090e-02f,-6.07790835e-02f,-8.73205252e-04f,+3.18099447e-02f,+7.09620267e-02f,
-1.09792287e-02f,-5.56331240e-02f,+6.54947981e-02f,+2.86951512e-02f,-3.32059301e-02f,
+5.26712835e-02f,-4.49051000e-02f,+1.01855896e-01f,+2.86163087e-03f,-6.17232956e-02f,
-7.89531246e-02f,-3.75505537e-02f,+5.15968204e-02f,+3.99220698e-02f,+7.34037757e-02f,
-5.12930267e-02f,+1.29899308e-02f,-2.16946751e-02f,+2.01719552e-02f,-5.54749072e-02f,
-4.67004105e-02f,+5.54634668e-02f,-4.48657908e-02f,+3.38326916e-02f,+3.66484921e-04f,
-4.22560982e-02f,+6.29421026e-02f,+1.71030499e-02f,-5.74261043e-03f,+3.11533064e-02f,
-5.74281327e-02f,-4.29242440e-02f,-4.22604084e-02f,-1.12142914e-03f,+1.36572961e-02f,
-2.35221796e-02f,+2.99153198e-02f,-7.38805532e-02f,-3.61891054e-02f,-7.08647445e-02f,
+5.63029340e-03f,-4.21375148e-02f,-5.53226992e-02f,+2.54141353e-03f,-5.87243252e-02f,
+3.08681745e-03f,+3.65357772e-02f,+7.04357848e-02f,+1.56655349e-02f,-9.24515054e-02f,
-3.33090946e-02f,-1.93700567e-02f,-6.42377213e-02f,-5.27787022e-02f,+4.23255935e-02f,
-6.18144907e-02f,+2.69044638e-02f,-4.88715917e-02f,-1.90466456e-02f,+6.19620979e-02f,
-5.13157360e-02f,-4.10084613e-02f,-5.21410853e-02f,-5.86571768e-02f,-2.90545151e-02f,
+6.14422746e-02f,-7.01796338e-02f,+7.31213689e-02f,-2.44547185e-02f,+7.01845139e-02f,
+7.50507042e-02f,+5.99887818e-02f,+7.18199648e-03f,-3.57882641e-02f,+4.51952480e-02f,
-1.02228463e-01f,-3.91142666e-02f,-6.37959093e-02f,-3.75882015e-02f,+2.86130570e-02f,
+3.00308913e-02f,-4.64871153e-02f,+5.76102957e-02f,+3.75914475e-04f,-2.10251044e-02f,
+3.61302830e-02f,+6.26899116e-03f,-3.69809866e-02f,-3.59993987e-02f,-4.14633676e-02f,
-7.37355947e-02f,-7.02463165e-02f,+5.10845892e-02f,-3.89393196e-02f,-1.91117115e-02f,
+2.62724012e-02f,+1.04500391e-02f,-5.75499237e-02f,+4.43137363e-02f,+8.63473164e-04f,
-7.69202635e-02f,-1.85433477e-02f,-1.78468805e-02f,-2.35217102e-02f,-5.29080853e-02f,
-3.26840393e-02f,+3.98993343e-02f,-2.40472034e-02f,-6.09030835e-02f,-4.20781188e-02f,
-5.39384000e-02f,-4.53956239e-02f,-7.52066001e-02f,+3.83772925e-02f,+4.84195091e-02f,
+4.36401330e-02f,+1.05249509e-02f,-7.34965876e-02f,-5.62485643e-02f,-1.61392577e-02f,
-3.18668410e-02f,+2.32220851e-02f,+1.05607454e-02f,+4.11056168e-02f,-3.23162489e-02f,
-4.58087921e-02f,+8.47637479e-04f,-6.16089515e-02f,-6.15080185e-02f,-1.61347333e-02f,
+9.67103243e-03f,+3.93157229e-02f,+5.25008701e-02f,+7.33553171e-02f,+4.98031937e-02f,
-2.97807623e-02f,-8.18444975e-03f,+2.18516365e-02f,-7.84668773e-02f,-4.37343456e-02f,
+2.01271866e-02f,+4.51579057e-02f,+1.75501332e-02f,+1.50730973e-02f,+1.37837445e-02f,
+1.52934222e-02f,+1.44795645e-02f,-2.04594340e-02f,+7.37693608e-02f,-7.42023662e-02f,
-7.29662105e-02f,-1.05978474e-02f,-8.12397227e-02f,-1.36411730e-02f,+3.24646686e-03f,
+3.19910869e-02f,+3.57710272e-02f,-1.41151780e-02f,-4.11952958e-02f,-5.80080599e-02f,
-8.61000717e-02f,+3.68359312e-02f,+3.24939713e-02f,-6.98609203e-02f,-7.16457441e-02f,
-6.77822679e-02f,-7.55790621e-02f,+2.90492866e-02f,+2.27636006e-02f,-4.34729047e-02f,
-8.72000381e-02f,+5.97596839e-02f,-1.86247891e-03f,+8.21681228e-03f,+3.57712060e-02f,
+1.01470739e-01f,-8.10332298e-02f,-8.01831707e-02f,+2.59608831e-02f,+5.51183242e-03f,
-5.72784841e-02f,+3.99065875e-02f,-3.54097737e-03f,-9.18770954e-02f,+4.72448347e-03f,
-2.47861203e-02f,+7.28087202e-02f,+1.70867015e-02f,-1.03501447e-01f,+3.40395533e-02f,
+5.02950139e-02f,-4.38405015e-02f,-4.31073867e-02f,-1.37987696e-02f,-3.33339372e-03f,
+5.77311181e-02f,-1.12644108e-02f,+3.73177626e-03f,+1.95893794e-02f,-1.25830928e-02f,
+8.39736313e-02f,+7.85926953e-02f,-7.49398246e-02f,-6.27769306e-02f,-3.09173856e-02f,
+1.08300475e-02f,-8.09461065e-03f,-5.71508706e-02f,+2.05389480e-03f,+1.21918702e-02f,
-7.94895738e-02f,-1.86696891e-02f,+1.54135451e-02f,-8.65009725e-02f,-8.07926282e-02f,
+6.59283698e-02f,+3.98925431e-02f,-8.28264952e-02f,+3.80125940e-02f,-3.26722767e-03f,
+6.23968765e-02f,-4.19438221e-02f,-5.37343062e-02f,+5.78749627e-02f,+6.82134107e-02f,
-4.49730270e-02f,-7.18322620e-02f,-3.21027301e-02f,-8.53657201e-02f,-5.03031611e-02f,
-8.30461904e-02f,-8.17046538e-02f,+1.29704177e-02f,-6.45044073e-03f,-3.25526893e-02f,
+9.74911749e-02f,-9.03696660e-03f,+4.28252630e-02f,-3.10341287e-02f,+3.08989882e-02f,
-6.70116022e-03f,-7.45994039e-03f,-4.78376187e-02f,-5.83119283e-04f,+1.44757181e-02f,
-1.08646616e-01f,-1.88120324e-02f,+3.37534659e-02f,-7.79025331e-02f,+1.61763781e-03f,
+5.77709153e-02f,+8.41119736e-02f,-8.34851265e-02f,-5.13640270e-02f,+2.02396568e-02f,
-8.24658647e-02f,-1.09608183e-02f,+4.23704274e-03f,+1.34247355e-02f,-3.72821055e-02f,
-4.83335741e-02f,+8.58743787e-02f,-4.88380119e-02f,+5.45797646e-02f,-6.79136068e-02f,
-1.84564311e-02f,+4.34959307e-02f,+6.27425238e-02f,-8.24115202e-02f,+5.12906909e-02f,
+5.91555126e-02f,-5.49431220e-02f,-7.89720658e-03f,+6.61750585e-02f,-7.97945485e-02f,
-4.52260599e-02f,-3.58543871e-03f,+7.20360577e-02f,+3.92640755e-02f,-1.25939380e-02f,
+6.36682212e-02f,+8.38550404e-02f,+1.97190866e-02f,-4.08184081e-02f,+2.95290593e-02f,
-2.69505661e-02f,+4.96777408e-02f,+1.46579891e-02f,-4.50109132e-02f,-3.95865589e-02f,
-4.07057740e-02f,+3.12636793e-02f,+3.81683521e-02f,+2.76752515e-03f,-4.58834730e-02f,
-5.57870790e-02f,+5.78555055e-02f,-1.74172726e-02f,-3.76271904e-02f,+5.05060926e-02f,
+6.26296252e-02f,-1.37688182e-02f,+7.93619677e-02f,-2.44553965e-02f,-9.85577032e-02f,
-7.61952549e-02f,+7.35241324e-02f,+7.70873725e-02f,+2.60685310e-02f,+1.37503014e-03f,
-8.50769505e-02f,+3.82426642e-02f,+3.24224979e-02f,+5.26864082e-02f,-5.50455078e-02f,
+8.01226571e-02f,-6.38204962e-02f,+6.61206990e-02f,+6.31837025e-02f,-1.26838638e-02f,
+3.33527364e-02f,+3.54492590e-02f,-8.86216462e-02f,-3.91425490e-02f,-7.07450956e-02f,
+6.67508319e-02f,+7.41534159e-02f,+3.57273594e-02f,+6.68928698e-02f,+8.14529359e-02f,
+7.30439499e-02f,-6.54974878e-02f,-6.86490685e-02f,+6.18392490e-02f,-1.97761394e-02f,
+2.74403077e-02f,+5.95199764e-02f,-5.41379489e-02f,+5.53587638e-02f,+2.79295500e-02f,
+1.30874077e-02f,-1.71122095e-03f,+2.09525581e-02f,+9.18630362e-02f,+5.05759157e-02f,
+7.08026737e-02f,-6.61918819e-02f,-9.61118862e-02f,+1.37278931e-02f,+6.68087900e-02f,
-7.56095424e-02f,-3.48497257e-02f,-4.47174422e-02f,+2.19591074e-02f,+8.03489909e-02f,
-2.54776943e-02f,+1.99051220e-02f,+6.10520765e-02f,+5.37470877e-02f,-5.39810061e-02f,
-8.94363448e-02f,+7.41761997e-02f,-3.06892823e-02f,+9.04895552e-03f,-3.72507609e-02f,
-3.84850837e-02f,-4.71138619e-02f,+4.40054610e-02f,-1.03387281e-01f,-5.38694412e-02f,
-2.84055602e-02f,-8.67405161e-02f,-9.06641334e-02f,-6.52686283e-02f,-6.80594295e-02f,
-7.31105208e-02f,-5.41865602e-02f,-7.08796456e-02f,-4.29031216e-02f,+3.67915668e-02f,
+4.38279174e-02f,+5.14420308e-02f,+7.48034660e-03f,+1.57963317e-02f,+7.65521899e-02f,
+5.16424477e-02f,+4.84679416e-02f,+3.25157791e-02f,+4.85098362e-02f,+6.26209006e-02f,
+7.73614720e-02f,+6.52958155e-02f,+4.29468267e-02f,+3.96519639e-02f,-7.89765865e-02f,
+8.11785981e-02f,-4.92502302e-02f,-4.09465469e-02f,-1.08573679e-02f,+3.13886441e-02f,
+5.47283217e-02f,-1.90399401e-02f,+4.12477832e-03f,+1.18077267e-02f,-5.03612086e-02f,
+7.41673261e-02f,+6.00887723e-02f,+9.97125581e-02f,-4.05884795e-02f,+3.61047052e-02f,
+1.77790951e-02f,-2.38018893e-02f,+9.55759883e-02f,-4.79320250e-02f,+5.46973944e-03f,
+3.45537812e-02f,-3.44565958e-02f,+5.68189844e-02f,-4.17714678e-02f,-7.41113164e-03f,
-6.57408834e-02f,+6.39599189e-02f,+1.87259843e-03f,+3.31124589e-02f,+1.59830675e-02f,
-2.05166158e-04f,+7.72093311e-02f,+4.44969833e-02f,+1.35934530e-02f,-9.44947544e-03f,
+1.34171022e-03f,-9.29830670e-02f,-7.17833936e-02f,-9.97684449e-02f,+1.83758270e-02f,
+1.44847240e-02f,-1.47086056e-02f,-8.49908441e-02f,-8.31831694e-02f,-8.27215314e-02f,
+5.58892265e-02f,-2.09462475e-02f,-2.45285742e-02f,+5.60542941e-02f,-7.43547827e-02f,
-8.46054554e-02f,-1.17472027e-05f,+1.22216409e-02f,-6.84857965e-02f,-7.03146979e-02f,
+1.25244167e-02f,+2.51582414e-02f,+9.17386077e-03f,-7.70723149e-02f,-1.55220330e-02f,
+7.64990598e-02f,-7.80937672e-02f,-1.81709311e-03f,+5.28169461e-02f,-2.16521434e-02f,
-3.05168349e-02f,-1.58996601e-02f,+8.25288594e-02f,+5.40044904e-02f,-4.39975895e-02f,
-5.53981699e-02f,+3.27208117e-02f,-3.32341343e-02f,+3.31132300e-02f,-1.31982993e-02f,
-3.20080444e-02f,+1.15679085e-01f,+6.86975643e-02f,-5.40358163e-02f,+7.61207659e-03f,
-4.52876464e-02f,-1.19179569e-03f,+5.60508743e-02f,-6.68000430e-03f,+2.94972043e-02f,
-4.19827104e-02f,-3.13971974e-02f,+6.88494965e-02f,+3.16417962e-02f,-6.91567436e-02f,
-9.68749821e-03f,+5.75178489e-02f,-6.87652528e-02f,-5.21013997e-02f,-4.98979492e-03f,
-1.95218604e-02f,-3.74990329e-02f,-8.70262757e-02f,-5.66987395e-02f,-5.08973338e-02f,
-7.55812600e-02f,+1.55613078e-02f,-5.31199910e-02f,-3.95304970e-02f,+1.63641237e-02f,
+1.20023098e-02f,-8.24688226e-02f,-6.70494288e-02f,-6.80608004e-02f,-4.31115516e-02f,
-1.53270131e-02f,-3.28202620e-02f,+7.57398978e-02f,+4.01880704e-02f,+7.11228997e-02f,
-2.56967079e-02f,+9.45278537e-03f,+5.38656972e-02f,+5.44246882e-02f,+4.45312634e-02f,
-3.97631526e-02f,-1.69196967e-02f,+2.80364119e-02f,-6.80659860e-02f,-4.81152795e-02f,
-4.36968841e-02f,-7.29979724e-02f,+6.65042177e-03f,+8.83482024e-02f,-3.23587507e-02f,
-6.32560104e-02f,+9.47391316e-02f,-2.08792873e-02f,-6.94210157e-02f,-7.33369775e-03f,
-1.15867481e-02f,-9.04161036e-02f,-8.75147805e-02f,+4.42353785e-02f,-2.52577048e-02f,
+7.73272514e-02f,-3.82896699e-02f,-3.92958149e-02f,-3.44354734e-02f,+1.49085969e-02f,
+9.17763412e-02f,-2.21580528e-02f,-1.72783956e-02f,-6.54281601e-02f,+2.70671025e-02f,
+4.94167693e-02f,-3.87176871e-04f,+3.28387576e-03f,+1.77713744e-02f,-2.42271125e-02f,
-5.60832992e-02f,-1.01861030e-01f,-7.13475719e-02f,-5.57289198e-02f,-5.36982268e-02f,
+2.04286948e-02f,+8.63608122e-02f,-4.06096391e-02f,-1.02733113e-02f,+5.37496358e-02f,
-3.80199589e-02f,+5.10325916e-02f,+8.17243941e-03f,+8.50462541e-02f,+3.59612331e-02f,
+6.54506311e-03f,+3.93591300e-02f,+8.37037191e-02f,-8.15602466e-02f,+1.99909601e-02f,
-4.89397086e-02f,+7.53188953e-02f,-2.51697246e-02f,+6.55622333e-02f,-4.10620729e-03f,
+5.14094979e-02f,-4.83961403e-02f,-2.22520623e-02f,+6.65317699e-02f,+6.81291074e-02f,
-5.91808520e-02f,-6.41510859e-02f,+3.03846039e-02f,-1.06829412e-01f,-9.59921330e-02f,
-5.95306642e-02f,+4.43111211e-02f,-9.68620479e-02f,+4.77149710e-02f,+6.85499841e-03f,
-8.73544961e-02f,-3.44951972e-02f,+1.94896990e-03f,+3.13289128e-02f,+3.87499556e-02f,
-1.07914777e-02f,-5.54919206e-02f,+2.11747177e-02f,-8.52274820e-02f,-1.38219271e-03f,
+4.09212932e-02f,-5.38859032e-02f,-3.04354429e-02f,-3.95094417e-02f,+1.47310141e-02f,
+6.65639713e-02f,+6.93800971e-02f,+1.34748649e-02f,-1.86943375e-02f,-6.89312909e-03f,
+2.80034486e-02f,-1.35034705e-02f,+8.92279297e-02f,-1.87750012e-02f,-4.49626669e-02f,
+2.63108891e-02f,+5.86506613e-02f,+3.71923521e-02f,-5.23618869e-02f,-9.40345693e-04f,
-5.85305244e-02f,+2.43643522e-02f,+7.83233866e-02f,+3.56100239e-02f,-3.21120545e-02f,
+5.13190478e-02f,-1.03595182e-02f,+5.59335090e-02f,+2.59607863e-02f,+2.43103690e-02f,
-6.51760325e-02f,+7.48430043e-02f,-5.00904731e-02f,+1.34946173e-02f,-1.76044255e-02f,
+2.31719641e-05f,-4.78178263e-03f,+4.96149510e-02f,-7.94361010e-02f,-8.32638741e-02f,
-6.31505810e-03f,-7.09823966e-02f,-1.99502916e-03f,+2.14014724e-02f,-1.90331880e-02f,
+6.01783441e-03f,+4.03758734e-02f,-9.97380242e-02f,-5.53632379e-02f,-6.26904378e-03f,
-5.22142723e-02f,-4.73126918e-02f,-1.40694641e-02f,+3.93990763e-02f,-7.02126995e-02f,
+3.75133865e-02f,+3.54633145e-02f,-4.57402654e-02f,-4.46991250e-02f,-3.44465040e-02f,
+2.44902894e-02f,+2.46841144e-02f,+3.39842476e-02f,+4.05088998e-03f,-8.12410191e-02f,
+9.85752605e-03f,-4.51086611e-02f,-6.00999128e-03f,+3.61146182e-02f,+6.66549727e-02f,
-2.28121430e-02f,-5.29025756e-02f,-2.08343361e-02f,+2.01935563e-02f,-1.80294719e-02f,
+9.39015374e-02f,-1.71706791e-03f,+2.54580751e-02f,+4.16829111e-03f,-5.91621175e-02f,
-7.94339627e-02f,+4.36044065e-03f,+3.78637239e-02f,+4.90030758e-02f,-3.41230221e-02f,
+1.04504405e-02f,-4.27893065e-02f,-3.14027853e-02f,+6.01721555e-02f,+4.64560688e-02f,
+2.14259401e-02f,+5.76798171e-02f,-8.00046772e-02f,+5.97683750e-02f,-2.34668758e-02f,
+4.58263122e-02f,+1.16868196e-02f,+4.78002951e-02f,+6.84595630e-02f,+8.74901935e-02f,
-6.12305216e-02f,-7.52381012e-02f,-1.93546545e-02f,+5.39252944e-02f,+4.17385204e-03f,
+1.21176289e-02f,-8.40583891e-02f,+2.32983995e-02f,-1.68603137e-02f,-2.51174401e-02f,
-3.58456522e-02f,-3.18910927e-02f,-8.88376907e-02f,-9.55504645e-03f,-6.60261437e-02f,
-5.80477156e-02f,-7.62865469e-02f,-5.94184594e-03f,-1.25974370e-02f,+1.07837282e-01f,
+7.05192536e-02f,+2.95682549e-02f,+7.42465928e-02f,-8.09512276e-04f,-4.54910770e-02f,
+7.34110689e-03f,-7.95831904e-02f,+5.56584401e-03f,-6.13240153e-02f,-5.89323901e-02f,
-5.33694625e-02f,-3.60619277e-02f,-6.24457300e-02f,+3.33244428e-02f,-1.09663038e-02f,
-5.91730699e-03f,+6.21151850e-02f,-7.86044076e-03f,-2.13427786e-02f,-5.64017929e-02f,
+2.13842075e-02f,-7.29840100e-02f,-1.69122834e-02f,-9.27465409e-02f,+4.31679748e-02f,
+6.89300001e-02f,-4.59591970e-02f,-7.09062889e-02f,-4.35167439e-02f,-3.93996425e-02f,
-2.02087667e-02f,-4.65064943e-02f,-5.33286817e-02f,-4.65660207e-02f,-5.76108843e-02f,
+7.14605451e-02f,-1.22555168e-02f,+4.16778401e-02f,-3.80430408e-02f,-4.84590828e-02f,
-4.65552844e-02f,-1.35803604e-02f,+4.80438024e-03f,-2.58524567e-02f,+3.50424424e-02f,
-3.27490345e-02f,-8.20397958e-02f,+2.99915001e-02f,+7.18455911e-02f,+2.78520249e-02f,
-8.51147473e-02f,-2.04483625e-02f,-4.31397883e-03f,-2.37397980e-02f,-3.83425578e-02f,
+4.92834002e-02f,-1.24603678e-02f,-9.11157951e-03f,+3.31848003e-02f,-1.20085701e-01f,
+5.37342057e-02f,-2.33306251e-02f,+2.26911400e-02f,+1.15971021e-01f,-3.41333039e-02f,
-3.04396916e-02f,+6.68875128e-03f,-1.15244566e-02f,-3.59557755e-02f,-1.07478478e-03f,
+4.53788862e-02f,+6.11300841e-02f,-6.81582913e-02f,-3.19413804e-02f,-4.29240987e-03f,
-2.07051765e-02f,+1.74408201e-02f,+1.36504974e-02f,+7.28065446e-02f,+8.73927865e-03f,
+5.36060706e-03f,+4.03004363e-02f,+4.75235656e-02f,+4.50655147e-02f,-1.05692241e-02f,
-4.42501083e-02f,+5.44341803e-02f,+4.84853722e-02f,-5.63880540e-02f,+7.93198943e-02f,
+7.48879090e-02f,-1.03154428e-01f,+7.55056590e-02f,+5.45150079e-02f,-3.41080390e-02f,
-5.33731617e-02f,-1.24477819e-02f,+4.88309711e-02f,+3.87961566e-02f,-5.83342686e-02f,
+1.54650575e-02f,-6.03709929e-03f,+1.51868984e-02f,+6.42227829e-02f,-5.87173961e-02f,
-2.02197935e-02f,+8.01096037e-02f,+1.04762325e-02f,+9.11981165e-02f,-5.98490313e-02f,
-8.00959170e-02f,-8.76058489e-02f,+5.82850464e-02f,+1.70781948e-02f,+3.43982875e-02f,
+2.40450911e-02f,-4.80173342e-02f,+1.04821123e-01f,+2.28625461e-02f,-8.69553685e-02f,
+5.37125617e-02f,+6.47764653e-02f,+6.57481104e-02f,-5.12204841e-02f,-5.87456226e-02f,
-7.81157017e-02f,+2.87246667e-02f,+8.50649551e-02f,-4.16329922e-03f,-1.56783275e-02f,
-4.67850454e-02f,-6.14444651e-02f,-2.37615965e-02f,-2.48279776e-02f,-8.57281089e-02f,
-7.86620006e-02f,-1.40673742e-02f,+5.66039467e-04f,+4.76430617e-02f,+9.75840911e-03f,
-3.68595170e-03f,-1.20635992e-02f,+4.54429798e-02f,+5.43796867e-02f,-5.76612689e-02f,
+1.46374973e-02f,+5.32636750e-06f,+6.85405778e-03f,+3.77276316e-02f,-2.79293004e-02f,
+2.50334498e-02f,-2.74959356e-02f,-4.27752882e-02f,-4.39922400e-02f,-7.49036763e-03f,
+3.17665748e-02f,+7.43653476e-02f,+7.45212510e-02f,-2.23258901e-02f,+7.51254931e-02f,
+1.09541029e-01f,-3.48110236e-02f,+4.23874557e-02f,+3.99414934e-02f,-4.04704697e-02f,
-1.64810587e-02f,+6.93063661e-02f,-3.26773003e-02f,+1.58210471e-02f,+3.88957746e-02f,
+1.65999606e-02f,+1.60140377e-02f,+5.47961742e-02f,+3.61104608e-02f,-7.42560327e-02f,
-1.88488862e-03f,-7.98576549e-02f,+3.37453969e-02f,-2.55477466e-02f,+2.32419721e-03f,
+1.04853652e-01f,+7.52054751e-02f,+5.81124127e-02f,+7.67409950e-02f,-6.33257851e-02f,
+3.52291316e-02f,-7.20907301e-02f,-4.17324789e-02f,+4.46771411e-03f,+5.64113073e-02f,
+6.93170652e-02f,+8.97788536e-03f,-5.23712784e-02f,+3.37972008e-02f,+5.37080392e-02f,
+2.92868353e-02f,+6.73417598e-02f,+3.66357453e-02f,-2.83060614e-02f,+5.07752374e-02f,
+1.91388261e-02f,+7.82375876e-03f,+5.06148711e-02f,+3.84338759e-02f,+2.63083223e-02f,
-5.16687743e-02f,-3.09434179e-02f,+6.81645796e-02f,+4.40227613e-02f,+6.10910617e-02f,
+3.46492678e-02f,-1.97261851e-03f,-8.74911435e-03f,-7.75556266e-02f,-5.50028197e-02f,
+2.07876936e-02f,+8.45776591e-03f,+5.23106344e-02f,+6.45596832e-02f,+4.82247770e-02f,
+7.05632120e-02f,-2.45497245e-02f,-9.54192970e-03f,+2.65267342e-02f,-2.91105062e-02f,
+3.17773363e-03f,-2.52691545e-02f,+1.92367118e-02f,-7.89499432e-02f,+5.82901798e-02f,
+2.16796119e-02f,+1.13878986e-02f,+6.65565487e-03f,-6.69035241e-02f,+2.68079787e-02f,
