-0.075188 0.062572 0.005533 0.090065 -0.062209 -0.034218 0.039504 0.082310 -0.071501 -0.048154
0.071679 0.049369 -0.010975 -0.017397 -0.030507 -0.027298 -0.004548 -0.011626 -0.064778 -0.032012
-0.071310 -0.079914 0.014177 -0.024206 0.036853 -0.054656 0.060730 -0.141708 0.026695 -0.118449
-0.040812 -0.053834 -0.047553 0.003572 -0.091043 -0.043855 0.054923 -0.076836 -0.053928 0.074847
0.000924 -0.011952 0.012444 -0.117407 -0.025650 0.053857 -0.063461 -0.134859 0.079149 -0.017947
-0.053631 -0.084225 -0.063915 -0.036942 -0.114169 0.026693 -0.101755 -0.039704 -0.046098 -0.067307
-0.101300 0.035536 0.032645 -0.085086 0.051438 0.008052 -0.070045 0.026450 0.024998 0.045615
-0.043488 -0.000026 0.064868 0.004533 -0.035550 -0.032305 0.015134 0.001265 -0.026642 0.036043
-0.011480 -0.041787 -0.119957 0.003682 0.054517 -0.056667 -0.046477 -0.013906 0.079455 -0.120818
0.098067 -0.117268 -0.065659 0.006868 -0.048750 -0.106056 -0.049936 -0.089022 -0.088089 0.011250
-0.003657 0.039763 0.006242 0.007029 -0.010108 0.052092 -0.066397 -0.050437 -0.081001 0.065950
-0.093520 0.043014 -0.017779 -0.005628 -0.018264 0.055085 -0.061128 0.027067 -0.175591 -0.102526
0.058521 0.013987 -0.075752 -0.000182 0.070336 -0.009401 -0.049085 -0.032422 -0.100032 -0.077635
-0.021594 0.046773 -0.056779 0.020461 0.009063 -0.025392 -0.021945 -0.025341 0.016671 -0.070544
0.044980 0.015375 -0.046710 -0.064133 -0.066900 0.004471 0.014708 -0.035256 0.015218 -0.015465
0.023595 0.038456 -0.043649 -0.003131 -0.001735 -0.054725 -0.076364 -0.013702 0.046533 -0.069578
-0.058716 -0.070390 -0.046556 0.014054 -0.041065 0.019968 -0.005935 -0.011811 -0.023995 -0.021976
-0.085334 0.036752 0.015904 0.065565 -0.061857 -0.009137 -0.025124 -0.101449 -0.045874 0.024364
-0.084594 0.002544 -0.083928 -0.002612 0.015956 -0.057835 0.005793 -0.006336 -0.007133 -0.004793
-0.073930 0.054165 -0.031404 0.027544 -0.066836 -0.002108 0.008242 -0.056058 -0.143469 -0.088838
0.002931 0.027531 0.063800 -0.076142 0.010506 0.009880 -0.028736 -0.102495 0.029259 0.054445
-0.109009 0.003757 0.042261 0.005558 0.006705 0.021369 0.043386 -0.054487 -0.062704 -0.066085
0.063058 -0.024972 -0.025394 -0.062561 0.011407 0.019148 0.055171 0.027306 -0.051810 0.030116
0.087493 -0.021225 -0.014938 -0.051618 -0.058545 0.012610 0.025228 -0.078708 -0.088876 -0.007986
-0.120179 -0.070627 -0.041032 0.042025 -0.017969 -0.004973 -0.135503 0.025622 -0.048428 -0.072901
0.025929 0.023483 -0.092023 -0.035029 -0.076804 0.008641 -0.053056 -0.082617 -0.037448 0.048311
-0.017953 -0.075137 -0.026085 0.038429 -0.056948 0.051228 -0.014848 -0.049070 -0.014818 -0.051329
-0.053773 0.019097 -0.060562 0.068526 -0.032177 0.009335 -0.067730 -0.046604 -0.008335 0.070465
-0.089728 0.066214 0.025107 -0.083532 -0.020479 -0.013454 0.006693 -0.041961 -0.010979 -0.052621
0.049217 0.070606 -0.011405 -0.001430 -0.051992 0.049676 -0.020922 0.078444 -0.078939 -0.032531
-0.116858 0.017928 -0.015434 0.074433 0.010275 -0.042919 0.008001 -0.021092 -0.132138 -0.119635
0.077945 0.036550 -0.022320 0.007573 -0.034638 -0.048594 0.069805 0.026187 0.056563 0.044621
0.033885 0.053351 -0.060730 0.032436 0.012295 -0.056290 -0.047299 0.074575 -0.112202 0.000071
0.002723 -0.044604 0.041490 -0.074498 0.000756 0.010716 -0.041978 -0.072884 -0.065988 -0.083845
-0.071339 0.026270 -0.074212 0.028401 0.044877 -0.038130 -0.034013 -0.072420 -0.029927 -0.036029
-0.069781 0.057374 -0.092219 -0.106142 0.024379 -0.138506 -0.135228 -0.026742 -0.034284 0.007277
-0.073357 -0.070058 -0.041190 -0.031118 0.028800 0.011144 -0.012258 0.046214 -0.051974 -0.042924
0.032301 -0.044906 -0.052344 -0.068210 -0.005875 -0.050085 -0.018983 0.035695 -0.070782 -0.072353
-0.033066 -0.076478 -0.062813 0.046215 0.073634 0.025951 -0.057548 -0.063264 -0.009761 0.042096
0.026320 0.003173 -0.075553 0.012859 -0.070277 0.040017 -0.010284 -0.069582 -0.068212 -0.082667
0.071138 0.047002 -0.020124 -0.105639 -0.005523 -0.045484 -0.025779 0.017988 0.040396 0.022917
-0.119278 -0.173417 -0.003033 0.018880 -0.028507 -0.065136 -0.030839 -0.110805 -0.082604 0.005424
0.059506 0.057068 -0.000449 0.030526 -0.026931 -0.025690 -0.060168 0.025378 -0.026604 -0.037120
-0.122582 0.082697 0.022451 -0.075320 -0.065726 -0.082223 -0.107627 -0.025067 -0.069319 -0.012168
-0.010005 -0.016968 0.073917 0.016393 -0.068076 -0.026094 -0.065624 0.050644 0.025807 -0.105864
0.026827 -0.046614 -0.029244 -0.040369 0.048285 -0.075345 -0.059695 -0.034220 -0.000458 -0.070620
0.043072 0.005281 0.008003 0.028670 -0.082902 -0.059132 -0.043656 -0.014669 -0.044588 0.017984
-0.030272 0.086909 -0.042900 -0.081502 -0.028194 -0.010474 -0.039475 0.016761 -0.113236 -0.045004
-0.080040 0.003664 0.000802 -0.043506 0.071842 0.063026 0.016601 0.014212 -0.062155 -0.134246
-0.045507 0.046485 -0.036018 -0.046842 -0.015186 -0.105838 -0.069015 -0.046218 -0.024404 -0.070674
0.025727 -0.075606 -0.093412 -0.016159 0.076948 -0.033818 -0.067726 -0.016223 0.007203 0.026069
-0.053694 -0.108203 0.021031 0.068038 -0.024682 0.026323 -0.015780 -0.066674 0.023293 -0.075716
-0.020376 0.046664 -0.029609 -0.051968 -0.051582 0.043088 -0.069744 -0.020564 0.073589 0.016090
-0.068197 -0.009506 0.000238 -0.064390 -0.000716 -0.006545 0.037224 0.052777 -0.023550 0.050680
0.010574 -0.069526 0.021480 0.069655 -0.070583 -0.100169 -0.089577 -0.011206 0.053958 0.002059
-0.078522 0.045247 -0.002495 0.041842 0.045230 -0.009305 -0.041608 -0.010010 -0.101712 0.014417
-0.006967 0.038646 -0.074344 -0.098817 0.068793 0.031713 -0.020830 -0.090455 -0.042762 -0.029382
-0.070876 -0.016908 0.005812 0.050305 0.055017 0.004625 -0.016553 0.029334 -0.043213 -0.019584
-0.064412 0.020375 0.059641 -0.031476 0.055986 0.072109 -0.092104 -0.079906 -0.064683 -0.007645
-0.114700 0.068894 -0.083318 -0.050145 0.060708 -0.018747 -0.125607 -0.082266 0.033444 -0.021122
-0.051188 0.034615 -0.001174 -0.081777 -0.071216 -0.039719 -0.027952 0.051095 -0.050583 -0.045189
0.052135 -0.068762 -0.062851 0.011968 0.043292 0.040305 -0.008930 -0.042770 0.042750 0.013303
0.034639 -0.036219 0.041665 0.032692 0.039487 -0.033796 -0.029298 -0.010156 0.060382 0.044035
-0.006076 -0.093447 -0.067553 0.073069 -0.060513 0.076769 -0.117689 0.017029 0.005192 -0.011881
0.035284 0.017676 -0.070525 -0.037423 -0.026689 0.079396 0.048633 0.005099 -0.030020 -0.003660
0.030152 -0.035791 -0.033257 -0.078278 0.012632 -0.010729 0.015127 -0.046054 -0.038089 -0.015987
0.064993 0.020870 -0.086965 0.075990 -0.002822 -0.053151 0.018140 0.070714 -0.102047 -0.020855
0.006313 -0.074851 -0.067360 0.060224 -0.067539 0.048082 -0.083110 0.025115 0.046244 0.019312
0.065835 0.008537 0.002744 0.015088 -0.087330 -0.006792 -0.144639 -0.124842 -0.121797 0.043888
0.067488 0.003996 -0.037166 -0.063526 0.041505 0.000019 -0.000926 0.059900 -0.044886 -0.084291
-0.077570 0.072572 -0.052997 0.019612 -0.050588 -0.029122 0.059844 -0.065494 -0.039932 0.057899
0.027360 -0.066413 -0.072005 -0.056766 -0.023229 0.031094 -0.139366 0.089736 -0.019171 0.011028
-0.016608 0.022981 0.059774 -0.044385 -0.048408 -0.140611 0.053919 -0.116262 0.016056 -0.154910
-0.016598 -0.070800 -0.063624 -0.008820 -0.017955 -0.041967 0.012569 0.046459 -0.066169 0.038838
-0.047319 0.023546 0.024031 -0.083662 -0.058149 -0.038478 -0.009492 0.049704 0.051898 -0.074456
0.011079 -0.043099 -0.107327 -0.016071 0.000388 0.053921 -0.160380 0.020453 -0.126887 -0.005268
-0.054910 -0.095815 0.043250 0.074998 -0.006508 -0.065292 -0.118777 -0.052430 -0.037276 -0.018552
-0.028513 0.059045 -0.038758 0.015100 0.035189 -0.009907 0.057208 -0.080644 0.015426 0.010763
-0.042655 -0.055976 -0.074739 0.070118 0.016650 -0.031850 -0.001454 0.037717 -0.054150 -0.057096
0.023047 0.015027 0.016811 0.037138 -0.027376 0.026004 0.007146 0.058983 -0.067191 -0.061410
-0.008199 0.022852 -0.073323 -0.009496 -0.045704 0.059093 -0.027050 -0.086966 -0.047096 0.054103
-0.026325 -0.073976 -0.074839 -0.086773 -0.054863 0.072274 -0.063957 -0.034818 -0.016871 -0.042660
-0.027706 0.008001 0.071527 -0.021088 -0.031537 -0.083540 -0.016782 -0.043778 -0.044353 -0.071961
-0.030824 0.031363 0.026306 -0.074457 0.016288 0.052088 -0.012980 0.020822 -0.056213 -0.053910
-0.006941 -0.050213 -0.086692 -0.027350 -0.062530 -0.040031 0.045423 -0.012557 0.056833 0.071369
-0.047635 0.012189 -0.010966 -0.047204 -0.036937 0.005132 -0.101387 0.026249 0.026722 -0.032200
-0.054086 0.019439 -0.016790 0.060905 -0.002417 -0.008530 0.030647 -0.066225 0.030221 -0.048322
0.034889 -0.025181 -0.133291 -0.031365 -0.080240 -0.042755 -0.057811 -0.094093 -0.097426 -0.019230
-0.077095 0.009968 -0.011614 0.037161 -0.037976 -0.071698 0.082804 -0.125931 -0.013365 -0.106088
0.018609 0.050397 -0.135380 0.018058 -0.057540 -0.018010 -0.036902 -0.037654 -0.030145 -0.039504
-0.003488 0.032620 -0.046672 -0.033985 -0.023890 0.047301 -0.055223 -0.063848 -0.089086 0.047389
0.041870 -0.044106 -0.114739 0.033519 0.016012 -0.057725 -0.107197 -0.070114 -0.096094 0.027876
-0.033812 -0.030634 0.018987 0.080226 -0.012951 0.057757 -0.018247 -0.004864 0.007438 0.059129
0.083358 0.036615 -0.084250 -0.014865 -0.072525 -0.118498 -0.029376 -0.030891 0.032793 0.069155
0.000571 0.031227 0.016394 -0.052925 -0.033052 -0.034270 -0.024824 0.056855 0.029684 0.050987
0.060524 -0.025453 -0.066168 0.044611 0.048883 -0.028773 0.019171 -0.062674 -0.030634 0.018341
-0.045844 -0.040423 0.072571 0.068936 -0.044511 0.015226 -0.002326 0.029418 -0.001622 0.009963
-0.039449 -0.081521 0.042680 -0.107851 -0.001304 -0.001559 -0.004109 0.007793 0.072568 0.004073
-0.055607 0.024136 -0.071612 0.030648 -0.079234 0.010573 -0.012578 0.057578 -0.046040 0.027291
0.021691 0.050031 0.017161 -0.025714 -0.065198 -0.078775 0.037351 -0.035177 -0.015925 0.002800
-0.094406 -0.140205 -0.021827 -0.046082 -0.087027 0.073238 0.009322 -0.027685 -0.010907 0.004573
0.085907 -0.099573 0.023268 -0.025541 -0.064730 0.035101 -0.037689 0.001064 -0.081768 -0.043248
0.029148 0.037723 -0.031863 -0.046188 0.028363 -0.004410 -0.014231 -0.027035 -0.068276 -0.055560
-0.017185 0.016680 -0.026391 0.053668 -0.040769 -0.017952 -0.024362 0.027656 0.075414 0.060914
-0.049749 0.031112 0.048266 -0.036353 0.003817 -0.042635 -0.098719 -0.033615 -0.081635 0.045671
-0.091357 -0.080124 0.057386 -0.039659 -0.008420 -0.083488 -0.067871 -0.115184 0.049902 -0.022701
0.090866 -0.032279 -0.122706 -0.011058 -0.055632 -0.023456 0.031771 0.019001 -0.075828 0.038746
-0.062610 -0.048323 -0.015808 0.029254 0.047171 0.003217 -0.076740 -0.033877 0.028925 -0.009819
0.051063 -0.048085 -0.117911 0.038485 0.026215 0.072400 -0.087717 -0.082625 -0.082086 -0.080023
-0.147101 -0.039667 -0.039479 -0.053050 -0.094808 -0.074950 -0.176840 0.031314 -0.042220 -0.078246
-0.017637 0.062107 0.034164 0.000533 -0.008710 -0.027483 0.003723 0.039560 -0.001925 -0.055328
0.059477 0.035229 0.009251 -0.071772 0.015545 0.020499 0.056149 -0.048712 -0.070728 -0.101708
-0.037314 0.011439 -0.042866 -0.055601 -0.024101 -0.014214 -0.007513 -0.019633 0.062284 -0.009353
-0.017366 -0.055739 -0.081460 0.049233 0.007652 0.022409 -0.030337 0.055061 0.044628 0.018997
-0.056298 0.016101 -0.038910 -0.008238 0.020279 0.005384 0.043974 0.041562 0.087244 -0.084891
0.079420 -0.067904 -0.005641 -0.024377 -0.040458 -0.031118 0.022502 0.010745 0.025639 -0.155164
0.065095 -0.042165 -0.070997 0.065335 -0.045822 -0.045457 -0.020734 -0.072086 -0.071811 0.046348
-0.074487 0.051898 0.071719 0.020199 -0.061107 -0.001808 -0.040473 -0.055709 0.045532 -0.005772
0.004213 -0.073394 -0.028451 -0.101226 0.020217 0.069593 0.069866 -0.005528 0.001543 -0.043402
-0.092562 0.044560 -0.036373 0.022940 0.015465 0.047548 -0.047362 0.008394 -0.089650 -0.058275
0.011163 -0.067321 -0.028483 -0.024010 0.018380 -0.073771 0.037782 -0.022664 -0.018409 -0.095139
-0.042079 0.010529 0.054467 -0.052863 -0.069723 -0.082822 -0.089287 -0.130085 -0.110906 0.007419
0.046460 -0.049695 -0.095282 -0.031887 -0.060014 -0.026404 -0.002561 -0.028891 -0.023660 -0.059400
-0.008791 -0.026474 0.021321 0.035923 0.029397 0.032622 0.002813 -0.047503 -0.009840 0.055266
0.071265 0.065138 0.063748 -0.023377 0.011035 0.020077 0.014328 -0.138230 -0.005727 -0.024782
-0.023924 -0.031949 -0.000195 -0.055144 0.005600 0.081411 0.048347 -0.092077 0.014076 0.057660
-0.139679 0.046414 0.018541 -0.063017 -0.034651 -0.044813 -0.140102 -0.027077 -0.151856 -0.113766
-0.058473 -0.038486 0.002259 0.060260 0.042432 -0.019754 0.017859 -0.064147 -0.019000 0.060220
-0.010113 -0.064389 -0.008558 -0.011556 -0.020324 -0.016177 0.046331 -0.039740 0.023716 0.024648
-0.025729 -0.014057 -0.087934 0.091575 0.016407 0.000838 -0.020828 -0.049996 -0.033152 -0.085611
-0.111051 0.000190 -0.055698 -0.006187 -0.024222 0.071777 0.018965 -0.057365 0.047255 -0.009350
-0.077112 -0.101818 0.034096 0.016671 -0.095909 0.071368 -0.073734 0.059560 -0.038944 -0.041025
-0.051471 -0.006417 -0.074818 -0.088791 0.042966 -0.061443 0.004770 0.053709 -0.091372 -0.053706
-0.009621 -0.060109 -0.087482 -0.060214 0.068242 -0.050219 -0.034095 -0.006997 0.011582 0.050333
-0.055375 -0.018898 -0.109757 -0.025386 -0.035460 -0.015072 -0.089165 -0.005209 -0.046810 0.052962
-0.064522 -0.078760 -0.111968 0.058398 -0.032564 0.074680 -0.048431 0.004380 -0.138300 -0.007506
0.010730 -0.035055 0.054721 -0.056814 -0.004765 0.055852 -0.010813 0.013192 -0.056555 0.015892
0.020210 -0.128918 0.071650 -0.012462 -0.114498 -0.025090 -0.092294 0.054692 -0.056305 -0.025035
0.001058 -0.072157 -0.053223 -0.026778 -0.014553 -0.067590 -0.032082 0.037808 -0.102844 -0.060903
0.060053 0.062149 -0.073719 0.008009 0.004584 0.039938 0.011607 0.045617 -0.037648 0.004105
-0.002296 -0.069645 0.059744 -0.030619 -0.089294 -0.055694 -0.043803 -0.056998 0.033593 -0.050195
0.005986 0.014909 -0.039530 0.003683 -0.080775 0.018604 0.062971 -0.016117 -0.021682 -0.092581
-0.004450 0.011098 0.075633 -0.062668 -0.110218 -0.065621 -0.036894 -0.047513 0.011352 -0.060499
0.073969 0.029100 0.005701 -0.055961 -0.032948 0.022937 -0.061572 -0.081487 -0.114889 -0.118517
-0.060405 0.026284 -0.004316 -0.064242 0.011570 -0.073307 -0.034348 0.047447 -0.014614 -0.021802
-0.047181 -0.103783 -0.087856 -0.102462 0.003185 -0.011121 0.033959 -0.008567 0.072270 0.020182
0.028039 -0.031415 0.025474 0.013833 0.066861 -0.020732 -0.033177 0.047853 -0.021410 -0.019464
-0.059428 -0.052991 -0.084314 -0.013987 0.096063 -0.130484 0.029667 0.017447 -0.112171 -0.066949
-0.061855 -0.051997 0.034227 -0.024055 -0.077557 -0.005442 0.048654 -0.015475 0.017980 0.023513
-0.093110 0.029638 0.048877 -0.078025 -0.058845 0.064938 0.076203 0.000788 0.000215 -0.064289
-0.033860 0.054862 0.050535 -0.010718 0.042557 0.028693 0.019547 0.057255 -0.087930 -0.051101
0.000051 0.048492 -0.057374 0.002698 0.010803 0.068060 -0.051876 0.040081 -0.051755 -0.011110
-0.066466 0.042458 0.038981 -0.078845 -0.077542 0.059088 0.043636 0.008809 -0.026136 0.071882
0.018350 0.002541 0.048721 0.010930 -0.092622 -0.019336 0.008839 -0.111197 0.007526 -0.073863
0.013876 -0.047473 -0.038645 0.007866 0.047801 0.040522 0.054001 -0.061779 -0.012153 -0.068534
-0.060239 0.046980 0.034484 -0.069199 0.011618 0.010052 0.040103 0.003090 -0.006180 -0.083405
-0.024278 0.006713 -0.033156 -0.048571 0.027748 0.076000 -0.025089 0.062270 0.045229 -0.015366
-0.002806 -0.035915 -0.029118 0.041751 0.056134 -0.013265 -0.021496 0.084437 0.063082 -0.088590
-0.032973 0.045589 0.079412 0.004461 -0.019293 -0.048028 0.039144 -0.110039 0.013572 0.068347
-0.109111 -0.004391 0.072690 -0.073823 -0.006675 -0.009121 0.015014 -0.021994 -0.014323 0.038901
0.085570 0.007364 -0.066416 0.010507 0.018352 0.032384 -0.033229 0.050651 0.005806 -0.070721
-0.054526 0.064966 -0.074175 -0.002377 0.007212 -0.048531 -0.075137 -0.002058 -0.017646 0.018280
0.027256 0.026950 0.026671 -0.052347 0.052579 -0.038139 0.076610 -0.083896 -0.065034 -0.082197
0.031653 0.038135 0.026053 -0.027877 -0.030597 -0.067986 0.053384 0.004826 -0.033656 -0.038963
0.071208 -0.040969 -0.146852 -0.045350 -0.041814 -0.020162 -0.008180 -0.093009 -0.033557 0.010614
0.073839 -0.083095 -0.101501 0.004857 -0.007019 0.043434 0.003960 -0.001438 -0.021504 -0.094540
-0.033770 0.005346 0.053721 -0.030823 -0.032198 0.039152 0.002635 -0.018376 -0.063516 -0.045569
-0.048440 -0.174282 -0.074335 0.005941 -0.102045 0.037455 -0.100289 0.009017 -0.012980 0.002384
0.030109 -0.024955 0.035942 -0.117288 -0.045887 -0.072761 0.041520 -0.125963 -0.078423 -0.001793
-0.044687 0.054205 0.006235 -0.071626 0.013337 -0.035482 -0.009913 -0.037670 -0.029752 0.049418
-0.042920 0.063017 0.049306 -0.086420 -0.027495 0.046118 -0.009465 -0.036508 -0.003998 -0.078625
-0.076029 -0.004071 -0.073199 -0.039828 -0.058627 -0.067936 -0.043457 -0.044464 0.041082 -0.006499
-0.092248 -0.045412 -0.073822 -0.073515 0.052861 -0.004752 0.074677 -0.049268 -0.018914 0.021335
-0.045588 0.015273 -0.003202 -0.076556 0.040444 -0.076301 -0.029474 -0.003215 0.034587 0.024246
-0.041545 0.016534 -0.081195 -0.043007 0.012066 -0.016796 -0.052146 0.042164 -0.091589 -0.070207
0.080366 -0.133916 0.006654 -0.107906 -0.053551 0.046293 -0.054176 -0.089697 -0.111472 -0.001394
-0.101692 0.019950 -0.023424 -0.045496 -0.027407 0.023870 0.013057 -0.002843 0.025085 -0.026689
0.033213 -0.075665 -0.075319 -0.060845 -0.006849 0.025585 -0.078185 -0.063265 0.018597 -0.031561
0.055824 0.030953 0.046549 -0.002321 -0.033080 0.061118 0.006691 -0.010634 -0.112048 -0.020619
-0.104033 -0.032240 -0.032722 -0.090765 -0.000922 -0.052172 -0.007543 0.098431 0.055259 0.035847
0.082428 -0.119869 -0.046415 -0.052685 0.005449 0.070923 -0.128178 -0.025026 -0.128937 -0.069752
-0.055913 -0.058240 0.040272 0.041727 0.021350 -0.011141 0.029809 -0.077492 0.036770 -0.000998
-0.084910 -0.100321 -0.018713 0.013782 -0.040166 0.028605 -0.039484 -0.020444 -0.016119 0.027901
0.006939 -0.109996 -0.022265 0.042936 0.082940 0.033275 0.041133 0.061108 -0.096151 -0.063486
-0.004684 0.019923 0.059477 0.026044 0.005468 0.026038 0.020924 0.015584 -0.060357 -0.066734
-0.051443 0.047217 -0.101902 -0.002459 0.021182 -0.046188 0.059164 0.050630 0.020393 0.008249
0.032234 -0.039330 0.049690 -0.024941 -0.048292 -0.051593 -0.048280 0.041367 -0.110298 -0.081283
-0.052496 0.065153 -0.081514 0.078718 0.007204 -0.010633 0.002508 -0.086802 0.026128 -0.012508
-0.011105 0.000512 -0.133987 -0.054335 0.048202 -0.027526 0.061333 0.039393 -0.012095 -0.014690
0.011714 -0.003668 0.045882 -0.040291 -0.015574 0.006135 0.043400 -0.039752 -0.006827 -0.009370
0.032079 0.021151 0.073462 -0.022716 0.058839 -0.088766 0.000736 0.005990 0.026457 0.000739
-0.073873 -0.098302 0.022289 0.047028 0.061154 0.082327 -0.029295 0.001534 -0.073533 0.015478
-0.057044 -0.007765 -0.004572 -0.073314 -0.063408 0.008284 -0.014395 -0.035273 -0.036085 -0.059606
-0.067203 0.035166 -0.057623 0.008345 0.039597 -0.035288 -0.066218 -0.083657 0.025976 -0.061683
-0.080007 -0.091297 -0.015948 0.012517 -0.012639 0.073462 -0.001486 -0.045427 0.050670 0.001466
0.038570 -0.076357 0.071325 0.053410 -0.017748 -0.013118 -0.017567 -0.012764 -0.083548 -0.035919
-0.035980 0.004013 0.036612 0.056293 -0.005072 -0.137530 0.056977 -0.041939 -0.019899 -0.121129
-0.092864 -0.015627 0.077600 -0.073330 -0.087656 -0.053908 0.006299 -0.055550 -0.059675 0.060738
-0.097001 -0.087600 -0.064167 0.066356 -0.041787 0.058102 -0.084347 -0.072841 -0.006104 0.023744
-0.015663 0.041989 0.019193 0.055104 -0.015606 -0.015375 0.019710 -0.035634 0.010010 0.049504
0.063367 -0.005564 -0.005268 0.032155 -0.060000 0.022316 -0.037844 0.048102 -0.046758 -0.074339
-0.002308 -0.066667 -0.011263 -0.069482 0.007048 0.008823 -0.010638 -0.020386 -0.086568 0.028900
-0.089928 -0.036939 -0.163326 0.040271 0.066084 -0.045192 0.014442 0.059364 -0.004321 -0.074124
-0.070574 -0.062305 0.018575 -0.028217 -0.067244 -0.073131 -0.145047 0.094380 -0.046531 0.007973
-0.007386 0.015918 0.040721 -0.090205 -0.036503 -0.039377 -0.038924 -0.032117 0.006587 0.056461
-0.091297 0.076283 -0.025484 0.008358 0.031248 -0.046869 -0.065215 0.015041 0.062591 -0.011253
-0.076916 -0.034980 0.082034 -0.029259 -0.034720 0.057220 -0.034066 0.066467 -0.028318 -0.075042
-0.015322 0.047250 0.039463 -0.024444 0.022668 0.051834 -0.054980 0.028420 -0.030705 0.036173
-0.035398 -0.006808 -0.054108 -0.015916 -0.018780 0.019176 -0.030982 -0.070668 -0.038077 -0.033137
0.040631 -0.007521 -0.085749 0.007237 0.037386 -0.000813 -0.010974 -0.050538 0.034979 -0.000575
-0.073763 0.049441 -0.036368 0.010762 0.042839 -0.003384 -0.023707 -0.003832 -0.047930 -0.004107
-0.136010 -0.005631 -0.081501 -0.080366 0.072155 0.053680 0.001987 0.075140 0.004001 -0.047799
0.037859 -0.022621 0.049896 -0.042491 0.017401 0.051150 -0.020165 0.014608 -0.050953 0.024016
-0.104811 0.011231 -0.091783 -0.061058 -0.019506 -0.111610 -0.065692 -0.055351 -0.013692 -0.044307
0.069305 0.027165 -0.029198 0.089247 -0.103356 -0.069963 -0.114300 -0.001772 -0.112146 -0.080262
0.037591 -0.039543 0.011130 0.033011 -0.017046 -0.075207 -0.029557 -0.026316 -0.048421 -0.104350
0.011627 -0.016090 -0.036126 0.026174 -0.004078 0.062329 -0.023380 0.077523 0.049080 -0.020609
-0.131064 -0.015708 0.021693 0.067166 0.021680 0.008380 -0.077538 -0.060303 0.038907 -0.071345
0.027412 -0.058182 -0.047519 -0.074383 -0.003611 -0.010735 -0.058932 -0.029428 0.028118 -0.022330
-0.038116 -0.039120 0.031497 -0.067436 0.053612 -0.020538 -0.074560 -0.074344 0.009951 -0.076280
0.016977 -0.073835 0.014441 0.053186 -0.050627 0.058123 -0.057472 -0.035040 0.056441 0.082823
0.075286 -0.086939 -0.054848 -0.028624 0.005883 -0.120467 0.077731 -0.019800 -0.063531 0.035705
0.014342 0.054849 -0.015863 -0.039380 0.039144 -0.064471 -0.018236 -0.064694 -0.014137 -0.030597
0.015866 0.064713 0.018857 -0.111195 0.069963 0.080024 -0.040139 -0.098037 -0.003133 -0.034371
-0.080719 0.046223 -0.066871 -0.042433 -0.057376 0.018904 0.021633 0.013316 -0.004481 -0.064733
0.053694 -0.047764 0.017662 0.041265 0.058878 0.030359 -0.082176 0.055195 -0.040666 -0.055032
0.038542 -0.015556 0.026635 -0.048298 0.028111 -0.069526 -0.046804 -0.070541 -0.037203 0.033986
-0.051143 -0.060643 0.028995 0.045355 0.056977 -0.036566 -0.054161 -0.106619 0.043345 -0.067978
0.009176 0.042502 -0.009814 0.045936 -0.084203 0.051636 -0.135321 0.055929 0.049360 -0.014434
0.005665 -0.075511 0.021734 0.006806 0.001699 0.022739 0.047330 0.023589 -0.054602 -0.007858
-0.000553 -0.075993 -0.037198 -0.064710 0.010221 0.014387 -0.014255 -0.011766 -0.014408 0.015989
-0.078459 0.058890 -0.066426 -0.027815 0.032747 -0.070435 0.051974 -0.050516 -0.044740 -0.030913
-0.076226 0.024767 0.003897 0.005267 -0.011137 -0.089928 -0.018337 0.032295 0.037072 -0.039392
-0.164001 0.025707 -0.058893 -0.022780 -0.068352 0.031812 -0.066895 0.075275 0.001564 0.073056
-0.004892 0.003990 0.002452 -0.072233 0.018108 -0.070170 -0.045434 -0.054364 -0.051109 0.042730
0.056760 0.048067 0.037471 -0.024941 -0.001409 -0.045532 -0.015204 -0.097321 0.027399 0.051629
-0.017715 0.070937 -0.052944 -0.039872 0.067022 -0.054990 0.005954 0.009828 -0.089484 -0.083339
-0.101309 -0.021041 -0.000282 -0.068110 0.016560 -0.004968 -0.008362 -0.048959 -0.043111 -0.046335
0.032860 0.001493 -0.015415 -0.042479 0.012788 0.013766 0.073681 -0.078793 -0.062812 -0.047767
-0.093281 0.021066 0.080019 0.007205 -0.071448 0.023468 0.002294 -0.115949 -0.010213 -0.065172
-0.074779 -0.040833 -0.083723 0.058092 0.028568 -0.036411 0.040253 -0.008591 -0.008210 0.011805
-0.019230 -0.043660 -0.027993 0.046772 -0.030531 -0.167575 -0.059283 0.011261 0.002335 -0.038799
-0.028447 0.009520 0.018902 -0.024559 0.067647 0.012090 0.055823 0.042535 -0.033418 -0.100461
-0.084897 0.023691 -0.028382 0.047006 -0.000761 -0.012135 0.030974 -0.005376 0.037188 0.007524
-0.036919 -0.055227 0.042098 -0.002130 -0.073836 0.034993 -0.030317 -0.071749 0.067941 0.059203
-0.027879 0.040755 -0.085381 0.060544 0.003713 -0.015965 0.026123 0.086769 -0.068520 -0.012113
-0.101184 0.050401 0.006751 -0.160855 -0.008908 0.007102 -0.014019 0.069644 -0.083134 -0.105336
-0.052995 -0.179994 0.049416 0.066969 -0.023819 -0.148857 0.054522 -0.081789 0.028104 0.029142
-0.082606 -0.048021 0.047432 -0.045940 0.044087 -0.034179 -0.122781 0.102086 -0.071395 -0.101840
-0.077584 -0.045276 -0.020388 -0.043013 0.037448 -0.061785 -0.034273 -0.067484 -0.039766 -0.018642
-0.024688 -0.029421 -0.031551 0.001142 -0.053285 -0.036010 -0.070968 -0.078076 0.022364 0.021892
-0.005558 -0.067826 0.010812 -0.092634 -0.070196 -0.033966 0.003385 -0.028814 0.048013 -0.051327
-0.064711 -0.005900 -0.067831 0.061534 -0.013033 0.046330 0.017930 -0.010212 -0.024172 0.062006
0.041788 -0.016280 -0.096726 -0.092392 0.008491 0.049888 0.077326 -0.063546 0.008285 -0.109159
0.048569 -0.003979 0.064603 -0.079422 -0.067753 0.049820 -0.047448 0.049134 -0.069054 -0.044302
0.065578 0.042973 0.006647 0.054645 0.062789 0.028778 0.019949 0.003936 -0.002016 -0.003668
-0.064144 -0.000718 -0.147514 0.036868 -0.014052 -0.034557 -0.003983 0.060856 -0.001039 0.010674
-0.029695 -0.008220 0.046354 0.074598 -0.061792 0.033559 0.039326 0.003752 -0.024431 0.047283
-0.040757 0.048277 -0.064616 0.038209 -0.009933 0.066648 -0.010691 -0.065953 -0.079800 0.006235
0.003572 -0.058331 -0.017624 0.032653 0.030112 0.015592 -0.068648 -0.013558 -0.064029 -0.063873
0.011523 0.059495 0.041574 0.030580 -0.009870 0.054281 -0.046059 -0.131640 -0.114758 -0.003466
-0.142275 -0.055400 -0.043712 -0.026188 -0.090392 0.031677 -0.054462 -0.024596 0.052618 0.061637
0.006098 0.010718 -0.070697 -0.004802 0.014948 -0.042815 -0.017389 -0.004570 -0.046758 -0.075141
0.028682 0.024554 -0.054399 -0.004163 0.039282 -0.028958 -0.060836 0.033913 -0.081411 0.048722
-0.080057 0.027863 -0.054039 0.013730 0.063296 -0.066697 -0.061452 -0.019545 0.007224 -0.078376
-0.037460 -0.069944 0.028289 -0.007797 0.033113 -0.040249 -0.040593 -0.077769 -0.006450 -0.006701
-0.003935 -0.022899 0.035278 0.028093 0.031457 -0.058427 -0.039234 -0.042047 0.019901 0.053048
-0.039620 0.038132 -0.065454 -0.034135 0.005961 -0.035757 -0.063947 0.086915 -0.019815 -0.018422
-0.068414 0.001450 0.042997 -0.015730 -0.059000 -0.077412 0.059714 -0.095576 0.001733 -0.102686
-0.061005 0.047304 -0.001548 0.022216 0.079598 -0.085629 0.000797 0.034763 -0.029074 -0.032449
0.011934 -0.085695 -0.015886 0.060796 -0.065314 -0.077563 -0.095695 -0.070640 -0.068244 0.063115
0.006749 -0.077955 -0.030242 -0.040625 0.045082 -0.034031 0.018674 0.017551 -0.100499 -0.075511
-0.059461 -0.051327 -0.038484 0.074435 -0.087635 0.085630 -0.029899 0.091325 -0.036495 -0.058724
-0.035026 -0.060069 -0.051765 0.062952 -0.121818 0.029654 -0.038387 0.041511 -0.084986 -0.092067
-0.051790 0.046779 0.050333 -0.050707 -0.104110 0.045613 -0.008953 0.005884 -0.060227 -0.112569
0.006147 0.038518 0.044224 0.061055 0.007746 -0.013994 -0.010301 -0.030359 -0.018900 -0.019630
-0.028229 -0.085015 0.044026 0.058342 -0.074002 -0.044715 0.024496 -0.071451 0.045332 -0.075075
-0.026599 -0.074647 0.056394 -0.053596 -0.042329 0.005096 0.047601 -0.085016 0.024826 0.057975
0.046080 0.021893 -0.081255 -0.092144 0.009613 -0.099731 0.046313 -0.122593 -0.006182 -0.045014
-0.066875 -0.018608 -0.069668 0.009822 -0.062476 0.026977 -0.035112 0.053038 0.048654 -0.043143
0.067360 -0.079836 -0.042380 0.057237 0.076928 -0.086208 0.063859 -0.024312 -0.035157 -0.023801
-0.042502 -0.020775 -0.071703 0.037236 0.052098 -0.051257 -0.080840 -0.074859 0.057063 0.063454
0.026105 -0.001661 -0.067044 -0.005309 0.034975 -0.046443 0.015838 -0.001132 0.025058 -0.064017
0.049698 0.063801 -0.073235 0.033914 -0.065772 0.037002 -0.027127 -0.035113 -0.012572 0.066080
-0.055169 0.063194 0.063817 0.062380 -0.010483 0.038401 -0.020921 0.030395 -0.068071 0.044712
0.012438 -0.002780 -0.071682 -0.035067 -0.019941 -0.000936 -0.014319 -0.095409 0.023603 -0.023891
-0.020969 0.052642 -0.050994 -0.055920 -0.043316 -0.010685 -0.056641 -0.026617 -0.018280 -0.038828
-0.095557 -0.050424 0.036916 -0.027361 0.003605 0.011035 -0.036460 -0.047630 -0.098473 -0.045717
0.097440 0.021511 -0.029113 -0.085102 -0.036221 -0.045581 -0.017238 0.054765 0.012249 -0.020868
0.047793 -0.062806 0.032131 -0.051198 -0.018131 0.031990 0.036293 0.022375 -0.007939 -0.046843
-0.093774 -0.101365 0.038150 0.031060 0.033888 0.046253 -0.009276 -0.111581 -0.057005 -0.032715
0.040149 -0.062783 0.016439 -0.056276 0.030513 -0.067874 -0.062307 -0.009978 -0.058535 0.070189
0.026679 -0.019396 -0.043236 -0.025968 -0.040957 -0.079311 -0.075409 0.031724 -0.037615 0.001899
-0.047809 -0.044535 -0.092205 -0.013135 -0.001643 -0.070780 -0.056873 -0.086913 0.004397 -0.093773
-0.083871 0.058385 -0.074259 -0.034485 0.023808 0.028287 0.057261 0.037082 -0.019190 -0.033605
0.011280 0.024357 -0.068703 0.038173 0.054659 -0.047569 -0.035902 -0.061107 0.055384 -0.043022
0.077617 0.053740 -0.052673 -0.033343 0.050726 -0.016518 0.028310 0.048324 -0.045815 0.006384
0.050593 -0.033709 -0.026392 0.046740 0.026269 -0.085823 0.063322 -0.036360 -0.070518 -0.061992
-0.062910 0.022944 0.073718 0.036695 0.014139 -0.067207 0.025970 -0.033983 -0.074632 0.026285
-0.131285 -0.021019 -0.100221 0.041043 0.021418 0.079690 -0.100072 0.079183 -0.141389 -0.102397
-0.009513 -0.060310 0.003780 -0.001462 -0.077138 -0.068080 -0.003340 -0.059048 -0.076048 -0.026936
0.006685 -0.033192 0.014911 0.075150 -0.173546 0.029041 -0.127171 0.078662 -0.041760 -0.084404
-0.022091 0.049553 -0.081875 0.053599 -0.077942 -0.012549 -0.002716 0.039038 0.013653 -0.024600
0.047047 0.047676 -0.018438 -0.042996 0.030453 0.047509 0.044146 -0.058588 -0.023565 0.036082
0.050299 -0.063966 -0.009049 0.035631 0.030780 -0.033505 -0.071371 0.049960 -0.097615 0.036225
0.051049 -0.113104 -0.065410 -0.049953 -0.065572 -0.060543 0.025603 -0.087707 0.099673 -0.117865
-0.007597 0.039513 -0.089582 0.023450 -0.010758 0.044760 -0.051120 -0.025581 -0.015721 0.030619
-0.030490 -0.042580 0.041824 0.033219 -0.077069 -0.004247 -0.047387 -0.071626 -0.047438 -0.001418
-0.016717 0.026829 -0.028214 0.027760 -0.095829 0.007917 -0.036805 -0.075973 -0.071787 0.056890
0.065413 -0.022425 -0.080549 0.024162 0.036293 0.026612 -0.197801 0.063997 -0.095376 -0.095359
-0.023685 -0.041576 0.055836 -0.063552 0.000674 -0.135024 -0.110845 0.035860 0.045099 0.059858
-0.031109 0.005325 -0.009650 -0.036055 -0.042163 -0.122190 0.053128 -0.028172 -0.103310 0.005070
-0.109033 0.038316 -0.054628 0.052554 0.010737 0.018477 -0.024430 0.087409 -0.039247 -0.061269
-0.003748 -0.015259 -0.064948 -0.048694 -0.000028 0.072814 -0.019442 0.067870 -0.058089 -0.051208
0.061398 -0.025133 -0.056209 -0.057564 -0.063516 -0.015710 0.001395 0.002729 -0.067070 -0.001192
0.038441 0.068423 -0.069789 -0.025230 -0.030794 0.007148 -0.060861 0.016307 0.034330 0.016384
-0.131023 -0.079667 -0.013540 0.027767 0.059793 -0.087879 -0.024520 0.047179 0.021329 -0.014659
-0.065928 -0.100413 0.009004 0.014357 -0.082873 0.014942 -0.006676 0.029253 0.018228 0.067957
0.005043 0.059361 -0.078444 -0.080844 0.012718 0.046622 -0.047694 0.029385 -0.078593 -0.015696
0.053174 -0.150051 -0.049171 -0.005145 -0.022435 0.019554 -0.069796 -0.039550 0.034614 -0.149513
-0.039066 -0.020392 0.023278 -0.060541 -0.041366 -0.053794 -0.014246 0.027803 -0.010629 -0.056286
0.011090 -0.066927 0.052684 -0.006024 0.040078 -0.009723 0.048099 -0.100283 0.003003 0.007146
-0.070918 0.065767 0.072245 -0.000690 -0.013059 -0.050973 -0.024664 -0.127147 0.008391 0.003536
-0.055128 0.044759 0.041400 0.048246 0.046206 -0.039188 -0.064935 -0.072325 -0.080522 0.034145
-0.149175 -0.021309 -0.020683 0.051250 -0.073484 -0.064484 -0.116233 -0.022850 -0.040113 0.024546
-0.060011 0.061400 0.012452 -0.000655 0.006669 -0.087143 -0.038159 -0.144197 -0.111601 0.018501
0.073701 0.001747 -0.009209 0.040051 -0.027485 0.029784 -0.034271 0.053887 0.028667 -0.083489
-0.059012 0.032849 -0.047146 -0.109312 0.065473 0.051660 -0.006618 0.038191 0.053635 -0.067812
-0.063369 0.055860 -0.028067 -0.029902 -0.070244 -0.068867 0.040926 -0.004779 -0.070351 -0.054495
0.065215 0.027145 -0.018233 0.026199 -0.128396 -0.063240 0.020536 -0.132589 -0.058601 -0.022843
-0.047572 -0.043585 0.011853 0.042012 0.023653 0.057889 -0.025455 -0.032860 -0.057816 -0.018617
0.003078 0.056417 -0.058353 -0.048611 -0.051329 -0.067593 0.058554 0.015347 0.060986 -0.061802
-0.090443 -0.053672 -0.074128 0.022824 -0.013200 -0.044682 -0.036161 -0.076487 0.000821 -0.037642
0.046519 0.008609 -0.062094 -0.070734 -0.032513 -0.031663 -0.014696 -0.104819 -0.003398 -0.040666
0.008600 0.045198 0.051448 -0.018716 -0.022948 -0.075052 -0.049861 -0.065301 -0.105334 -0.011384
0.038148 -0.079798 0.041163 0.012687 0.022432 0.025032 0.022668 -0.025669 -0.048394 0.023133
0.055728 0.028038 0.016227 -0.070262 -0.010479 -0.001946 0.008529 -0.022321 -0.028595 -0.054216
-0.033524 -0.069182 0.017526 0.050075 -0.068172 -0.056943 -0.081440 0.029785 -0.066395 0.068131
0.051051 0.033989 -0.070363 -0.043466 0.068827 0.009112 -0.007652 0.012551 -0.084118 0.011906
0.032517 -0.042849 -0.106534 0.031080 -0.015098 0.021618 -0.040113 -0.035077 -0.026833 -0.038339
-0.045726 0.068565 -0.025084 -0.084699 0.027321 -0.054423 0.017418 -0.118327 0.048435 0.042344
-0.017610 0.035444 -0.018813 0.065554 -0.030949 0.061320 0.069056 -0.090534 -0.080758 -0.031251
-0.031072 -0.134761 -0.002925 0.027342 -0.083027 0.039555 -0.040576 -0.015431 0.022925 0.014867
0.036942 0.007543 0.036643 -0.070941 0.024769 -0.035789 -0.033225 0.059849 -0.016874 -0.002070
-0.129919 0.013581 -0.030277 0.015776 0.009100 0.004639 0.042641 0.000316 0.033480 -0.023928
-0.103055 -0.008471 -0.038710 -0.042554 -0.013964 -0.083952 -0.081709 -0.005644 0.049897 0.073975
-0.008400 0.074042 -0.016131 -0.083908 -0.052430 -0.005264 -0.032352 -0.026794 -0.018764 -0.073838
0.035673 0.054077 -0.080687 -0.076859 -0.046976 -0.026205 0.055335 0.014331 -0.048781 -0.082932
0.054125 0.052128 0.013148 -0.033030 0.005270 -0.034268 -0.082373 0.042265 0.071551 -0.087652
-0.134134 -0.052655 0.043779 0.028970 -0.098317 0.014199 -0.065050 0.032010 0.055981 -0.070334
-0.113832 0.060444 -0.073907 0.063168 0.052437 -0.005589 -0.010414 0.092544 0.005010 0.038538
-0.078616 0.009326 0.016300 0.008261 0.060310 -0.009102 -0.052268 -0.041970 -0.026349 0.028849
-0.064763 0.054467 -0.010414 0.019288 0.028345 -0.093791 -0.013602 -0.034687 -0.042986 -0.073698
-0.097229 0.031879 -0.100450 0.040339 -0.034067 -0.013889 -0.053754 0.047106 -0.073829 -0.001614
-0.072195 -0.054383 -0.059293 -0.064487 -0.039633 0.050248 -0.043020 -0.094478 -0.023434 -0.008434
-0.006297 -0.048164 -0.089990 0.063043 -0.041251 -0.025017 0.046439 0.024090 -0.016625 -0.019381
0.058929 0.064995 -0.014364 -0.029441 0.012676 -0.057270 -0.057286 -0.049905 -0.110079 -0.082234
-0.065356 -0.043870 0.036677 -0.119423 -0.020969 -0.093275 -0.078261 0.072483 -0.055158 -0.034436
-0.022712 -0.030043 -0.068737 0.026264 0.014349 -0.003682 -0.067973 -0.078270 0.002658 -0.016365
0.055032 -0.053085 -0.076992 0.054931 -0.009838 -0.033594 0.041965 -0.013695 -0.006903 -0.101307
-0.081387 0.016212 0.035901 0.026934 0.039738 0.054155 0.023014 -0.003262 0.000142 0.058547
-0.066833 0.055553 0.038302 -0.007826 -0.037825 -0.090239 0.044589 0.055108 -0.048178 -0.082779
0.050524 -0.084551 -0.022738 -0.028118 0.056568 0.044364 0.022812 -0.076375 -0.061956 0.020947
-0.075486 0.001688 0.029252 0.031574 0.050633 -0.038766 -0.045149 0.056390 -0.013760 -0.045827
-0.082670 -0.061287 0.022098 0.003824 0.030022 -0.048287 0.057721 -0.053795 -0.010957 -0.010068
-0.076745 0.042622 -0.010390 0.059817 -0.047682 -0.003433 0.064281 0.053828 0.039864 -0.036384
-0.118286 0.067152 -0.055077 0.054908 -0.059116 0.025161 -0.151429 0.074912 0.053563 0.018296
0.036463 -0.046392 -0.088098 -0.018622 -0.060138 -0.026832 -0.071313 -0.076499 -0.054151 0.046279
-0.011033 -0.011992 0.005621 -0.024963 -0.057904 0.040851 -0.008582 -0.047548 0.005592 0.016456
-0.077334 0.055807 -0.011068 0.042227 0.019057 0.007440 -0.061598 -0.054328 0.009504 0.031077
0.003364 -0.057791 -0.038063 -0.016807 0.073099 0.011776 -0.007348 -0.008616 0.040439 0.053492
0.048347 -0.111451 -0.036415 0.032066 0.000565 0.066486 -0.034296 0.014484 0.056862 0.041727
-0.027448 0.036098 -0.051596 -0.070868 -0.090893 -0.048625 -0.064196 0.006942 -0.001933 0.029126
0.050722 -0.107378 -0.003167 -0.020232 -0.056457 -0.001431 -0.005451 0.020733 -0.027385 -0.045732
-0.054229 0.019067 0.008786 -0.052043 0.031172 -0.034033 0.015520 0.009226 -0.020613 0.050405
-0.057041 0.038993 -0.063450 0.058177 -0.038719 -0.084224 -0.091694 -0.033683 -0.054621 0.032874
0.041615 0.064738 0.050920 -0.085430 0.036885 0.065324 -0.111216 -0.016397 -0.071627 -0.101422
0.000608 0.014057 -0.049872 -0.077450 -0.069050 0.070677 0.036642 -0.049409 -0.058503 -0.005480
0.038422 -0.016546 -0.028335 -0.061764 -0.011716 0.015159 0.077617 -0.012735 -0.084384 0.018707
0.019359 0.010849 -0.076841 0.008946 0.029362 -0.024822 0.045515 -0.036433 -0.075805 -0.036741
-0.045056 -0.007872 0.036018 0.036319 0.042419 -0.091235 -0.092483 0.040913 -0.065895 -0.004380
0.066071 -0.010434 -0.040307 -0.037127 -0.042117 -0.040137 -0.049287 -0.028631 -0.078656 0.001109
0.006835 -0.057857 0.034826 -0.119244 0.041570 -0.048944 -0.093743 -0.044208 -0.081233 -0.051302
-0.061755 -0.065458 -0.021256 0.076533 0.009531 -0.042431 0.024543 0.038692 0.004332 -0.097856
-0.006386 0.003289 -0.001123 -0.100384 -0.018447 -0.049890 0.060999 -0.126239 -0.062468 -0.068335
0.027197 0.014368 -0.035979 -0.056100 -0.018312 -0.079401 -0.064420 0.091085 -0.021301 -0.008653
-0.109189 0.016542 -0.106754 0.049688 0.034366 -0.015906 -0.031202 -0.005905 -0.046912 -0.070948
-0.064883 -0.077288 0.037466 0.038708 0.044400 0.033481 -0.073894 0.019933 -0.002068 0.017968
0.034648 -0.070661 -0.011400 0.033481 -0.003830 -0.098510 0.000612 -0.026337 0.017282 -0.076919
-0.028306 -0.043059 -0.071492 0.003256 -0.005310 0.030646 -0.058065 -0.010213 -0.058245 -0.018747
-0.080944 -0.039381 -0.084679 -0.014769 0.025328 -0.085799 0.011919 -0.005314 -0.006822 -0.119180
0.015692 0.020216 -0.000488 -0.047402 -0.092104 -0.012221 -0.015921 -0.004183 0.087540 -0.026423
-0.051958 -0.094421 0.003033 -0.037278 -0.091267 -0.021766 0.057331 -0.114286 0.022819 0.060211
0.043535 -0.101689 -0.055535 -0.022128 -0.068527 -0.013895 0.026590 -0.048225 0.006912 0.004174
-0.058527 0.077175 0.015209 -0.020808 0.027215 -0.002985 -0.006792 0.029160 0.023176 -0.025484
-0.077370 0.016712 -0.067291 0.058895 -0.000306 -0.056943 -0.052892 0.020195 0.036464 0.012935
-0.099375 0.043533 -0.083757 0.051725 -0.034137 0.067283 0.041033 -0.073777 -0.062020 -0.039057
0.044487 -0.016680 0.039041 -0.074226 0.000458 0.025856 0.001189 0.008814 0.035686 0.013785
-0.002059 -0.023940 0.008334 -0.026024 0.018765 0.050781 -0.003193 -0.083629 0.042243 -0.033783
0.051550 0.016535 -0.047212 0.012282 0.001904 -0.026919 -0.053808 -0.032456 0.038922 -0.066028
-0.067810 -0.017584 -0.060127 -0.057669 0.005229 -0.001151 -0.087855 -0.100426 -0.021808 -0.013271
0.002104 0.052307 0.047514 -0.097364 -0.087008 -0.034001 -0.121154 0.009250 -0.103674 -0.097191
-0.028365 0.065540 0.080438 -0.006204 -0.131716 -0.068708 -0.120185 -0.091962 -0.029746 -0.070774
0.084861 -0.063560 -0.077552 -0.062029 -0.022856 -0.067688 -0.117101 -0.127358 -0.011838 0.059385
-0.020625 0.033924 -0.023970 -0.050900 0.011242 -0.064981 0.037322 -0.015270 -0.024096 -0.006463
-0.000360 0.034708 -0.038916 0.026093 -0.020027 -0.022846 0.011555 0.021771 -0.051589 -0.057655
-0.087605 0.036323 -0.031782 0.050052 -0.044550 -0.054246 -0.045518 -0.051519 0.056154 0.058797
-0.063621 0.045355 -0.080971 0.010877 0.055033 0.038110 -0.024017 0.033026 -0.039857 -0.062320
0.027962 -0.017909 -0.062828 0.068510 -0.026410 0.072147 -0.052517 0.013251 -0.014252 0.012671
-0.129796 0.059793 0.018189 -0.010862 -0.007207 0.000484 0.066051 0.072462 -0.091016 -0.075991
-0.061100 0.062141 0.051066 0.014962 -0.079488 -0.010548 -0.039017 0.055586 -0.022917 0.058121
0.005239 -0.073557 0.052516 -0.090029 -0.096453 0.014395 0.027065 -0.019334 -0.014134 0.057934
-0.012157 -0.061927 0.018899 0.010998 -0.083882 -0.113580 0.041888 0.079463 -0.091036 -0.018287
-0.022479 -0.030305 0.074082 0.031348 0.056048 -0.044570 0.007391 -0.112366 0.053498 0.056316
-0.021617 -0.085497 -0.041366 -0.001908 -0.040286 -0.004586 0.062583 -0.002961 -0.084224 0.030347
0.055503 -0.092375 0.016145 -0.007974 -0.122339 -0.031218 -0.124727 -0.068597 -0.101571 -0.003382
-0.062769 -0.044735 0.051485 -0.062912 -0.011908 -0.041232 -0.076527 -0.082720 0.005652 -0.010669
-0.027994 -0.050991 -0.017529 -0.032261 -0.047583 0.056992 -0.031740 -0.015661 -0.029168 -0.067380
0.014294 -0.026377 -0.076826 -0.081426 0.014373 0.025800 -0.039049 0.049871 -0.011030 -0.030746
-0.044052 -0.020985 0.071531 -0.086303 -0.014794 -0.083958 -0.031263 0.017329 -0.005672 -0.081171
-0.030994 0.050839 0.067514 -0.008781 0.008963 0.046579 0.028749 -0.071237 -0.035458 -0.030305
-0.113118 -0.090959 0.072496 -0.039820 -0.044160 -0.031484 -0.014631 -0.045129 -0.069505 -0.060515
-0.067259 0.046189 -0.016619 -0.066137 0.016989 -0.008114 -0.103453 0.078666 -0.032631 0.014946
-0.068077 -0.062326 -0.037830 -0.107154 -0.031001 0.080997 0.021188 0.065436 0.022121 -0.022708
-0.120015 -0.042120 -0.100567 -0.058306 -0.007831 -0.019760 0.010823 -0.027526 0.067102 -0.040578
-0.080843 -0.021617 -0.051506 -0.028640 0.052944 0.000149 -0.044717 -0.003562 -0.026681 -0.054214
-0.009973 -0.025266 -0.005818 0.038848 0.007194 -0.036179 0.072202 0.024786 0.008054 0.065147
-0.064487 -0.090302 0.038692 0.047835 -0.054079 -0.069227 -0.089162 -0.078337 -0.031158 -0.057265
-0.062256 -0.083944 0.002216 -0.065256 0.028428 -0.076940 -0.064252 -0.057659 0.011436 0.055870
0.035097 -0.002334 -0.031450 -0.011603 -0.013587 -0.055136 -0.035083 -0.002308 -0.060486 -0.053969
-0.048420 0.012819 -0.041964 -0.025504 -0.030742 -0.069747 0.101240 0.041846 -0.086449 -0.029755
-0.011288 0.032830 -0.008497 0.063324 -0.049288 0.021251 -0.047267 -0.070773 -0.055271 -0.038109
-0.095099 -0.036109 -0.009742 -0.067277 -0.083811 0.056486 0.041985 -0.041222 0.038045 -0.033918
-0.007700 -0.060197 -0.077980 0.036077 0.004559 -0.039010 0.090009 0.003982 -0.081247 -0.041916
-0.051578 0.025563 -0.073501 -0.071724 0.010003 0.079444 -0.016357 -0.060748 -0.076238 -0.066593
-0.030275 0.015249 -0.098931 0.015097 -0.030819 -0.082413 0.029682 0.017180 0.005807 0.039952
0.078473 -0.141943 -0.016433 0.057132 0.002049 -0.025202 -0.128436 0.016080 -0.059121 -0.055036
-0.001420 -0.023163 -0.023663 -0.111458 -0.007565 0.006705 -0.040696 0.037852 0.080417 -0.030154
-0.067072 -0.061082 -0.002944 -0.016307 -0.071827 0.028054 -0.032676 -0.031032 -0.069613 0.020516
0.059351 -0.114365 -0.090761 0.063177 0.010973 0.063967 -0.045679 0.000541 0.041599 -0.002158
0.082722 0.018940 0.008074 0.016504 -0.015901 -0.135666 -0.041352 -0.091471 -0.010882 0.054458
-0.083039 0.011997 -0.062901 -0.006920 0.018082 -0.025990 0.041229 -0.081730 -0.036148 0.034557
-0.116863 0.073194 -0.028601 -0.051116 0.001026 -0.070999 -0.111862 0.035698 -0.031828 0.040711
-0.000241 0.014888 -0.058369 -0.022125 -0.030569 0.036716 0.020089 -0.067435 -0.081773 -0.063071
-0.087996 -0.013973 -0.055668 -0.038591 -0.035676 -0.021439 0.034821 0.032761 0.010582 0.035451
0.048205 -0.044518 0.074947 0.002173 0.056539 -0.082633 -0.003048 0.006028 0.010190 -0.028941
-0.064513 -0.015300 -0.049352 0.029101 -0.039136 0.029221 0.009427 -0.050108 -0.074390 0.019553
-0.068757 -0.061568 -0.048477 -0.031193 -0.062353 0.022784 -0.090172 0.043508 0.032679 -0.111296
-0.082133 -0.006316 0.076825 -0.086781 -0.059230 -0.028602 -0.002743 -0.085295 0.031753 0.059619
-0.043469 -0.028666 0.030029 -0.018501 0.007192 0.018764 0.019608 -0.056197 0.007125 0.052935
0.051087 -0.060494 -0.057257 -0.026573 -0.025812 -0.063591 -0.040540 0.036432 0.042054 0.020407
0.017621 0.034967 -0.005040 0.029708 -0.062363 -0.049426 0.002864 -0.063367 -0.074724 0.024716
-0.081502 -0.011440 -0.051970 0.040222 -0.058843 -0.040660 -0.000844 -0.002261 -0.015860 0.012144
-0.077564 0.041236 -0.045340 -0.060970 0.044496 0.028690 -0.080732 -0.025398 0.017577 -0.042917
-0.066471 0.048713 0.026325 0.007816 -0.092114 -0.052820 -0.065517 0.001582 0.032380 0.051337
0.050495 -0.050911 -0.022133 -0.077328 -0.120622 -0.042932 0.041499 -0.011410 0.000726 -0.042468
-0.009250 0.044936 -0.043297 0.007076 0.065666 -0.022952 -0.073059 -0.015342 0.008598 0.006431
-0.005891 0.073392 0.006505 -0.119924 0.007083 -0.109269 0.034934 0.033762 0.054569 -0.064603
0.038450 -0.104614 -0.009307 -0.035840 -0.051527 -0.074200 -0.127832 -0.069466 -0.037322 -0.032706
-0.054207 -0.003556 -0.078860 -0.040104 -0.048946 0.065106 0.037150 -0.010662 -0.006916 0.046937
-0.053529 -0.001756 0.005182 -0.040785 -0.064105 -0.023557 -0.034862 -0.054540 -0.045282 -0.035370
-0.003867 0.036986 -0.117331 -0.079014 0.026167 -0.048400 -0.068396 -0.028889 0.075051 -0.047773
-0.037774 0.013172 0.066625 -0.080019 0.007449 -0.009431 0.006981 -0.101970 0.065135 -0.089714
0.030447 -0.046390 0.063189 0.015798 -0.035659 -0.015082 -0.073925 -0.048122 -0.052609 -0.070237
0.078819 -0.141771 -0.078308 0.020747 -0.060686 -0.093309 -0.105005 -0.072634 0.002200 0.042715
-0.014276 0.036731 0.015578 0.001835 -0.021922 0.030995 0.004595 -0.050726 -0.003243 0.021612
-0.058572 0.019456 -0.076196 -0.030601 -0.007522 0.063827 -0.029469 -0.046995 -0.070782 -0.003999
-0.058594 0.045003 0.035690 -0.040287 0.040190 -0.097385 0.037979 -0.024250 0.060340 0.033835
-0.072604 -0.037110 0.056787 0.077318 -0.096585 0.076355 0.007139 0.010754 0.025792 0.044544
0.071727 -0.041691 0.038759 0.066785 0.016784 -0.024571 -0.069046 -0.103668 -0.068116 0.037998
0.066977 -0.001612 -0.047635 -0.051528 0.010471 -0.010662 -0.027397 -0.056844 -0.093414 -0.046573
0.015599 -0.035396 -0.010928 -0.040056 -0.034550 -0.015803 0.056923 0.065305 0.041772 -0.006583
-0.066580 0.019747 -0.029222 -0.004225 0.033742 0.004695 0.026370 0.031688 -0.061476 -0.061635
0.042953 -0.048424 0.031632 -0.028586 -0.081574 -0.079400 0.057052 0.075418 -0.070126 -0.078641
-0.083879 -0.030850 -0.031909 -0.027912 -0.012524 0.023677 0.042712 0.009276 0.008160 -0.055456
-0.077887 0.014371 -0.071250 -0.076975 0.046933 -0.062520 0.011230 0.011501 -0.057401 -0.077942
-0.099470 0.022414 -0.033528 -0.063831 0.060514 0.041498 -0.074720 0.037901 0.008837 0.046970
-0.066858 -0.011908 -0.009373 -0.078748 0.009015 -0.004986 0.053497 0.011321 -0.076585 -0.044216
-0.118877 0.027249 -0.113062 -0.050396 -0.068116 -0.072473 -0.035179 -0.082718 0.026341 -0.088120
-0.041620 0.014583 -0.003141 -0.101935 -0.041475 -0.050898 0.005632 -0.064968 -0.019244 0.034311
0.031714 0.015235 -0.077589 -0.069972 -0.035417 0.011386 0.010430 -0.103872 -0.078764 0.029538
-0.060755 -0.128716 -0.090601 -0.059185 0.055857 0.105079 -0.020886 0.008736 0.000209 -0.090866
-0.003814 -0.100123 -0.028968 -0.066813 -0.045617 -0.032534 -0.050033 0.017083 0.011749 0.025068
-0.010909 -0.003472 -0.022297 0.010551 0.072933 0.083399 0.042395 0.007266 -0.031633 0.034347
-0.016803 0.024043 0.058000 -0.046783 -0.072122 -0.022697 0.032347 -0.033455 0.048038 -0.056360
-0.070520 0.001939 -0.020108 -0.023046 -0.040951 -0.104919 -0.026178 0.088742 0.040450 0.008431
0.013249 0.069523 -0.012411 -0.033809 -0.080797 -0.009203 0.041565 0.067994 0.053074 0.005107
0.046084 -0.006504 -0.054327 0.029458 0.015703 -0.064246 -0.014514 -0.096714 0.025998 -0.086569
0.019981 0.002288 -0.129549 0.069940 0.096648 -0.061379 -0.123452 -0.005524 -0.140359 -0.079785
0.013985 0.065278 0.053535 -0.012960 0.026544 0.045482 0.040695 -0.078299 -0.012095 0.044040
0.081727 -0.047861 0.000862 -0.062882 0.010694 -0.060321 -0.021195 0.053853 -0.050977 0.039108
-0.077792 -0.001147 -0.066743 -0.081049 -0.071191 0.077246 0.009737 -0.071729 0.013361 -0.001041
0.018447 -0.071210 -0.014383 -0.100395 -0.034290 -0.000656 -0.012187 -0.057750 0.044234 0.034819
0.114208 0.029862 -0.177591 -0.052686 -0.088817 0.042755 0.013991 0.061841 -0.017501 0.001881
-0.065430 -0.091749 -0.050752 0.031277 -0.050806 -0.104599 -0.128924 -0.008247 0.038981 0.054305
-0.011943 0.007670 0.061361 -0.085489 -0.084586 -0.055470 0.020027 -0.059794 0.042978 0.006297
0.083825 -0.006511 -0.071038 -0.031293 0.001165 -0.071108 -0.031263 0.031665 -0.059519 -0.022069
0.048567 -0.031107 -0.047343 -0.015185 0.075826 0.037162 0.042481 0.038468 -0.058952 -0.018071
0.094198 -0.004261 -0.011518 0.052763 -0.065943 0.024957 0.051855 -0.025103 -0.022283 -0.046855
-0.067459 -0.034820 0.001430 0.034518 0.054717 -0.033624 0.026018 0.055552 -0.054336 0.028914
-0.065239 0.007949 0.017750 -0.042003 -0.038996 0.091957 -0.078384 0.017720 -0.056087 -0.052159
-0.089952 -0.082278 -0.059338 -0.007731 -0.086165 -0.011727 -0.005760 -0.040436 -0.041457 0.026275
0.086153 -0.004408 -0.036376 -0.086763 0.008046 0.050602 0.040188 0.039153 -0.072072 0.008646
0.080312 -0.099713 -0.122936 -0.065097 0.102124 -0.041643 -0.061296 -0.051289 -0.035204 -0.069346
-0.051818 -0.017975 -0.076595 0.048072 -0.100030 -0.006586 -0.052548 0.064328 0.016356 0.020430
0.021611 0.045737 0.020499 0.043139 0.060736 -0.048644 0.060112 -0.032402 -0.080478 0.058217
-0.002442 -0.004818 0.019056 -0.007774 -0.000653 -0.025738 -0.006661 -0.181005 -0.070502 0.020704
0.006064 0.029561 0.014042 -0.070038 0.008119 -0.011272 -0.022239 -0.148945 0.020022 0.004554
-0.092806 0.060109 0.058488 0.031274 -0.000114 0.005162 0.048769 -0.086599 0.085743 -0.015861
0.016744 -0.090833 -0.053154 0.024146 -0.057593 -0.059806 0.038620 0.006812 -0.019152 -0.086528
-0.023270 0.035512 -0.017101 0.077507 -0.045926 -0.036784 0.029627 -0.085401 0.027177 -0.003611
-0.037264 -0.047898 0.047792 0.018689 -0.005148 -0.134413 -0.040641 -0.014428 0.004016 -0.016279
-0.090035 -0.035364 -0.027845 -0.082068 0.080247 0.025894 -0.048466 -0.029013 0.005928 0.006938
0.099347 -0.049280 -0.058778 -0.104337 -0.005325 -0.099789 0.010903 -0.029581 -0.128858 -0.102655
0.012143 0.019223 -0.050970 0.039173 -0.016830 0.042926 -0.040548 -0.011246 -0.012166 0.064704
0.017464 -0.025908 -0.103039 0.048038 -0.105455 -0.063036 -0.103751 0.096549 -0.102179 -0.030104
0.077153 -0.040094 -0.003897 0.056643 -0.001306 0.003656 0.057705 0.010745 0.053895 0.046494
-0.052893 -0.054520 -0.006307 0.036024 0.005919 -0.122823 -0.004912 -0.074615 -0.077643 0.003820
-0.077546 0.005159 0.073744 -0.034812 -0.026289 -0.096767 -0.018490 -0.096339 -0.094542 0.029044
-0.006117 -0.000930 0.011148 -0.070817 -0.047946 -0.031043 -0.119149 0.028508 -0.029806 0.002198
0.049768 0.007145 0.011885 -0.065268 0.017238 -0.034357 -0.137407 -0.107516 0.031490 -0.024329
-0.104750 0.053393 -0.066712 0.063281 -0.029762 -0.009029 -0.062647 0.076835 0.008197 0.040623
-0.051688 0.008108 -0.133923 -0.073754 0.003395 -0.070025 -0.123924 0.029093 0.025082 0.032211
-0.074408 0.071235 -0.087793 -0.036356 -0.021311 -0.066313 0.021720 -0.044077 0.069961 -0.022461
-0.111967 -0.063991 -0.003921 -0.039517 -0.088476 -0.002366 -0.129618 -0.103606 0.060229 -0.012925
0.042022 -0.007354 -0.012981 0.019326 -0.013837 -0.068417 -0.048601 0.054528 -0.043048 -0.037740
0.006862 0.081358 -0.092779 -0.050444 -0.064100 0.002104 -0.131462 -0.093740 -0.026436 -0.034899
-0.063595 -0.054403 0.001804 -0.052270 -0.090649 -0.051921 0.046321 -0.076618 0.057317 -0.089908
0.094338 0.000674 0.015769 -0.091497 -0.019015 -0.005941 -0.072172 0.033327 0.056090 -0.062714
0.053822 -0.099414 -0.052749 0.076370 -0.052069 -0.076117 0.000995 -0.022331 -0.061210 0.040563
-0.019408 -0.036964 -0.015781 -0.034784 -0.056245 0.063045 -0.042560 0.023246 -0.012936 -0.072939
-0.061288 0.019788 -0.015272 -0.031678 -0.052019 0.004180 -0.047467 -0.147105 0.089652 -0.025981
0.054665 0.052061 0.007603 -0.054011 -0.034246 0.071791 -0.018781 -0.067706 -0.053478 0.013920
-0.060075 -0.102173 -0.058069 0.070850 -0.043262 -0.029354 -0.068090 0.004398 -0.017454 -0.072245
-0.113584 -0.003266 0.033760 -0.021291 0.042571 0.057146 0.059182 -0.086902 -0.092938 0.008323
-0.026528 0.033143 0.066989 0.006117 0.053556 -0.119547 -0.032641 0.010490 -0.049632 0.032923
-0.060910 -0.030876 -0.096909 0.008867 -0.046708 -0.096301 -0.009660 0.027049 -0.034165 -0.063237
-0.076198 0.025668 0.057380 -0.122415 -0.054313 0.031217 0.076634 -0.127816 0.005602 -0.031997
-0.076482 0.041685 -0.078334 0.031128 -0.086242 0.021416 -0.065235 0.112351 0.006554 -0.003375
0.018359 0.006454 0.056186 -0.039829 -0.049854 -0.017135 0.056453 -0.047978 0.043129 0.011133
0.005107 -0.047697 0.053909 -0.093676 -0.063374 -0.060739 -0.057503 -0.021698 0.027793 -0.059348
-0.077995 0.077729 0.052376 -0.130341 0.074568 -0.052209 -0.051006 -0.075763 0.007170 -0.086022
0.081471 -0.038788 0.010975 -0.059690 -0.093350 0.029522 -0.055469 -0.023041 0.014165 -0.037578
-0.005052 -0.033418 -0.054545 0.033843 -0.016102 -0.039239 0.040259 0.024561 -0.068079 0.003827
-0.009296 -0.046429 -0.054843 -0.023953 -0.067822 -0.071901 -0.093820 -0.037087 0.029201 -0.064502
-0.024745 0.034816 0.039965 0.025193 0.015441 -0.063886 0.039917 -0.059781 0.037464 0.027173
0.066037 0.021206 -0.077370 0.076495 -0.069090 -0.022795 -0.081223 -0.012166 0.022232 0.016763
-0.082712 0.041878 -0.030345 -0.015636 0.027378 -0.086562 -0.037072 -0.030214 0.005273 0.068089
-0.038227 -0.009699 0.058026 0.018548 0.046423 -0.062606 0.041042 -0.036701 -0.059033 -0.059382
-0.049750 -0.025077 -0.023340 0.034965 -0.041554 0.047435 0.014823 0.077110 -0.027891 0.003704
-0.033687 -0.029799 0.050877 0.011677 -0.070063 -0.036342 0.001653 -0.098160 0.040020 0.039523
0.064290 -0.030878 -0.074194 0.055196 -0.072354 -0.034975 -0.120551 -0.078866 0.002279 -0.033561
-0.029726 -0.021662 0.071862 -0.082368 0.048862 0.065656 -0.022967 -0.017380 0.049352 0.028331
-0.041472 -0.006659 -0.114132 0.069685 0.041448 0.055720 0.046148 0.006841 -0.030863 0.070168
-0.096076 -0.003162 -0.085127 -0.006079 0.032618 -0.019344 -0.123723 0.051115 -0.022242 -0.105933
-0.094448 -0.051393 -0.050543 -0.085553 0.071250 -0.064806 0.003577 -0.056623 0.007623 -0.097787
-0.090964 0.069082 0.084572 0.059431 -0.063265 -0.022221 0.033375 -0.029852 -0.051555 0.055649
-0.013139 0.054738 0.025527 -0.073607 -0.024495 0.064078 -0.080837 -0.000514 -0.074839 -0.088591
-0.111679 0.041957 -0.089804 -0.005134 0.036069 0.044944 0.009371 0.052817 0.048143 -0.057193
-0.066782 0.061471 0.068441 -0.072155 0.022513 -0.062078 -0.019221 -0.008639 -0.023856 0.014781
0.066350 -0.099312 0.047068 -0.029329 -0.012806 -0.032895 0.053154 -0.149359 -0.055068 -0.134859
-0.152097 -0.018919 -0.016592 0.040124 -0.012982 0.010543 -0.066602 -0.088445 -0.060051 -0.036026
-0.050149 -0.000430 -0.030792 -0.052842 0.066912 -0.027411 0.012332 -0.047761 -0.077483 -0.044427
-0.068072 -0.070014 0.039643 0.023398 -0.019109 -0.052404 -0.076003 0.089432 -0.080247 -0.037315
0.036142 -0.000848 -0.047542 0.080642 0.054204 0.060323 -0.076852 0.069893 0.024587 -0.102027
0.020387 0.043356 -0.015494 -0.060252 -0.036638 0.048813 0.055862 -0.146417 0.032146 0.040771
-0.100169 0.060723 -0.005132 0.015363 -0.039675 -0.066140 0.021418 0.010827 0.059014 -0.076584
0.071857 0.044744 0.012197 -0.006284 -0.049744 -0.037579 0.023903 0.048561 -0.105678 -0.031721
0.029910 -0.012676 0.048279 0.043621 0.001460 -0.060311 0.028433 -0.092477 -0.045831 0.019761
-0.063429 -0.099451 -0.062054 0.000025 -0.066399 -0.014565 0.010591 -0.068328 -0.059028 -0.040878
-0.006416 -0.027132 0.014292 -0.031716 0.035986 -0.051833 -0.027705 -0.012102 -0.076778 -0.014611
-0.092002 0.000197 -0.024549 -0.020397 0.042919 -0.089106 -0.001253 -0.042378 -0.079851 -0.033895
-0.057041 -0.071546 -0.078382 -0.030349 0.035398 -0.068396 0.021281 -0.046320 -0.069373 -0.019814
-0.052891 -0.006319 0.032958 -0.023618 0.040971 0.002257 0.022450 -0.091616 0.035897 -0.059539
0.029302 -0.060103 -0.081576 -0.063347 -0.062544 -0.071770 -0.056573 -0.036106 -0.078469 0.063833
-0.006016 0.063617 -0.092995 0.083404 -0.065359 -0.081425 -0.005596 0.034772 0.018090 0.052732
0.048693 -0.007479 0.020664 0.011906 0.025046 0.086942 -0.034025 -0.034945 -0.087194 -0.038804
0.097396 -0.088341 -0.027337 -0.026553 -0.122764 -0.076655 -0.126864 -0.027783 -0.018634 0.023839
0.045242 -0.071965 -0.022418 0.050319 0.057759 -0.006765 0.022189 -0.002852 -0.062073 0.052995
-0.033552 -0.085351 0.025263 -0.004878 -0.075227 -0.030155 0.000350 -0.012346 -0.047153 0.023039
0.013628 0.046485 0.062299 -0.046071 0.055702 -0.014839 0.040939 -0.052657 0.043069 -0.045175
-0.104270 0.032150 -0.057838 -0.040338 0.033904 -0.121885 0.038930 -0.070825 0.006610 -0.062541
0.024078 -0.051049 -0.054608 -0.096220 0.037756 0.038564 0.031069 0.007362 -0.092280 -0.040968
-0.082024 0.005649 -0.029421 0.005329 0.047721 0.041084 0.015735 0.026842 -0.070041 -0.032545
-0.033286 -0.080450 -0.025596 0.074051 -0.097478 -0.050778 0.019228 0.031050 0.020382 0.039403
0.028263 0.030365 0.018572 -0.086651 -0.033425 -0.070523 0.025877 0.025436 -0.054381 -0.049288
-0.114587 0.014453 -0.090965 -0.056084 0.019384 -0.051244 -0.089383 0.002598 0.032768 -0.123048
-0.029781 0.011124 -0.053040 0.077631 0.064106 -0.014822 -0.000362 -0.089888 -0.079194 -0.033957
-0.101545 0.004701 0.031597 0.061204 -0.001785 -0.026376 -0.097906 0.026364 -0.103119 -0.034350
0.047602 0.008226 -0.055943 -0.090009 0.052535 -0.055650 -0.092441 -0.083642 -0.024442 -0.026657
-0.075309 -0.023540 -0.009307 0.065690 -0.073067 -0.063480 -0.061851 -0.042025 -0.049411 0.015117
-0.061415 0.055656 -0.076922 -0.073123 -0.053086 -0.045572 -0.114831 0.059241 0.037694 -0.015976
0.048091 -0.167372 -0.066130 -0.059409 -0.049818 0.006323 0.034419 -0.044363 0.039901 -0.041837
-0.048338 -0.047865 -0.035539 -0.026274 -0.042518 0.060681 0.006139 -0.038363 -0.008256 0.023718
-0.022243 -0.039761 0.068114 -0.023929 -0.020268 -0.013939 0.021027 0.109874 -0.082872 -0.102246
0.059313 0.052184 0.032571 -0.044829 0.054745 -0.051504 0.005992 -0.022112 -0.038533 -0.099876
-0.078572 0.060037 0.007791 -0.104928 -0.035558 0.007143 -0.020994 -0.060784 -0.078068 -0.031535
-0.062516 0.053262 -0.014641 -0.001228 0.019878 -0.050941 -0.056428 -0.105226 0.068835 0.043841
0.029935 0.059676 -0.082248 0.078048 0.057564 -0.058862 0.059629 -0.016559 0.041126 0.035424
-0.054620 0.012399 -0.011770 -0.005818 -0.040112 0.029931 0.037301 0.020102 0.001404 0.050834
-0.065983 0.026965 -0.043382 -0.001029 0.058591 0.030815 0.010166 0.011919 -0.035488 -0.035400
-0.054645 -0.077408 0.042837 -0.045964 -0.082544 0.034077 -0.008243 -0.033327 0.039178 0.013375
-0.059295 0.042028 0.042470 -0.042442 -0.013173 0.058165 0.026176 -0.012522 -0.032271 0.002862
0.031753 -0.008976 -0.050018 -0.060794 -0.032860 0.021805 0.060180 0.011907 0.077609 0.071171
0.048420 0.008381 0.029696 0.000908 0.026718 -0.041418 -0.011994 -0.131857 -0.096316 0.039096
0.054981 -0.068713 0.033063 0.050585 -0.035987 -0.041314 -0.077341 -0.068016 -0.084349 -0.007977
-0.038718 0.022756 -0.058862 -0.096330 0.054021 -0.041174 -0.083718 -0.069011 -0.013759 0.030872
-0.042659 0.020850 0.006024 -0.038532 0.012509 0.007535 -0.090064 -0.080836 0.017600 -0.019903
0.040063 0.053365 -0.036325 -0.021804 -0.041235 -0.029756 -0.047701 -0.036721 -0.075372 0.049031
0.047368 -0.061501 0.002901 0.013009 -0.029743 0.051585 -0.003266 -0.108519 0.026031 -0.054624
-0.043995 0.042960 0.054095 -0.021555 0.038868 0.000873 0.043133 -0.075658 0.016675 0.048196
-0.120465 -0.004470 0.043183 -0.007166 -0.041792 -0.067760 -0.119631 -0.082545 0.017500 0.079769
-0.030665 -0.107666 -0.115992 -0.038967 -0.068373 -0.040833 0.017991 -0.035804 -0.060491 -0.090525
-0.005181 -0.006647 0.015541 -0.119339 0.036543 0.049762 0.060062 0.052002 -0.027032 -0.043959
0.009938 0.006445 -0.013133 0.044415 -0.047869 0.001385 0.048947 0.033304 0.010759 -0.040721
-0.040411 -0.027826 -0.086477 -0.068127 0.036620 0.037782 -0.044562 -0.047260 0.031311 0.052168
-0.033875 0.071911 -0.158328 0.004881 -0.052772 0.021370 -0.144160 0.066522 0.017716 -0.003443
-0.016258 -0.060385 -0.004238 0.033079 0.000007 -0.037676 -0.140267 0.026119 -0.042869 0.039003
0.065725 -0.039405 -0.119100 0.047217 -0.067839 0.029752 -0.007078 0.067367 -0.032832 0.005752
-0.046468 -0.016044 -0.010898 -0.044790 0.005427 0.095643 0.015053 0.066440 -0.017692 -0.078917
-0.067491 -0.060658 0.010172 -0.014512 0.026794 0.034860 0.018458 0.014010 -0.007962 -0.049219
-0.090629 -0.064615 -0.029902 -0.012238 0.043836 -0.071643 -0.014992 -0.022460 -0.018996 0.009373
-0.031698 0.061737 -0.003516 -0.074544 -0.036667 0.080507 0.022063 -0.036177 0.065343 0.024062
-0.148275 0.037581 0.073177 -0.041132 -0.010273 -0.048844 -0.081051 0.056555 -0.088742 -0.058916
-0.006613 -0.066336 -0.044818 0.044678 -0.003010 -0.035790 -0.039864 -0.074938 0.050914 0.085246
0.054853 0.011852 -0.102625 -0.018405 -0.098047 -0.000367 0.045112 -0.030386 -0.143634 -0.104443
-0.058093 -0.040114 0.008784 -0.003766 -0.064687 0.023739 0.051545 0.025760 -0.026678 0.054188
-0.097847 0.027295 -0.033744 -0.004202 0.049539 -0.015106 0.055040 0.036798 -0.034686 -0.089642
-0.125836 -0.060827 -0.056509 -0.068439 0.056764 0.012842 -0.099357 -0.004688 0.048416 -0.066369
0.019810 -0.008579 -0.098139 -0.097591 0.006613 0.041422 -0.052537 -0.017112 -0.092489 0.037516
-0.119045 0.038973 -0.064637 -0.019620 -0.054534 -0.074742 -0.002745 0.032384 0.013409 0.015622
0.018877 0.025260 -0.054155 -0.054879 -0.091351 -0.058399 -0.015207 0.004069 0.073835 -0.024519
0.019979 0.066744 -0.108297 -0.005933 -0.051553 0.014852 -0.036263 0.086856 -0.106243 0.013424
-0.036766 -0.042128 -0.037846 -0.042784 0.135044 -0.065267 -0.024749 0.017691 -0.098601 -0.014314
0.057408 0.030445 -0.054524 0.010843 -0.066597 -0.044349 -0.068671 -0.078491 -0.067602 0.039108
-0.088366 0.021510 -0.063708 0.019952 -0.040416 0.020518 0.063766 -0.073122 -0.024784 -0.044850
0.025788 -0.087990 -0.053774 0.044174 0.039994 0.070979 -0.070193 -0.019214 0.018415 -0.071874
-0.064567 0.015541 -0.038453 -0.088082 0.060570 0.045324 0.007674 -0.083205 0.006833 0.023144
-0.024074 -0.006204 0.071688 -0.118813 0.035728 -0.066319 -0.030823 -0.100391 -0.133983 -0.090087
-0.028375 0.036261 -0.008519 -0.037213 0.030822 0.047130 -0.055748 -0.077413 -0.019435 -0.025084
-0.149960 0.000977 -0.121129 0.060694 -0.091827 0.043769 -0.147011 -0.002839 -0.009625 0.053345
0.048461 -0.056488 -0.058194 0.061700 0.030077 0.002428 -0.032530 0.016114 0.035681 0.032009
-0.112076 -0.022584 -0.026145 -0.032980 0.045066 -0.015177 -0.038255 -0.078908 -0.129299 -0.127635
-0.090031 -0.044364 0.034950 -0.072553 -0.010321 -0.067883 0.027725 0.009446 0.070042 0.007947
0.056330 -0.035004 -0.005177 0.002275 0.033219 -0.046326 -0.084111 0.001365 -0.002118 0.027745
0.058302 -0.015690 0.022587 -0.008476 -0.103309 -0.045522 -0.049175 0.031533 -0.067556 -0.050283
0.038143 -0.018390 -0.032292 -0.106379 0.040435 0.041755 -0.088871 0.009704 -0.091405 -0.052752
0.089403 -0.082139 -0.130111 -0.068113 -0.033622 0.059652 -0.063603 -0.049081 -0.050482 0.012037
-0.072363 0.005452 0.019433 0.030090 -0.050330 -0.024123 0.036852 0.021193 -0.029199 -0.030829
-0.016366 -0.078121 -0.026560 0.029647 0.072672 0.061589 0.057984 -0.068750 -0.064316 -0.066463
0.047881 -0.044180 0.045865 0.012522 -0.091609 0.005577 0.071642 -0.034550 0.004647 -0.003714
0.001157 -0.079678 0.078135 0.061405 -0.079544 0.057889 -0.007819 -0.026963 -0.069239 0.044591
-0.076999 -0.025644 -0.015973 -0.030082 0.070574 0.036449 -0.037770 -0.066542 -0.081577 -0.065092
0.041201 0.032611 -0.116089 -0.006119 -0.067030 0.033499 0.010353 0.016386 -0.022793 0.062605
-0.061914 -0.003121 0.030463 0.049368 0.047813 -0.087087 -0.011048 -0.019995 -0.063961 -0.026134
-0.036176 -0.112114 -0.106726 -0.022931 -0.051487 0.083492 -0.085590 0.051673 0.017734 -0.026203
-0.137455 0.031975 0.018601 -0.002570 -0.027509 -0.076598 0.019589 0.023129 -0.049157 0.035760
-0.009262 0.037336 -0.022127 0.068760 -0.015399 0.023723 -0.035292 0.047124 -0.099145 -0.073493
-0.007901 -0.093806 0.050594 -0.008567 0.021144 0.065781 0.067801 0.028393 0.040393 -0.010059
0.095283 0.022835 -0.092870 0.002940 -0.066423 0.063058 -0.123395 -0.127701 -0.050234 -0.058367
-0.045243 -0.028733 0.077391 -0.070025 -0.076963 0.010356 -0.088421 0.006579 -0.071582 -0.093431
-0.033714 -0.012241 0.005186 -0.027663 -0.088490 -0.026361 -0.082614 0.013642 -0.049324 -0.031472
0.025969 -0.071043 -0.084095 0.043690 -0.056303 -0.017088 0.041929 0.017785 -0.010373 -0.058434
-0.004550 -0.009696 0.002758 0.015383 0.000383 -0.050909 -0.002982 -0.115277 -0.131666 -0.102324
-0.116586 -0.000900 -0.020105 0.024283 -0.016712 0.040916 0.006224 -0.043559 0.014972 -0.035921
-0.042109 -0.050510 0.027832 0.063702 0.052809 0.045014 -0.121862 -0.004240 -0.046923 0.022813
-0.103952 -0.045281 -0.040890 0.064192 -0.030718 -0.041286 0.051720 0.011430 0.043317 -0.073932
0.052068 -0.173818 -0.113563 -0.038403 -0.061860 0.027090 -0.074414 0.044448 0.020934 -0.054766
-0.013251 -0.057908 0.019151 0.083248 -0.003901 0.001340 -0.050510 0.079955 -0.097596 0.012641
-0.089953 0.020588 -0.061661 0.002266 0.071426 -0.069948 0.047072 -0.083489 0.016327 0.017094
-0.070558 0.018704 -0.030203 0.033679 -0.018073 0.030590 -0.024690 -0.053024 -0.078664 -0.021408
-0.054220 -0.009514 -0.085712 0.045874 -0.000239 -0.010673 -0.131981 -0.014774 0.049200 -0.002526
-0.011192 -0.063653 0.043043 -0.048882 -0.083299 -0.055914 0.007012 0.016309 0.082639 -0.059832
-0.040575 -0.000164 0.014539 -0.046418 -0.001826 0.006806 -0.088032 0.029210 0.010459 0.001157
-0.038717 0.018621 -0.080896 -0.066183 0.025601 -0.048800 0.046435 0.086740 -0.000684 -0.059046
-0.047188 0.026644 -0.003360 0.061703 -0.066745 0.042610 -0.049125 -0.081229 0.006617 -0.043862
-0.050509 0.071937 -0.029554 -0.107299 0.006110 0.032191 -0.014192 -0.000610 0.080313 -0.008689
-0.065709 -0.139705 -0.136670 -0.014379 -0.003109 0.025905 0.058342 0.000633 -0.078224 -0.118818
-0.027215 -0.063846 0.042590 0.040006 0.054675 -0.039292 -0.026746 -0.029963 0.057042 -0.063979
-0.111249 0.019181 -0.079739 -0.056660 -0.022732 -0.089938 -0.001260 0.091259 -0.035272 0.038185
-0.090133 -0.043200 -0.059824 -0.012168 -0.056946 -0.003879 0.047127 -0.077921 -0.012695 0.064617
0.012941 0.004965 -0.007446 -0.043480 -0.021633 0.037559 0.060258 -0.059099 -0.092938 0.010842
-0.031436 -0.028271 -0.093221 -0.085005 0.041487 0.027195 -0.050879 0.001609 0.026379 -0.071318
-0.016537 0.024658 -0.001847 -0.006666 -0.068555 -0.027969 -0.041882 -0.067830 0.008943 -0.052968
0.047470 0.030100 -0.033917 0.053961 -0.104103 -0.048848 0.064676 -0.080661 -0.035640 -0.004727
-0.087498 0.042154 -0.063423 -0.086327 -0.052040 -0.000069 -0.113904 -0.067645 -0.068579 -0.090502
-0.022182 -0.032568 -0.071788 -0.069496 0.087526 0.019337 -0.076055 0.005699 -0.036792 -0.077114
-0.005504 0.026153 -0.017995 -0.025936 -0.032810 -0.065888 -0.006851 -0.082086 0.055708 0.018940
-0.036766 0.007325 -0.092798 -0.085693 -0.073498 -0.099583 -0.100962 -0.022750 -0.003538 0.021820
-0.082670 0.064023 -0.046379 0.071516 -0.080925 0.021005 -0.090548 -0.068161 0.012635 0.071339
-0.017228 -0.003440 0.015415 -0.058886 0.014630 0.028262 -0.040810 -0.076376 -0.125674 -0.122188
-0.069898 0.047465 -0.078137 -0.015849 -0.004541 -0.008033 -0.002083 0.028254 -0.056509 -0.017980
-0.070135 0.055429 -0.035197 -0.131672 0.060906 -0.050689 -0.037888 0.054688 0.026302 -0.026209
-0.052631 -0.047433 0.046388 -0.072516 -0.083957 -0.049575 -0.013615 0.056113 -0.034052 0.049865
-0.073257 0.041940 0.010911 -0.079916 -0.020798 -0.072300 0.069037 -0.049258 -0.057243 0.011734
-0.076538 -0.066490 0.061992 0.022804 -0.040078 0.041609 0.064393 -0.036837 0.036415 0.034186
-0.112046 0.048575 0.019915 0.051931 0.055484 0.013797 -0.064686 -0.070600 -0.064333 -0.057108
-0.062220 -0.007365 0.027157 -0.018083 -0.069897 0.001299 -0.076408 0.065221 -0.028810 -0.118893
-0.026789 -0.017368 -0.066857 -0.093067 0.046548 0.055041 0.068098 -0.020702 -0.048622 -0.085769
-0.021697 -0.069744 -0.047795 -0.037567 -0.062197 0.050634 -0.102274 0.015368 0.057126 -0.107911
0.041560 0.032956 0.026253 -0.042030 -0.048716 0.002331 -0.015140 0.074249 0.057203 -0.066510
0.028306 -0.106792 -0.024561 -0.103763 -0.075486 -0.036290 -0.049285 -0.017363 0.029363 -0.145105
-0.063914 0.036574 -0.029692 -0.040247 0.026612 -0.123655 -0.037506 0.078676 -0.024817 -0.068242
-0.077374 -0.002370 -0.013609 0.056923 0.032102 0.050806 0.061556 0.004134 -0.056864 -0.013957
-0.035719 -0.005322 -0.056496 -0.045765 0.048335 -0.022079 0.067056 0.044787 -0.067941 -0.092126
-0.069858 -0.006307 0.026324 0.002404 -0.035672 -0.077658 -0.055869 -0.143544 0.038310 -0.088345
-0.004482 -0.044635 -0.008598 -0.016873 -0.007568 -0.031765 0.045774 0.006580 0.011493 0.034525
-0.061974 -0.003376 0.064781 -0.026385 -0.050473 0.047305 -0.012465 0.018003 0.015041 0.051872
-0.035557 0.056616 -0.023875 -0.007059 0.012132 0.056606 -0.062311 0.082300 0.031684 -0.009621
-0.077914 -0.066186 -0.023796 0.009537 -0.044139 -0.079693 -0.039860 -0.029295 0.042555 0.042539
-0.106358 0.014665 -0.117586 -0.133061 0.054149 -0.029935 -0.047730 -0.006030 -0.046661 -0.078399
-0.043567 -0.036694 0.064238 0.023228 -0.045378 0.017975 -0.079245 -0.097897 -0.022901 -0.053516
0.082205 -0.006811 -0.074359 -0.088900 -0.051660 -0.086160 -0.023869 0.053163 0.025233 -0.097286
-0.036635 0.002854 0.058886 -0.059526 0.051768 -0.036506 0.053356 0.013127 -0.039294 0.047824
0.026179 -0.032423 -0.010930 0.017091 -0.058398 0.054501 0.030723 -0.046983 -0.042951 -0.034625
-0.021323 -0.037906 0.009935 0.056111 -0.014398 0.014409 0.003059 -0.012850 -0.038931 0.065764
0.021646 -0.010269 -0.076621 -0.011546 0.015034 -0.073365 0.025512 -0.016989 0.000152 -0.040788
0.015941 0.033791 0.034039 0.035240 -0.061247 0.058987 -0.048425 -0.048338 0.048540 0.026440
-0.060647 0.023016 -0.039317 0.042526 -0.069527 -0.008978 -0.069954 -0.034488 -0.018031 -0.027745
-0.012840 0.030995 -0.074417 0.031256 0.069392 0.004007 0.002016 0.054677 0.024201 0.063698
0.036081 -0.083071 0.023046 0.098132 0.009590 -0.037186 0.006879 -0.060455 -0.032987 -0.000466
-0.055416 0.028908 -0.048939 -0.004005 -0.060538 0.056629 0.023982 0.056207 0.010372 -0.030967
0.003972 -0.015566 0.027660 0.084049 0.023516 -0.017835 -0.002327 -0.007576 -0.064236 0.011521
-0.012141 0.044344 0.069107 -0.057875 -0.042801 -0.052492 -0.007781 -0.022188 0.004471 0.039512
-0.021179 0.062131 0.017609 -0.109086 0.069189 0.022685 -0.024052 -0.165144 -0.063902 0.001489
-0.076630 -0.042745 0.043013 -0.070660 -0.009156 0.017520 0.015150 -0.007104 -0.080426 -0.006163
-0.139336 0.059977 0.044663 0.047523 0.054154 -0.074801 -0.134220 -0.066994 -0.003139 0.005004
0.014796 0.063330 -0.087214 -0.079782 0.033933 -0.101518 0.013790 -0.018099 0.079299 0.048595
-0.016900 -0.004381 -0.004195 0.059099 0.062724 0.054526 -0.031015 0.046751 -0.060757 -0.062949
0.034792 -0.022392 0.010577 0.042746 0.064351 -0.065994 -0.062470 0.002662 -0.002742 -0.001067
0.003736 0.035316 -0.030554 -0.085733 -0.049308 0.088403 -0.037513 -0.015448 0.023065 0.003578
0.019031 0.055701 -0.080089 -0.067246 0.038887 -0.055039 0.012115 -0.026923 -0.045942 -0.081270
-0.047448 -0.049557 0.037721 0.032081 -0.035230 -0.010047 -0.064258 -0.020325 -0.013377 0.041350
0.071325 -0.017270 -0.043703 0.044102 -0.081416 -0.070493 -0.046636 -0.092895 -0.036030 0.035318
-0.054772 0.038261 -0.109519 0.036568 0.076272 0.064623 -0.074335 0.067992 -0.112212 -0.088796
-0.032520 0.050256 0.012289 0.062483 -0.007343 0.068331 0.032888 0.045472 -0.045747 -0.027912
-0.115125 0.068334 -0.068997 0.035944 0.059334 -0.060021 -0.082895 0.064169 -0.093154 0.011487
0.039004 -0.021743 0.044527 -0.030608 -0.098147 0.045169 0.046034 -0.057191 -0.040776 0.005344
0.026042 -0.027079 -0.013795 -0.074523 -0.050212 0.010821 -0.051981 -0.024148 0.001562 -0.060615
-0.059182 0.074867 -0.029483 -0.049579 -0.143650 -0.101406 -0.046229 0.026047 -0.039066 -0.132297
0.054819 -0.140038 0.017258 0.005174 0.006641 0.035691 -0.093914 -0.048352 0.038529 0.028433
-0.132629 -0.000924 0.046738 0.030526 0.002869 0.006106 -0.079584 -0.006947 -0.016917 0.041480
-0.079221 -0.041365 0.035316 0.059067 -0.039332 -0.082973 -0.009589 -0.072714 -0.069454 0.050773
0.001382 -0.069779 0.011200 0.041571 0.036912 -0.101139 -0.056664 -0.033614 -0.101520 0.040814
-0.017602 0.015878 0.040608 0.028420 -0.021144 0.039025 -0.010547 -0.092593 0.053224 -0.045362
-0.079671 -0.034468 0.017391 -0.079189 0.022316 0.026670 -0.064532 0.024572 -0.071675 -0.021290
-0.034356 -0.045476 0.065001 0.003469 -0.009540 -0.034021 -0.039370 -0.064295 0.032731 -0.069548
-0.042264 0.018122 0.052633 0.050482 -0.061152 0.027779 0.059350 -0.047735 -0.075970 0.068564
-0.088550 -0.060483 0.026132 -0.037547 -0.002322 0.011360 -0.072632 -0.053546 0.047165 -0.023108
-0.039491 0.032396 -0.103024 0.021242 0.052556 -0.000268 -0.048021 0.034331 0.037905 0.038956
-0.046149 -0.055064 -0.053045 -0.018227 -0.012344 0.032733 -0.051597 0.054523 -0.060510 0.006951
0.021829 -0.010530 0.068383 0.056108 -0.050425 0.011243 -0.056549 0.024080 -0.002526 -0.074043
-0.029436 -0.002518 -0.092979 -0.027456 0.053543 -0.113041 -0.050033 0.048637 -0.043934 -0.083903
0.025320 0.006043 -0.057314 0.037787 0.036964 -0.018141 0.001851 0.037207 -0.081495 -0.052572
0.026361 -0.026094 0.038433 -0.060305 0.052978 -0.012435 0.050306 -0.013381 0.043756 -0.044275
0.052717 -0.041134 0.009515 0.061452 0.033094 -0.084954 -0.051007 -0.024987 -0.093345 -0.010382
0.051905 -0.076148 -0.062158 -0.011739 -0.059604 -0.037820 0.030348 -0.027314 0.081189 -0.131263
0.009007 -0.048215 0.072065 0.061882 -0.011333 -0.056697 -0.110209 -0.045123 0.005519 -0.050640
0.063108 -0.024787 -0.031440 -0.033176 -0.037752 -0.066062 0.037292 0.017037 0.002812 -0.010168
-0.090146 0.020723 -0.083263 -0.015847 -0.079236 0.021223 -0.031173 0.041867 0.049668 -0.007692
0.029004 0.029525 -0.033498 -0.083929 0.025745 0.014814 0.060337 0.017681 -0.047740 -0.122872
0.000878 -0.058131 -0.025220 -0.091757 -0.079898 -0.018766 0.042753 0.015980 0.044560 -0.043956
-0.004966 -0.008984 -0.042006 0.068543 -0.080384 -0.102871 -0.149215 -0.115123 -0.087477 0.012291
-0.111209 -0.025614 -0.056043 -0.066888 -0.035085 -0.020210 -0.004625 -0.056173 -0.103750 0.067508
-0.069169 -0.007959 -0.060980 -0.050114 -0.029110 -0.028176 -0.049988 0.019208 -0.053090 -0.074743
-0.038003 0.013749 -0.028748 -0.053910 0.006865 -0.016550 0.046446 -0.062991 0.088032 -0.036961
0.004595 -0.013057 0.017604 0.059232 0.053172 -0.046144 0.022208 0.004898 -0.017552 -0.069702
-0.092769 -0.020752 -0.053130 0.057120 -0.018387 -0.027738 -0.089552 0.023603 0.055405 -0.096001
-0.077220 -0.071017 -0.023420 0.038675 0.034977 0.028911 0.000404 -0.036551 -0.053242 0.056366
-0.037579 0.034324 -0.056378 -0.012145 0.011732 -0.055005 0.041118 -0.003039 -0.010020 0.028939
-0.057079 -0.029161 -0.062085 -0.063707 0.015904 -0.014448 0.048917 -0.006561 0.068472 0.026466
-0.029916 -0.028318 0.005601 0.009005 0.000098 0.011656 -0.085727 0.069468 -0.023831 -0.059161
-0.121223 0.020149 0.057262 0.038120 -0.068839 -0.081090 -0.000377 0.004489 -0.095615 0.017481
-0.033287 -0.037252 -0.065735 -0.049949 0.006883 0.032334 0.023368 0.041790 0.049473 -0.008882
-0.071725 0.032923 -0.129122 -0.003200 -0.082755 -0.109321 -0.069596 -0.030501 -0.052433 0.064577
-0.037338 -0.055915 -0.052011 -0.027448 0.037324 0.073834 -0.060682 -0.029831 -0.017187 -0.045277
0.005743 -0.103019 -0.104128 -0.011662 -0.052606 0.055059 -0.120542 -0.105825 0.004380 0.025312
0.003444 -0.001292 0.043061 0.043542 -0.107597 0.043048 -0.093438 -0.049302 -0.045273 0.076831
0.037141 -0.114614 0.012652 0.036329 -0.131083 -0.028188 -0.082717 -0.126210 0.008338 -0.047146
0.025721 0.019828 -0.108930 -0.039594 0.027441 0.026951 -0.043256 -0.081776 -0.033023 0.006305
-0.054054 -0.070875 0.073831 0.033542 -0.032455 -0.065928 -0.049717 0.028208 -0.093382 0.012607
-0.012171 0.064296 -0.029110 -0.013077 0.067181 -0.090245 -0.076819 0.057907 0.012786 0.028140
-0.071749 0.061457 -0.057418 -0.043217 0.011376 -0.003441 0.005119 0.050331 -0.039915 0.012403
-0.020337 0.031565 0.029882 -0.043961 -0.029421 -0.047740 0.040002 0.029576 -0.098956 -0.069050
-0.022936 -0.092499 -0.008029 0.047213 0.004402 0.015011 -0.086292 -0.005485 0.091119 -0.092142
-0.050178 -0.039886 -0.005964 0.006655 0.057982 0.063314 0.064572 -0.070456 0.048198 0.008495
0.019050 -0.109160 0.084599 0.070700 -0.147787 0.018797 -0.030782 -0.047610 -0.088455 -0.034736
-0.046729 0.050997 0.047943 -0.073533 0.030357 -0.036172 -0.046243 0.006487 -0.084179 0.005114
0.026241 -0.158049 -0.037512 -0.066461 -0.029295 0.069663 -0.013753 -0.090113 -0.066444 -0.098610
-0.045793 -0.068039 -0.096107 0.044498 -0.012530 0.041438 0.027583 0.035637 0.008192 0.021896
0.015740 0.004557 0.010729 -0.060159 0.022562 -0.024398 0.060576 -0.037507 0.014443 -0.013583
-0.010828 -0.000316 -0.027886 0.020619 -0.068980 -0.126031 0.001480 0.003760 -0.039654 -0.056592
-0.034805 0.032717 0.001008 -0.068667 -0.056298 0.051735 0.043089 0.015918 0.002873 -0.071880
-0.042240 0.011856 -0.054078 0.001415 -0.001316 0.017902 -0.034750 0.037636 -0.020781 -0.096476
-0.050130 -0.014211 -0.029898 -0.083243 0.040529 0.065055 -0.008174 0.039384 -0.006181 -0.003254
0.043710 -0.031964 -0.096439 0.005293 -0.022594 0.025488 -0.098030 0.002002 -0.112593 -0.113488
-0.070655 -0.008221 0.043027 0.019514 -0.049530 -0.026796 -0.062017 0.022239 -0.062320 -0.046926
-0.083467 0.035774 -0.035618 -0.005971 0.024631 0.035004 0.044320 -0.084136 0.005559 0.004326
-0.001028 0.026336 -0.034892 -0.053718 -0.051313 0.081458 0.047362 -0.013933 -0.072084 0.022584
-0.049656 -0.053565 -0.083902 -0.088948 0.058001 -0.047559 0.020679 -0.048493 -0.055368 -0.097333
-0.056846 -0.039820 -0.082716 0.070232 -0.034022 0.021555 0.018484 0.007302 -0.045132 -0.028563
0.006588 0.023791 0.015241 -0.052336 -0.058832 0.054732 -0.070778 -0.082898 0.031117 0.032989
0.050799 -0.063520 0.049427 -0.057556 -0.077455 -0.030343 0.029655 0.050508 0.035466 -0.040045
-0.010057 -0.047748 -0.068082 0.031044 0.019750 -0.027014 -0.018921 -0.027512 -0.015207 0.007579
-0.007731 0.023657 0.000938 -0.045519 -0.010684 0.003238 -0.053420 -0.064660 0.035323 0.021860
-0.027186 -0.002690 -0.057801 -0.035362 0.029761 0.014156 0.024822 0.067901 -0.032910 -0.172738
0.005478 -0.058067 -0.002006 -0.057032 -0.093832 0.053039 -0.060253 0.011042 0.089073 -0.051925
-0.013697 -0.006006 -0.053344 0.024122 -0.000440 0.015103 0.057055 -0.083928 0.036768 -0.049845
-0.000603 -0.031112 -0.083923 -0.010497 -0.063498 -0.090888 0.019971 -0.095515 0.073451 -0.079693
-0.079323 -0.069556 0.048786 -0.025473 -0.151780 0.013254 -0.041386 -0.079081 0.068071 -0.023640
0.026405 0.012012 -0.015223 0.057795 -0.003561 0.074934 0.025060 -0.080522 0.059167 -0.035911
-0.013445 -0.027007 -0.056417 0.088160 0.001148 -0.013616 -0.010722 -0.014272 -0.075251 0.060406
-0.053162 0.000987 -0.007363 0.051616 0.057687 -0.063671 -0.077149 -0.084075 0.025728 0.009910
-0.057172 -0.015549 0.072722 -0.043263 -0.071566 -0.012447 0.022033 -0.037242 -0.015151 0.002452
-0.058356 -0.086542 0.008103 0.042867 -0.004318 -0.004714 0.027857 -0.002214 0.047362 0.046893
0.033577 -0.089249 -0.057552 0.069116 -0.080035 0.003017 0.043353 -0.035513 0.055023 -0.035673
0.068659 0.030539 -0.056252 0.020162 0.035964 -0.038069 -0.011836 0.019771 -0.015208 -0.031364
0.068595 -0.053239 -0.047716 0.088260 -0.056054 -0.030105 -0.000972 -0.087466 0.013567 0.032784
0.035552 0.007695 0.000198 -0.053336 -0.049303 0.060153 0.040441 -0.008182 0.035538 -0.065330
0.009731 -0.057214 -0.024880 -0.058115 0.012811 -0.150649 -0.121489 -0.037091 -0.034360 0.028157
-0.045542 0.042451 -0.080770 -0.114652 -0.041539 0.012173 -0.031710 -0.015212 0.008486 -0.074003
0.035903 0.050946 -0.077609 -0.030136 0.078347 0.038330 0.018665 -0.074031 0.007188 0.033680
0.019670 -0.063304 -0.026986 0.032613 -0.023597 -0.000943 0.010804 -0.068362 -0.062499 0.010276
0.052779 0.032819 0.048975 0.030115 0.071868 -0.077588 -0.033577 0.004179 0.044200 -0.035176
-0.013182 -0.015771 0.048297 -0.087924 -0.058475 -0.056447 0.024884 -0.070850 -0.008218 -0.035947
-0.134499 0.041597 -0.020096 0.066557 -0.045727 -0.027328 -0.097533 -0.067202 -0.032208 -0.038969
-0.062553 -0.043735 -0.053891 -0.100323 0.006795 -0.059051 0.003296 -0.081825 0.073175 0.009426
-0.136693 -0.038739 0.027137 -0.006630 -0.073758 -0.049379 -0.075009 -0.047354 0.040013 0.059457
-0.067897 0.010182 -0.014613 -0.031713 0.016887 0.042012 0.016038 0.004141 0.020316 0.025532
-0.045535 -0.040192 -0.025157 -0.066762 0.072083 0.011914 0.036323 0.021096 -0.056391 0.001190
0.025260 -0.002173 0.036126 -0.018977 -0.006467 -0.037412 -0.071426 -0.080446 -0.000033 -0.071985
-0.038930 -0.034854 -0.017460 -0.016888 -0.019507 0.028960 -0.079638 0.001130 -0.047277 0.023351
-0.042068 0.046780 -0.027529 0.012655 0.027734 -0.031973 0.031782 0.019420 0.064136 0.020641
-0.091789 -0.048975 0.034877 0.007743 -0.001181 -0.074753 0.037069 -0.028388 -0.012753 0.020465
-0.061221 0.026979 -0.087788 -0.039676 -0.068075 -0.123996 -0.037935 0.006609 -0.043272 -0.053719
0.077579 -0.114138 -0.002722 0.001184 -0.038526 0.010862 0.083315 -0.034386 -0.009554 -0.086887
0.031364 -0.097918 -0.024139 -0.078201 -0.104176 -0.047621 0.038661 -0.049766 -0.025171 -0.008876
-0.109646 0.065423 -0.004708 0.016772 -0.089179 -0.030339 0.016601 -0.102901 0.024647 0.038328
0.019310 -0.046422 -0.045322 0.023020 -0.032962 -0.069244 -0.037662 -0.028397 -0.032812 -0.067442
0.041555 -0.131943 -0.016103 -0.012655 -0.067183 -0.084745 -0.015326 0.022242 -0.102586 0.102713
0.072038 0.057536 0.015519 0.073626 -0.042165 -0.054014 0.060025 -0.051268 -0.062341 -0.037767
-0.018396 0.025041 0.022231 0.047399 0.065850 -0.009887 0.076175 -0.079401 -0.011877 -0.012634
0.008666 -0.020583 -0.056777 -0.043100 0.040343 -0.111197 -0.072824 -0.091905 -0.092071 -0.035666
-0.056786 0.053254 -0.004887 0.055948 0.040959 -0.045086 -0.071852 0.026768 -0.036922 -0.094242
-0.055120 -0.101224 0.021781 -0.093054 -0.147984 -0.000844 0.002391 -0.093695 0.041414 -0.024356
0.024548 0.063261 -0.000604 0.038228 0.058696 0.016993 -0.035451 -0.013629 0.006552 0.038315
-0.037030 0.036600 0.011930 0.015750 -0.069364 -0.091476 -0.067026 -0.055926 -0.061831 -0.019007
-0.035665 0.049561 0.028205 0.040265 -0.032494 -0.034891 -0.007239 0.000290 0.025665 0.048788
0.070230 0.022314 -0.067572 -0.041106 -0.053441 -0.062819 0.010021 -0.005290 -0.093905 0.025008
-0.000707 0.035984 -0.082511 -0.037205 0.025762 0.014886 -0.053013 -0.089650 -0.063818 0.005322
0.010936 -0.127704 -0.063530 0.050700 -0.021637 -0.099322 -0.020743 -0.087862 -0.081812 -0.059534
-0.000207 -0.003671 0.049976 0.085982 -0.006645 -0.054282 0.012677 -0.012337 -0.047413 -0.056946
-0.091126 0.040250 -0.078661 -0.017649 -0.057497 -0.072732 -0.089418 -0.016431 -0.079455 -0.005937
-0.092759 -0.057180 -0.085800 0.077980 0.061886 -0.061099 -0.098487 0.063167 -0.045874 -0.034291
-0.012683 -0.049414 -0.006994 -0.044093 0.032506 0.026404 0.036029 -0.019975 0.033292 0.013723
-0.046266 0.047447 0.033104 -0.054534 -0.073520 -0.010933 0.028839 -0.014640 -0.011860 -0.076778
-0.034791 -0.036600 0.023609 -0.046168 -0.043705 -0.044952 0.011809 -0.066656 0.036206 0.054427
-0.103205 0.054175 -0.056914 0.014674 -0.042786 0.016056 0.045925 -0.109556 0.079667 -0.039573
-0.098204 0.038867 -0.001742 -0.087685 0.001434 -0.005987 -0.032038 0.013840 -0.030147 -0.059376
0.041993 -0.020604 -0.058712 0.032699 -0.062744 -0.011909 0.076417 -0.091185 0.038258 -0.011274
-0.103842 0.035968 -0.022954 0.003193 -0.077033 0.049291 -0.048743 -0.011694 -0.048380 -0.013240
-0.028960 -0.139874 0.040110 -0.091327 -0.071568 -0.025636 -0.128759 -0.053517 0.002087 -0.038822
-0.024349 -0.085776 -0.023807 0.052547 -0.055305 -0.056610 0.061590 0.012574 0.048852 0.041085
-0.035406 -0.057674 0.000737 0.013365 0.016876 0.079964 0.006660 -0.018625 0.045043 -0.008055
0.007081 -0.012637 0.058638 0.063346 0.001690 -0.045139 -0.004201 -0.064572 -0.045226 -0.010115
-0.045764 -0.004439 0.021519 -0.041454 -0.075444 0.038345 -0.079529 -0.050211 0.022384 -0.044743
0.019913 -0.057863 0.064693 -0.052413 -0.065261 -0.007073 -0.010837 -0.055838 0.014891 0.016400
-0.093904 0.000112 -0.033869 -0.084784 0.000203 -0.077118 -0.105691 0.016891 -0.006787 -0.031733
0.019448 -0.007451 0.009494 0.036160 -0.030843 0.057268 0.016687 -0.064474 -0.053628 0.024834
-0.029399 -0.055168 0.003095 0.033865 -0.064542 -0.102522 -0.048152 0.098978 -0.036036 -0.103319
-0.043443 0.013883 -0.057022 0.020182 -0.057201 -0.002810 -0.010436 -0.095807 -0.036369 0.004652
-0.049823 0.029455 0.013163 0.008959 -0.088243 -0.025469 -0.014149 -0.056176 -0.003318 -0.043820
0.066964 0.044310 0.037731 -0.071301 0.052323 0.009077 0.052022 -0.033781 -0.064126 0.005021
-0.080206 0.066959 -0.004864 -0.019580 0.037476 -0.057958 -0.032710 -0.014601 0.016037 0.022527
-0.033035 -0.002482 -0.011714 -0.074507 0.012092 0.038878 0.037482 -0.035995 -0.077948 -0.045756
-0.046168 0.063226 0.071764 -0.060971 -0.005901 -0.086571 -0.110567 0.041770 -0.018952 0.023097
0.048905 -0.013969 0.082422 -0.027782 -0.105433 0.025426 0.052801 -0.151595 -0.003686 -0.025924
-0.085012 -0.043500 0.027793 0.011127 -0.092388 -0.021120 -0.037891 0.030512 -0.074410 0.029967
0.007569 -0.026621 -0.051160 -0.043079 0.032036 0.028000 0.046317 -0.002594 -0.016966 0.010932
0.013341 -0.009852 0.035992 -0.033686 0.044427 -0.084169 -0.043773 0.008771 -0.000777 -0.062494
-0.018766 -0.000649 -0.016270 0.005036 0.001057 0.042645 -0.016858 0.038525 -0.047669 -0.064700
-0.072387 0.044619 0.051372 -0.096947 -0.075385 -0.049206 0.025641 -0.048361 -0.070905 0.000721
-0.024735 -0.061959 0.034269 -0.016565 0.040179 0.057712 0.015322 -0.004944 -0.015965 -0.035665
0.029089 -0.049289 -0.015695 -0.053919 0.004997 -0.008987 -0.039789 -0.012141 0.010568 -0.073824
-0.044992 0.049339 -0.046902 0.027419 -0.018078 -0.012635 0.034842 0.006823 -0.021627 0.047177
0.006023 0.020179 -0.074837 -0.045301 0.030212 -0.000027 0.027863 0.071885 -0.069110 0.036523
0.072706 -0.083315 0.038456 -0.061107 0.053027 0.084489 -0.056094 -0.056363 0.033895 -0.093402
-0.084689 -0.069657 -0.073363 0.033596 -0.010937 -0.069750 -0.008464 -0.017715 0.002588 -0.096126
-0.096644 -0.076437 0.017368 -0.047307 -0.038094 0.049861 0.002706 -0.095948 -0.018787 -0.028715
-0.100161 -0.135947 -0.029476 -0.026340 -0.062634 0.040148 0.063828 -0.053073 -0.017492 -0.005063
-0.048509 -0.026229 -0.022633 0.052801 -0.073928 -0.099221 -0.095873 -0.027725 0.036520 -0.072081
0.020280 0.023575 -0.068426 0.033013 -0.028471 0.015139 -0.028344 -0.090062 0.031674 0.074658
0.046963 0.036956 -0.080653 -0.024354 0.031956 -0.013381 -0.061747 0.006483 -0.029053 0.003083
-0.115261 -0.048109 -0.080892 0.011910 0.066225 -0.073337 -0.080623 -0.075285 -0.093217 0.017671
0.003924 0.051739 0.061497 0.086078 -0.118875 -0.071327 0.049247 -0.003343 0.049062 -0.090661
-0.082435 -0.064579 -0.001499 0.001713 -0.009219 -0.035552 0.037321 0.042572 -0.004663 -0.009433
-0.124043 0.023179 -0.007886 0.059372 -0.045632 0.027166 -0.046480 0.021935 0.017204 -0.039776
0.008618 -0.101597 -0.088454 -0.050873 0.012552 0.041709 -0.086111 -0.104293 0.019244 0.059861
0.028579 -0.110267 -0.050445 -0.041112 0.055004 -0.041712 -0.043329 -0.043833 0.073130 -0.041280
0.030665 -0.071090 0.037683 0.006464 0.059899 0.019246 -0.044737 0.074569 0.043458 -0.069070
0.063446 -0.018344 -0.137199 0.058026 0.058361 -0.022098 -0.024313 -0.074487 -0.072379 0.022882
-0.048360 -0.030999 -0.025917 0.059155 -0.078760 -0.005935 0.046114 -0.016254 -0.081703 -0.044207
0.012379 0.009893 0.015475 0.008933 -0.076642 -0.042396 -0.016444 -0.050436 0.042654 -0.019889
0.022582 -0.027385 0.074649 0.035773 -0.075633 0.002688 -0.106369 -0.041969 -0.029471 0.003293
-0.054534 -0.003406 0.030077 0.039698 -0.003379 0.055624 0.011953 0.047902 -0.073783 -0.048576
0.032308 0.046746 0.031237 -0.043607 -0.011964 0.049935 0.016771 -0.037441 -0.074145 0.026111
-0.043449 -0.033795 0.014039 0.014452 -0.040378 -0.066587 -0.023543 -0.020591 -0.034407 0.039681
0.012573 -0.096087 0.054707 -0.058026 -0.057038 0.058999 -0.088989 -0.031660 0.021657 -0.005058
-0.048203 -0.007357 -0.012799 -0.013612 -0.031151 -0.011069 -0.035184 -0.021040 0.051400 -0.027100
0.036528 -0.016491 0.017641 -0.025859 -0.063151 0.111546 -0.061383 0.045933 -0.034166 -0.046700
-0.121745 0.037006 -0.042118 0.043186 -0.019427 -0.085789 -0.077738 -0.063701 -0.059288 -0.028787
0.061406 -0.032089 -0.086984 -0.070025 0.040981 -0.024311 -0.081853 0.030669 -0.066846 0.011342
0.018018 0.060533 -0.009496 -0.030384 -0.067529 -0.007938 -0.067920 -0.060194 -0.086624 -0.048738
-0.082203 -0.024087 0.048370 -0.016729 -0.014966 -0.044928 -0.052957 -0.071698 -0.017238 -0.031539
0.025997 -0.081416 0.028437 0.044613 -0.095089 -0.041737 -0.024659 -0.069146 -0.066583 -0.082471
0.058517 -0.062605 -0.065462 0.050470 -0.082357 0.080824 -0.097229 0.025511 -0.005883 -0.007032
-0.071782 0.040882 0.013976 -0.053391 -0.041437 -0.037273 -0.076463 -0.101035 -0.042215 0.044868
-0.033923 0.048464 0.060599 0.003233 -0.063504 0.024653 -0.051120 -0.036983 0.007699 -0.049160
-0.031046 -0.061424 0.063078 0.004327 0.050054 -0.012293 -0.000930 -0.001601 0.036677 -0.071120
-0.073907 -0.006756 -0.063715 0.000588 0.037934 -0.103078 -0.015214 -0.020015 0.023450 -0.002298
0.037348 -0.022779 0.041518 -0.112185 0.043166 -0.029087 0.002021 -0.090554 0.059077 0.044266
-0.013316 -0.081420 0.006104 -0.047292 -0.044970 0.049218 0.050726 0.051671 -0.039284 0.053286
0.050180 -0.047657 -0.056510 0.008292 0.013909 0.044274 0.068323 0.024230 -0.032839 0.021173
-0.082567 -0.050159 -0.075850 -0.024835 -0.130783 0.041312 0.006722 0.057362 -0.079218 -0.058989
-0.112773 -0.073041 -0.070928 -0.005665 0.026009 0.038313 -0.000481 0.064363 -0.060564 -0.100431
-0.001496 -0.006450 0.030625 0.037842 -0.076632 -0.065153 -0.034772 -0.012135 0.011028 0.056304
0.005283 0.065043 0.034253 -0.064291 -0.068387 -0.028018 0.040966 -0.088994 -0.026297 -0.064825
0.014048 0.033672 0.036328 0.053579 -0.048590 0.035275 0.016339 -0.001165 -0.061137 -0.006407
0.058015 0.061745 -0.074638 0.043618 0.045875 -0.073839 0.058663 -0.046967 -0.014746 -0.008821
0.060501 -0.012457 0.022719 0.070937 -0.039420 0.039127 -0.030348 -0.054909 -0.022006 0.032012
0.014740 0.012243 0.011951 -0.059930 -0.107962 0.011537 -0.014791 -0.019140 0.046939 0.081654
-0.143432 -0.150612 -0.006385 0.026327 -0.178467 -0.103106 -0.017634 -0.067179 -0.046912 0.038588
0.034565 -0.047454 -0.058633 -0.014325 0.027959 0.026131 -0.005875 -0.018818 -0.008946 0.010445
-0.053167 -0.069558 -0.038532 0.006162 -0.030202 -0.061062 -0.069910 0.028944 0.051228 0.007397
-0.071973 0.031227 0.031521 0.033247 -0.054599 0.021432 -0.043818 0.019792 -0.012674 -0.035529
0.010470 0.080323 -0.007591 0.039218 -0.014103 -0.021250 -0.120862 0.015407 -0.073007 -0.008145
0.100596 0.042289 -0.104220 -0.084929 0.002614 -0.060801 -0.044878 -0.077747 -0.029833 -0.057545
-0.130674 -0.028674 0.077822 -0.032317 0.018179 0.002379 -0.041895 -0.084222 -0.103988 -0.046489
-0.034158 -0.012281 0.015958 0.014177 0.063295 -0.047589 -0.043966 -0.005530 0.011143 0.000468
0.074813 0.019075 0.001362 -0.053351 -0.057501 -0.034710 -0.021085 -0.045836 -0.020768 -0.006295
-0.096082 -0.045086 -0.048367 -0.077657 -0.049681 0.027996 -0.005844 -0.017185 -0.012846 0.008108
-0.010591 -0.025214 0.010523 -0.034084 0.041157 -0.026656 0.069154 0.061725 0.010720 -0.035751
-0.042731 -0.023058 -0.013341 -0.081228 0.026825 -0.011520 -0.047791 0.007948 0.024615 -0.111511
0.024394 -0.018034 -0.085953 0.018278 0.032163 -0.053254 -0.052277 0.107780 -0.054050 0.025764
0.021141 -0.071483 0.030142 -0.064269 -0.076461 -0.045404 0.004841 -0.069288 -0.028713 0.013976
0.004472 0.017581 -0.034319 -0.050278 -0.018419 -0.031523 0.060265 0.015686 0.034763 0.011711
-0.070188 0.038485 0.002991 0.029223 0.062814 0.064880 0.041762 -0.008381 0.054838 0.015190
-0.104553 0.040649 -0.045680 -0.041175 0.049372 -0.030224 -0.061015 -0.103154 0.009382 -0.029348
0.025368 -0.059338 -0.061816 -0.009005 -0.070986 0.005088 0.076707 0.048462 0.004664 -0.057331
-0.109441 -0.021657 -0.021917 0.016209 0.043035 0.012097 0.051929 -0.077137 0.009269 0.023786
-0.030731 -0.031840 0.033482 -0.033252 -0.047218 -0.045224 -0.052412 -0.003835 0.042574 -0.081144
0.049131 0.049370 -0.025612 -0.013363 -0.036213 -0.023242 -0.003694 0.036365 0.036289 -0.056093
-0.071678 -0.041270 -0.047707 0.020683 -0.070749 -0.040201 0.025459 -0.058632 0.052801 -0.038269
0.044226 -0.112651 -0.077415 -0.078592 0.034875 0.076212 0.054785 -0.058296 0.083048 -0.091696
-0.020235 -0.099437 -0.029773 0.050694 -0.009700 0.065031 -0.044695 0.046673 0.058029 -0.049596
-0.058317 -0.105728 -0.119369 0.074696 -0.082658 0.016877 0.018952 0.013306 0.018330 0.009260
0.082332 -0.067514 -0.014037 -0.038239 -0.044270 0.017038 -0.010640 0.002019 -0.014563 0.034230
-0.091710 0.031595 0.025190 0.054967 0.052625 0.001742 -0.120604 -0.102101 0.022121 0.041145
0.065900 0.030050 0.053387 0.016427 -0.081104 -0.065666 0.010003 -0.099276 -0.061950 -0.007549
0.104033 -0.040083 -0.044921 -0.010397 -0.073935 -0.104020 -0.130441 0.023241 -0.078492 -0.101778
-0.109919 -0.068400 0.073578 -0.061845 -0.044522 -0.025816 0.026910 -0.079325 0.024544 -0.020141
-0.019634 -0.026309 -0.034911 0.027269 0.070419 0.049840 0.062895 0.068516 -0.111273 -0.086472
0.037101 -0.032104 -0.058309 0.017265 -0.045192 -0.046064 0.014674 -0.030184 0.025241 -0.075394
0.075638 -0.112285 -0.068244 -0.104286 -0.074035 0.035622 -0.004689 -0.093092 0.005118 0.007220
0.034258 -0.103594 -0.023485 -0.079839 -0.083238 -0.003212 -0.016773 -0.068574 -0.120319 -0.093761
-0.040794 -0.069104 -0.075704 -0.004113 0.071074 -0.004937 0.001703 -0.088147 -0.022593 -0.081458
-0.074421 0.005756 -0.070426 -0.073413 0.007124 -0.013178 -0.054457 -0.043211 -0.046959 0.075798
-0.038536 -0.070917 -0.045512 -0.048091 0.049834 0.058277 0.053420 -0.086976 0.031977 -0.016825
0.078584 0.040712 -0.066277 -0.005480 0.029708 -0.073599 0.026587 0.046417 -0.054722 0.049526
-0.048434 0.012418 0.022715 -0.056965 -0.065407 0.004996 -0.012875 -0.082585 -0.058689 0.085889
0.064865 0.030049 -0.111167 0.062510 -0.030503 0.034745 -0.067655 -0.001431 -0.127242 -0.057424
-0.085932 0.028169 0.036249 -0.051029 -0.027548 -0.018938 0.059232 -0.007510 0.042688 -0.045181
-0.011858 0.008498 0.039051 0.004145 -0.001130 0.006253 -0.072456 -0.015580 -0.003064 -0.033951
-0.023046 0.060208 0.014133 -0.061714 0.029647 0.012119 -0.042414 -0.080631 -0.060475 0.070672
-0.047477 -0.018351 0.061532 0.061116 0.019673 -0.007186 -0.032258 0.000508 0.019705 0.045847
0.007767 0.052109 0.050634 -0.054433 -0.003822 -0.043333 -0.110213 -0.096818 -0.099717 -0.011769
-0.078370 0.048714 -0.025636 0.066336 -0.083034 0.042949 -0.024826 -0.047280 0.064297 0.014851
0.017646 -0.028810 0.038153 -0.072535 0.044964 -0.060859 0.029612 0.031982 -0.033986 0.016336
-0.087485 0.055043 -0.041914 -0.079190 0.046228 0.014826 0.054351 -0.013343 0.054835 -0.047437
-0.032245 0.015493 -0.102840 0.018325 -0.025993 -0.006068 0.018059 -0.092496 0.028365 0.051624
0.000271 -0.044079 -0.058872 -0.072980 -0.059585 -0.084191 -0.039868 -0.068621 0.062880 -0.079614
-0.101265 0.020547 0.043573 -0.099485 -0.067607 -0.090410 -0.062102 0.034851 -0.041919 -0.082984
0.062518 0.034530 -0.114436 0.059363 0.032900 0.001416 -0.084947 0.045068 -0.003020 -0.018463
0.059598 -0.049329 -0.001036 -0.047968 -0.045990 0.034990 0.068099 -0.179537 0.054314 0.006214
-0.014641 -0.080437 -0.098234 0.031767 -0.025679 -0.093481 -0.038334 0.038378 -0.010418 -0.045402
-0.000511 -0.006709 -0.040819 -0.086998 0.032084 -0.015725 -0.022162 -0.069417 -0.012839 -0.039037
-0.023384 -0.000955 -0.062239 -0.015577 0.033917 0.045032 -0.070274 0.043998 -0.007697 0.017174
0.036654 0.019874 0.001430 0.011570 0.052464 -0.059448 -0.012718 0.021959 -0.002536 -0.029170
0.024304 0.018409 -0.067492 0.072659 -0.061696 -0.073161 -0.121141 -0.050737 -0.063441 0.039763
0.077087 0.016158 -0.070980 -0.033364 -0.047471 -0.019925 -0.031973 -0.054602 -0.023159 0.024057
-0.164321 -0.044390 0.001913 -0.014378 -0.082202 0.043935 -0.061228 -0.043161 0.046612 0.032341
-0.053478 -0.051145 -0.061637 -0.041621 -0.074541 -0.027149 -0.041416 -0.066677 0.040115 -0.001904
-0.008338 0.063543 0.009632 -0.054168 -0.064751 0.042516 -0.072601 -0.115402 0.034992 -0.006631
0.024972 0.013703 0.032838 -0.001443 -0.086965 0.004396 0.019039 -0.007434 0.077123 -0.007907
0.056993 -0.000684 -0.061995 0.058796 -0.104293 -0.061068 0.051406 0.003731 -0.024917 -0.016717
-0.081750 -0.128639 0.037179 0.042812 -0.055972 0.019873 -0.012888 0.008398 0.047329 0.027051
-0.032114 -0.036251 -0.000207 0.006394 0.050315 -0.084904 -0.061923 0.040920 0.021061 0.036822
-0.041347 -0.026021 -0.088090 0.063396 -0.085923 0.027591 -0.018218 -0.026058 -0.164097 -0.002435
-0.044154 0.043494 -0.014485 -0.026552 0.019040 -0.052451 0.071166 -0.005357 -0.036052 -0.058643
-0.077078 -0.108247 0.062837 -0.048027 0.046000 -0.074303 0.032621 -0.057408 0.041699 0.019565
-0.032848 -0.012261 -0.081340 0.041984 0.011141 0.054582 0.031904 -0.028411 -0.060645 -0.074480
-0.148528 0.071126 -0.006726 -0.069938 -0.046408 -0.078198 0.018638 -0.088642 0.052485 0.010618
0.066100 -0.009379 0.038468 -0.008017 -0.006601 -0.025547 -0.038774 -0.087932 -0.044625 0.005468
0.007764 -0.007999 0.061657 0.010132 0.013993 0.077886 0.013169 -0.069380 -0.100373 -0.045283
-0.023711 0.068069 -0.056919 -0.014953 0.030948 -0.023695 -0.023182 -0.040190 -0.021238 -0.021249
0.019505 0.071397 0.034338 -0.096769 -0.036920 0.027603 -0.050112 0.066940 -0.092501 -0.040624
0.044009 0.044289 0.065222 -0.014547 -0.038796 0.011973 -0.113901 -0.092558 0.073122 0.055508
-0.098907 0.027490 -0.062585 0.053280 0.021566 -0.004383 -0.036721 -0.002577 -0.003726 -0.070584
0.006395 -0.022631 -0.013585 -0.047494 -0.021819 0.026567 0.070195 0.029855 -0.002523 -0.048074
0.040880 0.039182 0.060426 0.067386 -0.017806 0.046111 0.044973 -0.021108 -0.074908 -0.022729
-0.054541 -0.048099 0.014081 -0.015377 -0.033431 0.043750 -0.038177 -0.081234 -0.056852 -0.004502
-0.016878 -0.040309 -0.007544 -0.000614 -0.029548 0.046291 -0.020461 -0.037841 -0.075569 -0.062995
-0.107332 -0.072037 0.013360 0.057242 -0.094028 -0.091854 -0.073867 0.024644 0.037894 -0.067990
0.006274 0.021750 0.027854 -0.060025 0.009283 0.019780 -0.056689 -0.113813 0.033139 0.059701
0.000758 -0.030664 -0.046340 -0.031179 0.014815 -0.031847 -0.014284 -0.020599 -0.057761 -0.023794
0.100948 -0.093656 0.016557 -0.058448 0.008166 -0.024932 -0.074799 0.004697 -0.040760 0.034112
-0.036903 -0.056733 -0.005342 0.014441 0.035059 -0.035530 -0.070012 -0.052421 0.028022 -0.036663
-0.027518 -0.015043 0.031402 0.020077 -0.058632 -0.053680 0.022338 0.059253 -0.028134 -0.047818
-0.014990 0.061638 0.003856 -0.006229 0.006077 -0.011677 -0.055979 0.023231 0.030770 0.016209
0.034831 -0.070001 0.018087 -0.039530 0.023269 -0.051771 -0.087946 -0.016997 0.025360 -0.103144
-0.035193 0.068984 -0.041832 -0.022202 0.066438 -0.028626 0.013170 -0.076939 0.018714 -0.081428
-0.101242 -0.010448 -0.094042 -0.090626 -0.030391 -0.094122 0.027420 -0.050861 0.104647 -0.066612
-0.041786 0.038650 -0.146608 -0.050168 0.065527 -0.012486 -0.080016 0.051582 0.040518 -0.022277
-0.021453 0.024944 0.027730 0.018579 0.043395 0.069350 0.029700 0.035106 0.005488 -0.049171
0.080417 0.059350 -0.048710 -0.047136 -0.031224 0.036468 -0.051980 -0.040414 0.058059 0.025403
-0.037997 0.020220 -0.048929 -0.039750 0.036437 0.063639 0.022700 -0.038871 0.063064 -0.000549
-0.115574 -0.055923 -0.088974 0.000282 0.075713 -0.108909 -0.080368 -0.045319 -0.050144 -0.012481
0.052119 -0.059645 -0.084460 -0.048190 -0.046162 -0.062585 0.033028 -0.113483 0.026078 0.043379
0.017071 -0.039047 -0.089205 -0.037125 -0.006494 -0.037678 0.033192 -0.065633 -0.067545 -0.083897
-0.020374 -0.053737 -0.107783 0.029299 0.026286 -0.029408 -0.076643 0.028291 -0.063575 0.002032
0.000842 -0.070847 0.083598 -0.056787 -0.082882 -0.072652 -0.046499 -0.020515 -0.043946 -0.037131
-0.073270 -0.057953 0.011254 0.055945 0.017775 0.003860 -0.002428 -0.030448 -0.027984 -0.104727
0.008360 -0.025284 0.057693 0.067445 -0.077258 -0.022159 -0.016404 -0.011891 0.025364 0.023228
-0.034173 -0.080389 -0.053249 0.071103 -0.047768 0.057022 -0.020077 -0.090494 -0.076652 -0.060510
0.050707 -0.059875 0.014862 0.047604 0.040481 -0.062583 0.008233 -0.019084 -0.013493 -0.048360
-0.040199 0.048630 0.010358 -0.040212 -0.088117 0.030897 -0.032213 0.069786 -0.065549 0.003603
-0.072016 0.005643 -0.008518 0.065901 -0.050734 0.051819 -0.108587 -0.075834 -0.073296 0.082574
-0.114275 0.025074 -0.000268 0.014887 -0.068087 -0.001584 -0.094291 0.057482 -0.096702 -0.011594
-0.046469 -0.099563 -0.007222 0.036274 -0.062426 0.056822 0.043687 0.014759 -0.069451 -0.017960
-0.064788 0.042807 0.071236 -0.015305 0.020069 -0.011756 -0.024267 -0.093690 -0.019847 0.065620
-0.063293 -0.045776 -0.013358 0.001017 -0.049946 -0.054257 0.087016 -0.063926 -0.094057 0.031795
